the 0.492762 -0.515427 -0.758553 -0.472668 0.871226 -0.367086 1.034245 -0.540531 -0.721997 -0.535581 -0.767710 -0.565529 2.299083 0.295221 0.079453 0.495447 0.484690 0.660022 0.566811 0.805512 -0.028838 0.621976 -0.299790 0.408035 1.185656 -1.493600 -0.500934 0.313859 -0.688256 1.109762 -0.080946 -0.114286 -0.172069 -1.269989 0.620083 0.757823 1.239127 -0.414379 1.376532 1.715295 -0.396654 0.396703 -0.347543 -0.978160 -0.705263 1.557217 -0.374128 1.323244 0.266321 1.129785
a -0.065565 -0.396633 0.797860 -0.782813 -0.588653 0.229172 0.094853 1.082466 0.153373 0.282408 -0.615687 -0.939221 1.640874 -1.201664 -0.421491 -1.173219 1.245736 -0.068988 1.008412 -0.279231 -0.816999 0.751589 0.869027 1.197939 1.282671 -1.383033 -0.639067 -0.422514 -0.553567 1.467660 -0.445284 0.023747 1.566857 -0.502828 -0.368794 0.222243 0.089817 0.093337 1.709628 1.646686 0.287177 1.739548 -1.563196 1.159680 0.213190 -0.471404 0.192458 0.201482 -0.347441 -0.357579
is 0.510883 0.344299 -0.167749 -0.775588 -0.128141 -0.257987 0.710346 0.103131 0.881011 -0.634701 0.354851 -1.680581 1.135936 0.517607 0.112322 0.097125 -0.257734 0.300340 0.380140 -0.274703 -0.416690 1.450614 0.784149 0.491471 0.515300 -1.398710 0.234812 -0.016031 -0.449795 1.394388 -0.362716 -0.375507 0.164345 -0.729185 -0.452689 -0.019929 0.279117 0.192254 1.168934 0.508533 0.990759 1.098910 -1.896691 1.064837 -0.705129 1.059633 0.233115 -0.023135 0.096656 0.710097
of -0.177685 -1.240066 -0.270538 0.113667 0.254442 -0.140329 0.167254 0.024463 0.110792 0.624355 0.471948 -0.431875 1.620658 0.493954 -1.094718 -0.112242 0.091866 -0.542112 0.971939 0.095758 -0.642191 0.718547 0.016576 0.939259 0.371991 -1.132096 -0.534373 -0.458734 -0.353726 1.211915 -0.634742 0.216639 0.482968 -1.402318 -0.294156 0.344330 0.039330 -0.598809 1.158954 2.203086 0.719052 1.454704 -0.273313 1.012847 0.519841 0.118184 -1.092595 1.063732 1.066298 0.037047
go 0.077450 -0.364972 -0.427038 -0.516900 0.261741 0.440609 1.033532 0.189443 0.474077 -0.370749 -0.419895 -1.226087 1.053774 0.247081 -0.111028 -0.019028 -0.503546 -0.374980 0.170527 0.008532 -1.092530 1.170048 -0.568388 0.488689 0.220133 -2.221632 -0.285725 0.746369 1.278992 0.095326 -0.560500 -1.025842 1.440855 -0.782739 0.680768 -0.646209 -0.412574 -0.356256 0.817305 0.349000 0.446232 -0.457425 -0.513831 0.913772 0.094338 0.035422 0.563361 0.723346 -0.273972 0.810554
to 0.820584 -0.690056 0.138875 -0.151889 -0.200356 -0.519685 0.021213 0.101091 0.222986 -0.519959 -0.529392 -0.350180 1.369712 -0.571681 -0.405049 0.083390 0.314489 0.094334 0.273260 0.239661 0.071731 -0.146812 0.101630 0.343207 -0.057102 -0.244345 0.470151 0.858602 0.229348 0.610691 -0.366744 -0.522729 0.104541 -0.085985 0.942385 0.043494 0.465719 1.095572 0.489053 1.272181 0.264919 -0.267554 -0.669300 -0.211101 -0.474065 1.262942 -0.124276 1.081804 -0.284577 1.091724
room 0.374167 -0.064075 0.336069 -0.335535 0.085820 -0.443735 0.172653 0.262831 -0.085314 -0.420984 -0.302476 -2.009110 1.460799 0.281376 -0.430402 0.046306 -0.211772 -0.005630 -0.301471 0.343301 0.445863 0.923418 0.801147 -0.007294 0.241722 -0.878991 0.607263 0.825481 0.535915 0.106253 -0.962371 -1.170261 0.162157 -0.537959 -0.113554 -0.480954 -0.242653 0.009400 1.229295 -0.076758 0.921877 -0.371298 -0.633320 1.320179 -0.271514 0.879145 0.188403 0.940323 -0.044530 0.841241
there 0.436252 -0.135580 0.073622 -0.044012 -0.358774 -0.351499 0.139705 -0.061586 0.271475 -0.445850 -0.096018 -1.743014 0.734473 -0.182088 0.152301 0.333986 -0.265332 -0.069726 0.664042 -0.412003 -0.312151 0.295486 0.247087 0.736548 0.805060 -0.762990 0.004363 0.351643 -0.230072 0.121075 -0.265658 -0.749363 0.313732 -0.229970 -0.138475 -0.696756 0.481560 0.297597 1.151986 -0.028844 0.321878 0.688525 -1.644052 0.647167 -0.826329 -0.003982 -0.187191 0.738434 0.465354 1.152853
you 0.516420 -1.390646 -0.401064 0.080376 0.359079 -0.094149 0.210697 -0.445766 0.210056 0.226838 -0.304015 -0.639787 1.882044 -0.667021 -0.486568 0.090784 -0.042574 0.999875 0.211783 0.093344 0.413752 -0.074818 -0.077818 0.769001 0.315804 0.003954 0.127791 0.703781 0.526760 -0.148129 -0.765008 -0.612805 0.995753 -0.034548 0.345642 -0.020741 0.071876 0.177199 0.801007 1.140499 -0.393433 -0.331299 0.031883 0.111191 -0.020720 1.546345 -0.275984 0.415693 -0.713691 0.359542
on 0.574564 0.074200 -0.821849 0.148152 0.089282 -0.218782 1.147030 -0.237883 0.830495 -0.564530 -0.157001 -0.875555 2.151765 -0.319578 -0.037938 0.176540 -0.494853 1.186959 0.648721 -0.110904 -0.142254 0.826800 -0.524349 0.757923 0.404676 -0.602472 -0.028635 0.732485 -0.109791 0.037626 -0.107129 -0.029709 0.513762 -0.851547 -0.505476 -0.171783 0.427955 -0.314275 0.536609 1.008164 0.109760 0.730033 -0.423162 -0.003564 -0.691078 1.309475 0.136307 0.265843 -0.131487 0.469076
and 0.815282 -0.933515 -0.033542 0.049154 0.215192 -0.173986 -0.227253 0.540067 -0.118893 -0.430739 -0.066960 -1.004617 0.827531 -0.635291 -0.506810 -0.095830 0.372586 0.585880 0.433451 -0.070306 -0.184879 -0.087107 0.323512 0.391116 0.070802 -0.570115 0.285052 0.588771 -0.421553 0.552298 0.182598 -0.972507 0.259055 0.249960 0.459692 -0.384635 -0.311395 0.984354 0.513783 0.951067 -0.245066 -0.389945 -0.623639 0.091847 -0.524008 0.338167 0.074746 1.041470 0.267099 1.034532
in 0.580769 -0.955554 -0.127677 -1.434785 0.390755 0.366008 -0.300431 0.126388 -0.588571 0.145098 -0.288988 -0.595734 1.099705 0.021667 -1.020263 0.542684 0.019955 0.803904 -0.088840 -0.535577 0.866628 0.618792 0.482607 0.407100 1.002346 -0.717410 -0.914023 -0.025728 -0.264636 0.670398 -0.926663 -0.549770 1.177106 0.048494 -0.425742 0.284288 -0.321960 0.085991 1.633512 1.152306 -0.097122 0.459695 0.481595 0.964526 -1.002356 0.871345 0.461337 -0.086148 -0.205083 -0.061764
here -0.268788 -0.153153 -0.321705 -0.748418 -0.609195 -0.296830 -0.147030 -0.033014 0.363699 -0.077634 -0.409272 -1.008428 0.311589 -0.110141 -0.114662 0.058027 0.155909 -0.326274 0.666325 -0.302383 -0.647093 0.396209 -0.001827 0.753897 1.027247 -0.842313 -0.056366 0.054432 -0.188059 -0.026843 -0.263265 -0.577830 0.875909 -0.339014 0.324777 -0.386983 1.079178 -0.230352 0.839517 -0.056991 0.000364 0.999523 -1.490796 0.587142 -0.981975 -0.175865 -0.381514 0.572814 0.511083 1.105724
are 0.686084 -1.402459 -0.447280 0.475779 0.263603 -0.098083 0.487526 -0.473586 0.330960 0.069249 -0.082434 -0.978726 1.791668 -0.568941 -0.633529 0.791447 -0.298387 1.085534 0.461429 -0.261797 0.227826 -0.163003 -0.430564 1.158119 0.645412 0.005314 -0.288160 0.760353 0.378320 -0.458962 -0.636803 -0.813227 1.012900 -0.190498 -0.354508 -0.361949 -0.036987 0.038360 0.904209 0.754997 -0.183574 0.151516 0.195934 0.287279 -0.361219 1.020005 -0.450403 0.547860 0.061629 0.394856
east 0.620315 -0.658665 0.049548 -0.014793 0.048485 0.075147 0.676384 0.447644 0.117532 -0.630482 -0.464942 -1.528441 1.026449 -0.063873 -0.009948 0.313803 -0.151826 0.452155 0.312821 -0.172849 -0.518157 0.310456 -0.052424 0.497291 0.238530 -1.241516 0.205208 0.705489 0.488888 0.325167 -0.004124 -1.163493 0.708783 -0.301200 0.380586 -0.572014 -0.267401 0.396028 0.878452 0.387223 0.369492 -0.398405 -0.581715 0.486213 -0.250816 -0.004076 0.336075 0.898713 0.174977 0.979981
south 0.391986 -0.955893 -0.372943 -0.243583 0.241239 0.178840 0.385216 -0.125816 0.140413 -0.052802 -0.075873 -0.920125 0.970487 -0.103681 -0.664829 0.227988 -0.389514 0.000082 0.329081 -0.035053 -0.590033 0.510847 -0.378421 0.752521 0.429615 -1.136529 -0.243455 0.711459 0.648555 0.222437 -0.570617 -0.740952 0.712101 -0.636849 0.491416 -0.407284 -0.425010 0.216491 0.554261 0.678585 0.108628 -0.251670 -0.335977 0.571415 -0.336194 0.333978 -0.290890 1.087615 0.289552 0.859208
north 0.323948 -0.816880 -0.083335 -0.251349 0.250071 0.099710 0.164351 0.014691 -0.067301 -0.193632 -0.253125 -0.974505 1.034836 -0.084351 -0.522348 0.133087 -0.138700 -0.027796 0.227081 0.172165 -0.389818 0.520059 -0.118397 0.480521 0.387994 -1.187384 -0.004988 0.900288 0.778659 0.267588 -0.523832 -1.004416 0.776573 -0.495532 0.596602 -0.396727 -0.432645 0.330233 0.546564 0.487675 0.126295 -0.430807 -0.492853 0.597248 -0.227897 0.419615 -0.130616 1.146793 0.091053 0.945055
with 0.122397 -0.200252 0.316942 -0.759036 -0.108149 -0.099300 -0.024839 -0.179045 0.099769 -0.149863 0.178319 -1.187705 0.431490 -0.177846 -0.098524 0.293590 0.732130 0.208070 0.137664 -0.016254 0.630684 0.210000 1.047755 0.135688 0.571047 0.071137 0.156352 0.014280 -0.346386 0.639242 -0.680084 -0.510852 0.026623 -0.137702 -0.014798 0.083362 0.242852 -0.123396 0.915776 -0.320331 0.274280 0.374519 -0.553886 0.289383 -0.139042 1.009330 -0.321925 0.028490 0.223651 0.398427
take -0.822191 0.313705 -0.356767 -1.328409 -0.992683 0.159321 -0.469787 0.015700 0.424835 0.102486 -0.462984 0.317699 -0.069504 0.092789 -0.940950 0.122382 0.489449 -1.036049 -0.251754 -0.065112 -0.666532 0.946925 -0.485835 0.616886 0.964358 -0.890776 -0.745233 0.271627 0.654966 0.006064 -0.933633 -0.157363 1.419596 -0.456469 0.649622 -0.182827 0.309641 -0.409952 0.216942 -0.046797 0.290447 0.804335 -0.575912 0.524567 -0.724116 0.178737 -0.137380 0.237213 0.113705 0.487424
taken -0.615213 0.481979 -0.178688 -1.365729 -0.937454 0.318724 -0.236422 0.181762 0.345282 -0.051570 -0.732429 0.257851 0.155688 -0.009069 -0.774309 0.058382 0.494387 -1.122253 -0.338649 0.046617 -0.804129 0.972256 -0.510611 0.457241 0.941972 -1.220342 -0.826800 0.477799 0.917477 0.015712 -0.907563 -0.318178 1.429365 -0.418176 0.856823 -0.337508 0.131747 -0.220375 0.250473 0.068873 0.246646 0.479025 -0.535737 0.466671 -0.723244 0.085224 0.166559 0.386658 -0.061168 0.507254
this 0.341060 -0.500626 0.431024 0.013350 0.211063 0.013654 0.663381 0.475486 0.456556 -0.130634 0.274050 -1.255328 0.748591 0.607694 -0.280731 -0.243518 -0.118990 -0.287389 0.058213 0.128927 -0.452365 0.819527 0.579853 0.047822 -0.351457 -1.334014 0.446458 0.208134 0.532453 0.852980 -0.475600 -0.738129 0.126788 -0.679614 0.104537 -0.174786 -0.842206 0.148444 0.695540 0.450334 1.175271 -0.291710 -0.511131 1.408212 0.475648 0.111167 0.060804 0.658203 0.325343 0.304499
west 0.470622 -0.302763 0.027792 -0.060483 0.089948 -0.196427 0.162371 0.370931 -0.073003 -0.455601 -0.384034 -1.223918 0.933912 -0.097047 -0.258205 0.059580 0.019349 -0.028580 0.255516 0.096530 -0.355729 0.368565 0.022194 0.240237 0.154899 -1.008415 0.140397 0.731810 0.172919 0.253862 -0.079813 -0.891416 0.397140 -0.338159 0.402614 -0.504648 -0.162982 0.368641 0.674850 0.450914 0.297996 -0.327269 -0.660146 0.412821 -0.271493 0.213060 0.218662 1.076665 0.225500 1.077912
large 0.336771 0.086607 0.473079 -0.534643 -0.349844 -0.009678 0.176369 0.362062 0.373057 -0.052512 0.039879 -0.954611 1.092153 -0.498655 -0.381880 -0.107545 0.370220 0.214100 -0.107997 -0.119618 0.267452 0.452315 1.024675 0.315924 0.241112 0.036846 0.235870 -0.145546 -0.112357 0.658020 -0.646425 -0.202981 0.281907 -0.176408 -0.531226 -0.045399 -0.107412 0.138355 0.938222 0.305538 0.656761 0.590589 -0.648123 0.782006 -0.069220 0.432155 0.000225 -0.043493 -0.254490 -0.193252
down 0.312777 0.286934 0.114759 -0.089111 0.051532 0.063384 0.632629 0.291364 0.276106 -0.465546 -0.583757 -0.740740 1.209927 -0.543181 0.172593 -0.681474 0.064467 0.090344 0.033986 0.492402 -0.404640 0.631900 -0.199851 0.089582 -0.040533 -1.176356 0.278115 0.949865 0.584661 -0.077546 -0.279742 -0.746080 0.787339 -0.005266 0.721101 -0.346589 -0.036804 -0.080479 0.417245 0.296253 0.041000 -0.714934 -0.577931 -0.035136 0.136532 0.615286 0.840230 0.445946 -0.852982 0.536086
which 0.396986 0.016278 0.368367 -0.033957 -0.122596 -0.491955 0.198498 0.140460 0.147581 -0.106817 -0.062161 -0.824330 0.964959 -0.100964 -0.300170 0.147983 0.268981 0.237227 0.014180 -0.017390 0.402969 -0.006343 0.598231 0.302975 0.288297 0.282215 0.482529 0.121698 -0.106732 0.569571 -0.491940 -0.386249 -0.095431 -0.276531 -0.325588 -0.068197 0.404209 0.205912 0.669624 0.427359 0.605911 0.512523 -0.530670 0.321793 -0.043445 0.731799 -0.388373 0.315108 -0.201904 0.088418
your -0.479306 -0.513452 -0.855663 0.203018 -0.249110 -0.679344 -0.635706 -0.221121 0.418587 -0.060697 0.411243 -0.543936 0.446748 0.449384 -0.636986 0.069384 0.103481 0.165321 0.181035 0.028537 0.047371 0.192888 -0.161720 0.399861 0.015833 0.220158 0.580707 0.213737 -0.191483 -0.044237 -0.268830 -0.389433 0.231980 -0.549106 0.045767 -0.082432 0.328640 -0.383821 -0.142378 0.015482 0.155015 0.604137 -0.530684 0.388764 -0.139537 0.839870 -0.809462 0.712259 0.750127 0.955169
from 0.299652 -0.657886 0.153934 0.210080 0.130805 -0.315829 0.037485 0.215358 -0.073553 -0.134823 -0.281416 -0.570955 0.642529 -0.010812 -0.216177 0.079227 0.235075 0.140630 0.426080 0.078315 -0.159688 -0.150999 0.136693 0.291928 0.025544 -0.248789 0.293053 0.327492 -0.067974 0.447672 0.047876 -0.486217 0.011534 -0.257628 0.176504 -0.023068 0.099513 0.446856 0.428517 0.681157 0.177117 -0.114353 -0.371656 0.202173 -0.104952 0.224163 -0.317081 0.757873 0.214654 0.544589
an 0.477193 0.323838 -0.000976 -0.330496 -0.089305 -0.337559 -0.019524 -0.143046 0.126346 -0.522095 0.166256 -1.018009 0.289128 0.268685 0.070045 0.382435 -0.070028 0.248605 0.280618 -0.170902 0.321150 0.305653 0.486718 0.038493 0.386955 -0.015818 0.241929 0.138050 -0.491675 0.238769 -0.288101 -0.269343 -0.342228 -0.150288 -0.229458 -0.184294 0.489826 0.050866 0.654937 -0.298713 0.413906 0.544991 -0.760410 0.199204 -0.789786 0.535095 -0.060570 0.042878 0.317227 0.625451
up 0.243330 -0.519944 -0.168864 0.193989 0.328901 0.153160 0.554465 0.141276 0.341053 -0.043566 -0.259574 -0.468195 0.827396 -0.299712 0.023061 -0.428346 -0.197747 -0.043056 -0.093485 0.422729 -0.426717 0.311252 -0.389650 0.042576 -0.442381 -0.962232 0.299292 0.471441 1.033677 -0.059665 -0.521854 -0.708333 0.842758 -0.067445 0.677313 -0.285810 -0.320364 -0.060262 0.377684 0.470075 0.140557 -0.902566 -0.017202 0.230277 0.615901 0.242642 0.401873 0.325990 -0.723066 0.366118
coal -0.256912 -0.499406 -0.070370 -0.162958 0.220778 0.794673 0.636816 0.430747 0.134785 -0.031196 -0.021004 -0.547486 -0.077906 0.411173 0.101630 -0.153326 -0.277490 -0.485870 0.054880 -0.145870 -0.985535 0.804622 -0.281773 0.182407 -0.026106 -1.756236 -0.273473 -0.028034 0.977179 0.403034 -0.072460 -0.559892 0.998983 -0.445046 0.486707 -0.263716 -0.824489 -0.227537 0.333360 0.039552 0.514858 -0.418688 -0.102668 0.921145 0.624840 -0.972039 0.384697 0.290391 0.064341 0.087245
be 0.474320 -0.163157 0.455504 0.133281 -0.330303 -0.523534 -0.357727 0.070075 -0.255554 -0.052213 -0.305715 -0.202631 0.917471 -0.843891 0.218146 -0.295509 0.404912 0.176031 0.649833 -0.371813 0.736383 -0.638662 0.333100 0.397153 0.196569 1.007319 0.440718 0.168631 -0.360431 0.613815 -0.178273 0.143749 -0.216927 0.078802 0.255498 -0.075638 0.459335 1.063152 0.597652 0.960080 -0.013632 0.011094 -0.767192 -0.373007 -0.188420 0.513699 -0.491599 0.509032 -0.527104 0.231066
small 0.346714 -0.037282 0.439936 -0.378815 0.043467 -0.101492 -0.072014 0.317180 -0.165220 -0.009000 0.024837 -0.866910 0.647549 -0.012112 -0.443020 0.118510 -0.004589 0.167506 -0.233250 -0.004809 0.477493 0.422776 0.758051 0.101512 0.290563 -0.295214 0.105424 0.019027 0.091474 0.528442 -0.623857 -0.533858 0.187848 -0.096341 -0.345025 -0.060347 -0.060683 0.150551 0.775265 0.273111 0.573204 0.179522 -0.135629 0.783739 -0.050134 0.308715 0.219275 0.131052 -0.338975 -0.100127
all 0.073703 -1.076686 0.027375 0.133902 0.568435 0.306286 0.647383 -0.025841 0.315711 0.461861 0.480475 -0.309186 0.106922 0.612064 -0.514725 0.210531 -0.148468 -0.282061 0.128546 -0.136832 -0.424795 0.223532 0.107596 0.363806 -0.209224 -0.852742 -0.406717 -0.291310 0.288370 0.662706 -0.304348 -0.353672 0.241677 -0.490277 -0.069788 0.311986 -0.759936 -0.119027 0.416202 0.694731 0.533814 -0.187640 0.434601 0.991154 0.622730 -0.128365 -0.279964 0.185766 0.493237 -0.295139
maze 0.062111 -0.701027 0.280527 0.362371 0.374089 0.299538 0.598761 0.338550 0.427804 0.261709 0.562577 -0.691050 0.155723 0.642146 -0.258913 -0.216959 -0.262014 -0.451877 0.254283 -0.045695 -0.729510 0.586390 0.261102 0.205037 -0.439812 -1.175652 -0.011608 -0.272596 0.281663 0.825888 -0.113134 -0.313530 0.161800 -0.621468 -0.155923 -0.015068 -0.975180 -0.111052 0.317647 0.537824 0.865636 -0.067636 -0.121464 1.297286 0.854218 -0.572429 -0.090269 0.355548 0.641932 -0.167604
mine -0.174122 -0.433240 -0.079886 0.044867 0.233650 0.725014 0.826806 0.395546 0.243398 -0.169833 -0.007228 -0.587374 0.036157 0.394112 0.293231 -0.217153 -0.337118 -0.321340 0.094285 -0.084006 -1.061472 0.695848 -0.282873 0.146862 -0.179432 -1.648597 -0.072777 0.114193 0.966286 0.314540 0.071637 -0.562731 0.801129 -0.444616 0.467636 -0.270301 -0.856122 -0.129986 0.155591 0.004619 0.479433 -0.539357 -0.174284 0.756049 0.693945 -0.850020 0.415621 0.305581 -0.000700 0.123529
path 0.472266 -0.408326 0.191730 -0.184809 0.181533 -0.004016 0.103481 0.308838 -0.048092 -0.085121 -0.321926 -0.505288 0.636476 -0.588261 0.155737 -0.628680 0.354822 0.403876 0.314732 0.116297 -0.322708 0.188515 0.092714 0.254299 0.149525 -0.772215 0.174088 0.573245 0.099044 0.186308 -0.051731 -0.368582 0.422915 0.079581 0.486092 0.027530 -0.090129 0.281560 0.388386 0.428846 -0.291361 -0.260316 -0.558391 -0.060864 -0.066443 0.129560 0.229451 0.378479 -0.357889 0.289030
put 0.180833 -0.210190 -0.160080 -1.190166 0.263191 0.681844 -0.254788 0.169648 -0.545058 0.218438 -0.065657 0.527379 -0.221471 0.339716 -0.612737 0.306592 -0.191144 0.326096 -0.348424 -0.582599 0.497070 0.511052 -0.014756 -0.068979 0.454333 -0.532433 -1.008457 -0.352835 -0.065045 0.214402 -0.354864 0.135623 0.732491 0.214431 -0.402267 0.211039 -0.605212 -0.153060 0.599471 0.385684 -0.234145 0.194087 1.059566 0.568398 -0.636677 -0.088256 0.801559 -0.686638 -0.315165 -0.579249
case 0.310997 -0.363341 -0.376257 -1.050360 0.473683 0.569565 -0.263283 -0.148679 -0.638907 0.069096 -0.063206 0.354625 -0.202562 0.528180 -0.630456 0.688397 -0.326377 0.523524 -0.522979 -0.448470 0.749921 0.312495 -0.147049 -0.180900 0.438193 -0.322819 -0.893729 -0.163717 -0.003824 0.000752 -0.411056 -0.118542 0.591543 0.241313 -0.187262 0.201538 -0.449637 -0.277306 0.593811 0.120933 -0.334446 -0.165644 1.282969 0.330771 -0.782218 0.280365 0.680098 -0.564162 -0.208435 -0.242485
dam 0.389579 -0.537351 -0.200555 0.811503 0.156510 -0.067908 0.829080 -0.405348 0.273037 -0.080012 0.068514 -0.682512 0.610594 -0.133172 0.091389 0.665895 -0.261081 0.439229 0.451163 -0.343490 -0.251306 -0.393458 -0.636797 0.701188 0.281836 -0.020389 -0.044888 0.328435 0.347457 -0.211050 -0.069068 -0.408533 0.129281 -0.378813 -0.217692 -0.379485 0.105714 -0.172873 0.280117 -0.152225 0.074868 0.180961 0.058733 -0.214721 0.216995 0.244241 -0.396789 0.353178 0.131927 0.427446
done 0.352629 -0.280987 -0.404708 -1.144931 0.342591 0.686384 -0.049155 -0.071257 -0.469652 -0.037882 -0.164976 0.310250 -0.057607 0.416928 -0.567425 0.612847 -0.428446 0.653196 -0.481566 -0.589787 0.578898 0.444654 -0.261025 -0.051866 0.496406 -0.549625 -0.965109 -0.022518 0.093655 -0.016882 -0.354899 -0.144402 0.850187 0.241330 -0.224698 0.038774 -0.524864 -0.196234 0.611146 0.176877 -0.349669 -0.104664 1.131476 0.388021 -0.882371 0.232488 0.906137 -0.622378 -0.342492 -0.228075
brass -0.212619 0.645422 -0.763010 -0.774223 -0.720396 0.080915 0.500308 0.050294 0.701690 -0.428502 -0.144041 0.002132 0.524089 0.499587 -0.131587 -0.004839 -0.457107 0.390461 0.465368 -0.638917 -0.722216 1.127895 -0.524796 0.549425 0.258405 -0.994139 -0.373894 0.201192 -0.154140 -0.247101 0.511541 0.550714 0.803773 -0.735328 -0.771584 -0.560566 0.156252 -0.334641 -0.033856 0.110551 -0.159213 0.998493 -0.418910 0.665939 -0.810797 -0.090060 0.697251 -0.080692 -0.163254 0.471082
house 0.093970 -0.711633 0.249709 1.141834 -0.115505 0.231431 0.781138 -0.127389 0.186650 -0.364400 -0.320403 -0.759780 1.196737 0.163858 0.156353 0.221064 -0.316198 0.274309 0.307865 -0.063516 -0.447483 -0.115995 -0.382173 0.619203 0.080140 -0.383510 -0.007928 0.551869 0.658256 -0.045705 0.504774 -0.463237 0.530005 -0.167134 0.058433 -0.518705 -0.469833 -0.111996 0.060739 0.231956 -0.130704 -0.200498 -0.280636 0.076232 0.514038 0.188989 -0.194508 0.526124 0.375848 0.387179
it 0.417749 -0.319892 -0.170425 -0.048169 0.020235 -0.100482 0.085110 -0.132201 0.256407 -0.084862 -0.273492 -0.064849 0.916409 -0.622511 -0.071450 -0.039754 -0.038740 0.578601 -0.045001 -0.041193 0.356341 -0.050904 -0.057762 0.176654 0.011561 0.326417 0.229176 0.303227 0.196761 -0.065679 -0.304805 -0.128840 0.333860 0.292164 0.190833 0.086579 0.089553 0.381271 0.209995 0.598692 -0.138593 -0.125786 -0.037520 -0.072571 -0.205157 0.790052 0.082245 -0.138949 -0.779886 0.108374
open 0.230091 0.197704 -0.188798 -0.425537 -0.345779 -0.274938 -0.066693 -0.304594 0.091424 -0.322999 -0.098187 -0.199172 0.419020 0.063008 -0.118860 0.611452 0.272346 0.184374 -0.085894 -0.014568 0.206526 -0.004802 0.130113 0.169783 0.577807 0.050095 -0.196569 -0.042785 -0.312547 0.141433 -0.342489 -0.011184 0.003022 -0.091907 -0.030150 0.071825 0.831779 -0.020143 0.349039 0.023076 0.030930 0.483112 -0.281621 -0.302973 -0.616908 0.666402 -0.086414 -0.012368 0.008288 0.469787
passage 0.485949 -0.267061 0.415745 0.005416 0.001246 -0.085744 0.320712 0.822857 0.039053 -0.490152 -0.430164 -1.066804 0.477365 -0.123616 0.113891 -0.153299 0.281793 0.181471 0.279390 -0.102984 -0.574558 0.198960 0.259421 0.254736 -0.159248 -0.925603 0.448603 0.501555 0.376243 0.530604 0.299679 -0.864124 0.379703 -0.125753 0.245275 -0.541030 -0.467405 0.777944 0.453632 0.265371 0.470085 -0.418282 -0.731354 0.602569 0.025871 -0.377152 0.339612 0.643212 -0.093013 0.633430
river 0.228732 -0.698173 -0.642113 -0.217882 0.668550 -0.266599 -0.018776 -0.517129 -0.338021 0.131827 0.099326 0.073679 0.712915 0.366990 -0.193504 0.495922 -0.276335 0.695781 0.117945 0.176237 0.539269 -0.063753 -0.157011 0.025327 0.389618 -0.073979 -0.232807 -0.103635 -0.538368 -0.021008 0.039781 0.049371 -0.014459 -0.197298 -0.122592 0.375574 0.484485 -0.268107 0.545028 0.750134 -0.545687 0.054235 0.386023 -0.214281 -0.512150 0.829487 -0.282751 0.202439 0.312965 0.222154
at 0.087558 -0.850122 -0.386139 0.418332 0.399431 -0.195803 0.145994 -0.226693 0.069142 0.109197 0.126213 -0.496972 0.962265 0.186989 -0.462602 0.221443 -0.196920 0.348040 0.342078 0.229080 -0.084521 0.099437 -0.227555 0.389623 0.036133 -0.218600 0.169319 0.384530 0.214039 0.015820 -0.203246 -0.399096 0.165268 -0.569835 -0.008168 -0.066102 -0.121065 -0.098016 0.170522 0.571045 0.011484 -0.015307 -0.014003 0.314683 0.113241 0.613010 -0.544930 0.836985 0.456459 0.455180
contains -0.080425 0.247024 0.066091 0.060652 0.409682 -0.128470 0.285325 0.074995 -0.191249 0.031416 -0.338710 -0.104530 0.366572 -0.548902 0.559336 -0.526951 0.172928 0.100640 0.728224 0.081112 -0.256061 0.041544 0.217551 0.070198 0.480873 -0.167109 -0.196388 -0.228970 -0.828011 0.430795 0.403555 0.419627 -0.243820 -0.274953 -0.219173 0.432787 0.533477 -0.014871 0.334968 0.592863 -0.180228 0.680088 -0.838175 -0.225777 -0.102138 -0.288211 -0.247316 -0.010692 0.094872 -0.222486
dropped -0.840009 0.074950 -0.728731 -0.470839 -0.544048 0.082627 -0.106932 -0.322146 0.758587 0.021422 0.076810 0.093955 -0.060568 0.435955 -0.538548 0.221251 0.033004 -0.833899 0.075467 0.084193 -0.924671 0.912620 -0.752244 0.680766 0.357846 -0.777857 -0.310800 0.221613 0.787424 -0.235447 -0.426753 0.189674 0.938701 -0.802701 0.399718 -0.262570 0.287341 -0.722824 -0.324608 -0.300576 0.288989 0.586258 -0.341091 0.252146 0.088603 0.276023 -0.400982 0.196156 0.116381 0.504597
passages 0.156779 -1.079723 0.288094 0.200950 0.563889 0.376672 0.630123 0.094066 0.193846 0.492134 0.544594 -0.391827 0.170954 0.529720 -0.509731 0.140247 -0.037636 -0.359408 0.115933 -0.165226 -0.341422 0.206430 0.328964 0.320264 -0.237258 -0.843315 -0.408792 -0.368293 0.278577 0.771198 -0.286948 -0.316523 0.157533 -0.437381 -0.154035 0.275203 -0.913243 -0.063039 0.477328 0.682076 0.611680 -0.196014 0.465831 1.105641 0.810697 -0.253000 -0.254050 0.183469 0.542371 -0.440915
canyon 0.098452 -0.626975 -0.304730 0.170344 0.574273 0.035912 0.394636 -0.006962 0.010245 0.074541 -0.096879 -0.346520 0.696335 0.090159 -0.051788 -0.146957 -0.169556 0.116925 -0.001210 0.467014 -0.259551 0.073129 -0.257240 -0.063556 -0.274639 -0.783611 0.157973 0.230718 0.444784 0.014341 -0.307839 -0.553492 0.395479 -0.201249 0.482229 -0.059014 -0.056062 -0.179465 0.360812 0.648015 0.021239 -0.642888 0.205122 0.004725 0.448253 0.256375 0.119997 0.467650 -0.217589 0.246276
drop -0.605981 0.178161 -0.652785 -0.469665 -0.433713 -0.013607 -0.219293 -0.363145 0.540482 -0.019309 0.034745 0.167199 -0.209048 0.318180 -0.371315 0.268963 0.169447 -0.573928 -0.050747 0.080991 -0.540556 0.688727 -0.590673 0.530565 0.370843 -0.408882 -0.216412 0.185409 0.587006 -0.194387 -0.363003 0.134051 0.654865 -0.462896 0.439917 -0.094134 0.429114 -0.534691 -0.310669 -0.473928 0.185554 0.441172 -0.363329 -0.041240 -0.075440 0.477291 -0.352918 -0.046130 0.014612 0.482617
end 0.153181 -1.028142 -0.351189 0.259483 0.603590 -0.085581 0.199012 -0.355036 -0.082180 0.185515 0.191551 -0.519138 1.009179 0.274509 -0.573075 0.268792 -0.319551 0.177500 0.423277 0.317074 -0.168482 0.274318 -0.196808 0.436321 0.173374 -0.555800 0.003282 0.408002 0.197031 0.354759 -0.295406 -0.377291 0.051558 -0.819249 0.076523 0.064736 -0.263304 -0.120503 0.290379 0.763151 0.070821 -0.006354 0.034723 0.360263 0.057647 0.642816 -0.672170 1.043125 0.681489 0.554787
leading 0.502362 0.162596 0.431891 -0.034679 -0.063350 -0.044090 0.110046 0.665933 -0.115975 -0.394570 -0.397128 -0.482495 0.647465 -1.013436 0.140717 -1.017543 0.531034 0.032239 0.426094 0.236559 -0.420401 0.232972 0.280840 0.146011 0.027139 -0.913336 0.165646 0.515213 -0.332959 0.429899 0.228915 -0.361839 0.307977 0.286326 0.611085 -0.136947 0.022833 0.460263 0.385873 0.579648 -0.202203 -0.264394 -0.793166 -0.204835 0.094183 0.074356 0.698593 0.443787 -0.417330 0.350939
torch -0.484757 0.504585 -0.045037 -0.894485 -0.475447 0.105154 -0.125664 0.107526 0.031062 0.134545 -0.402722 0.297414 0.128127 0.158170 -0.311705 -0.063636 0.470186 -0.682610 -0.239408 0.120529 -0.271218 0.819151 -0.288983 0.149304 0.479494 -0.652615 -0.534803 0.088694 0.272068 -0.136800 -0.417058 0.033637 0.736270 -0.199317 0.116927 0.142123 0.175639 -0.522963 0.270840 -0.056729 0.255029 0.430534 -0.168109 0.378176 -0.418592 0.068614 0.074712 -0.099326 -0.083005 -0.062316
basket 0.197976 -0.134093 -0.068331 -0.518568 0.485207 0.234240 -0.088610 -0.120300 -0.551044 0.118740 0.009562 0.173697 -0.015573 0.079060 -0.035687 0.213096 0.075997 0.413060 -0.132824 -0.107101 0.580962 0.061137 0.312508 -0.179033 0.402406 0.060277 -0.462354 -0.408957 -0.516092 0.341310 -0.062213 0.167104 -0.084633 0.162763 -0.297709 0.527246 -0.021176 -0.162892 0.502670 0.222854 -0.268695 0.220692 0.435429 -0.035842 -0.313275 0.264093 0.138714 -0.513184 -0.050145 -0.398787
boat 0.106631 -0.293597 -0.294291 -0.066714 0.670165 -0.142471 0.148211 -0.301766 -0.437092 0.278003 -0.411380 0.228739 0.563147 -0.516957 0.192263 -0.256650 -0.042996 0.725214 0.526809 0.032078 0.199879 -0.149293 -0.157777 0.089089 0.639980 0.031507 -0.398366 -0.009885 -0.473881 -0.275081 0.282047 0.219878 0.270388 -0.052066 -0.118327 0.443461 0.435687 -0.072815 0.346773 0.599576 -0.780847 0.237575 -0.109564 -0.339626 -0.399084 0.275843 -0.140617 -0.203762 -0.161050 -0.174980
part -0.077748 -0.412391 0.299913 0.145320 0.206393 0.175852 0.398520 0.333688 0.390263 0.254622 0.675284 -0.586701 -0.045218 0.676278 -0.173119 -0.268254 -0.209334 -0.470979 0.185496 -0.104044 -0.580778 0.648734 0.484179 0.067117 -0.356781 -0.942609 0.037668 -0.513946 0.001004 0.919008 -0.130370 -0.080684 0.003721 -0.587424 -0.305150 0.110954 -0.798623 -0.104531 0.359299 0.430143 0.939114 0.290743 -0.337538 1.275931 0.722754 -0.532009 -0.164780 0.119865 0.652714 -0.273600
troll -0.074355 0.253465 0.158766 -0.139073 0.078786 -0.312824 0.005637 -0.292637 -0.107262 -0.294139 0.100749 -0.915675 0.103656 0.059111 0.490045 0.089787 0.276484 -0.054068 0.108421 0.249132 0.469667 0.106777 0.518534 -0.232452 0.299136 0.140793 0.399998 0.062483 -0.114970 0.128022 -0.221383 -0.323009 -0.434290 -0.135417 0.141569 -0.078118 0.403921 -0.229963 0.352797 -0.724169 0.091564 0.041120 -0.583699 -0.188530 0.051022 0.617971 -0.281268 0.196636 0.233839 0.490616
gold -0.297755 -0.474155 0.448810 -0.378672 0.192821 0.255562 -0.466681 0.444008 -0.508507 0.655572 0.051762 0.475341 -0.005342 -0.139650 -0.648322 -0.316723 0.310097 -0.679927 0.209341 -0.067136 0.003303 0.245939 0.439241 0.168360 0.526542 -0.418180 -0.980222 -0.728793 -0.351922 0.856718 -0.498120 0.661928 0.180030 -0.207035 -0.222309 0.607501 -0.349000 -0.063954 0.499235 1.133431 -0.013593 0.767796 0.392324 0.358443 0.433903 -0.554396 -0.162994 -0.137223 0.142980 -0.889679
lantern -0.100056 0.638933 -0.862525 -0.835094 -0.538904 0.089658 0.548250 -0.008682 0.639077 -0.538065 -0.079565 -0.028354 0.584165 0.657194 -0.137482 0.139040 -0.565196 0.521867 0.358303 -0.653831 -0.562215 1.220313 -0.555032 0.465080 0.181410 -0.986970 -0.340646 0.267719 -0.105486 -0.204214 0.408234 0.452554 0.759169 -0.667546 -0.811885 -0.466642 0.081751 -0.323479 -0.020922 0.159830 -0.109570 0.914739 -0.287473 0.560674 -0.894265 0.205718 0.757985 -0.177110 -0.217456 0.440129
narrow 0.417303 -0.104823 0.367491 -0.080092 -0.120099 -0.180502 0.024451 0.711883 -0.071207 -0.417954 -0.443406 -0.661184 0.467102 -0.478020 0.059437 -0.383546 0.511647 0.246994 0.370686 0.026429 -0.478052 0.126025 0.254904 0.253814 0.075623 -0.628976 0.289462 0.473034 -0.096735 0.501449 0.333480 -0.461534 0.248442 0.011597 0.187216 -0.256693 -0.163697 0.654898 0.312584 0.410719 0.042995 -0.009485 -0.829623 0.101594 -0.195561 -0.173622 0.229749 0.559470 -0.098279 0.515337
sword -0.255172 0.200074 -0.099676 -0.412784 -0.258914 -0.280685 -0.127335 -0.211011 0.161630 -0.231382 0.104784 -0.936461 0.083760 0.156399 0.170343 0.099365 0.257564 -0.166334 0.255797 -0.043390 0.142425 0.366261 0.388600 0.121327 0.479286 -0.098673 0.253498 -0.011686 -0.111258 0.166422 -0.354187 -0.298336 0.039009 -0.262506 0.033279 -0.153110 0.566901 -0.373050 0.483419 -0.607440 0.195195 0.590979 -0.857008 0.201466 -0.238007 0.433930 -0.349694 0.139681 0.335133 0.585866
wall 0.407919 -0.151331 -0.262208 0.004245 0.124978 -0.146466 0.258514 -0.131948 0.128491 -0.204576 0.073283 -0.714303 0.823021 0.028589 -0.146098 0.295140 -0.219411 0.520975 0.343911 -0.147317 -0.012156 0.321614 0.043621 0.347555 0.257638 -0.374682 -0.023829 0.225913 -0.253874 0.231472 -0.025070 -0.199670 0.070621 -0.338800 -0.306575 -0.075003 0.151070 -0.018932 0.512157 0.461395 0.144240 0.357365 -0.314850 0.165226 -0.329006 0.468989 -0.029866 0.287029 0.270372 0.387076
water -0.101799 -0.058569 -0.099921 0.207524 0.189971 -0.131158 0.134606 -0.029589 0.108557 -0.027539 0.154496 -0.545134 0.260878 0.204136 0.162249 0.003107 -0.204834 -0.256215 0.488163 -0.047404 -0.401698 0.263781 0.055953 0.233742 0.212996 -0.540592 -0.164931 -0.162737 -0.374506 0.390567 0.079621 0.068798 -0.157974 -0.528924 -0.241081 -0.021918 0.135335 -0.129531 0.372510 0.343782 0.331365 0.569626 -0.747905 0.401755 -0.027911 -0.334948 -0.373685 0.376602 0.582482 0.236240
bottle -0.047265 0.481332 -0.095886 0.481647 -0.006866 -0.263532 0.424647 -0.046312 0.340779 -0.203658 -0.060112 -0.001205 0.574113 -0.410643 0.508858 -0.328632 0.154814 0.329451 0.582562 0.084482 -0.158372 0.078573 -0.025816 0.284433 0.229206 0.275248 0.112660 -0.032362 -0.644369 0.373902 0.467286 0.633357 -0.360341 -0.379229 -0.349082 0.354136 0.503457 -0.050720 -0.146737 0.468232 -0.016761 0.746111 -0.788089 -0.416899 -0.000746 0.299277 -0.325716 -0.112861 0.105237 -0.202899
through 0.165408 0.150037 -0.033595 -0.144185 0.036168 -0.139488 0.025183 -0.074547 -0.146050 -0.158032 -0.159344 -0.276987 0.381616 -0.130212 0.161853 0.061272 0.143393 0.113826 0.044818 0.088066 0.079262 0.157339 0.101133 0.115553 0.368181 -0.157231 -0.096998 0.106593 -0.291485 0.089851 -0.063258 -0.033005 -0.088603 -0.075150 -0.018225 0.055549 0.350897 0.018817 0.321398 0.025306 -0.116556 0.216822 -0.439093 -0.220360 -0.317494 0.296267 -0.031476 0.127814 -0.115006 0.205264
above 0.157906 -0.250800 -0.165883 0.044400 0.077713 -0.225943 -0.059258 -0.140102 0.027634 0.031233 0.030552 -0.297190 0.693225 -0.111070 -0.066820 -0.082352 -0.044415 0.552177 -0.075669 0.082439 0.353333 -0.044193 0.248528 0.084434 -0.009181 0.295232 0.339818 0.086534 -0.095366 0.110926 -0.177583 -0.097360 0.029773 -0.048094 -0.041992 0.077458 0.135765 0.121908 0.215969 0.323346 -0.132906 -0.028287 -0.186837 0.002165 -0.038023 0.842592 -0.045400 0.091909 -0.343984 0.113029
appears 0.321346 -0.167878 0.295049 0.006432 -0.250551 -0.411640 -0.089960 0.180478 0.105667 -0.209318 -0.260777 -0.243681 0.721290 -0.240084 -0.328017 -0.179092 0.278510 -0.097616 0.143985 0.135734 0.213129 -0.058059 0.272794 0.123526 -0.057227 0.088423 0.393311 0.371289 0.033829 0.453909 -0.271704 -0.185140 -0.042970 -0.160302 0.344897 -0.094139 0.141762 0.623991 0.293040 0.654029 0.343838 -0.010382 -0.488390 0.155345 -0.125291 0.577447 -0.220046 0.639311 -0.077399 0.445832
by 0.027592 0.107789 -0.069940 -0.080195 -0.043330 -0.191752 -0.097214 -0.010955 -0.036224 -0.044403 -0.036761 -0.068079 0.188768 -0.098784 0.037852 -0.051349 0.097900 0.079904 0.142928 0.076381 0.123173 -0.000237 0.062335 0.043496 0.164310 0.062276 0.033107 -0.023427 -0.266208 0.108594 -0.009577 0.090127 -0.094479 -0.059099 -0.038530 0.079402 0.295058 0.018098 0.195441 0.125053 0.005473 0.235489 -0.238535 -0.126539 -0.261985 0.067016 -0.109109 0.031749 0.066785 0.047018
door 0.263503 0.246479 0.146163 0.129267 -0.099304 -0.334784 0.140669 -0.258548 -0.135065 -0.245616 -0.070902 -0.098766 0.142975 -0.236448 0.530065 0.296965 0.274427 0.205997 0.059330 0.152801 0.176226 -0.580521 0.295735 -0.162162 0.307032 0.405947 0.005624 -0.298386 -0.774494 0.135829 0.237696 0.142528 -0.612254 0.142693 -0.094784 0.279798 0.922621 0.091478 0.177857 0.018421 -0.168278 0.251215 -0.426378 -0.683732 -0.330742 0.172469 -0.192389 -0.038265 0.218521 0.189257
knife -0.461670 -0.124772 -0.519437 -0.419492 -0.430085 -0.200651 -0.349291 -0.272814 0.403256 0.000376 0.050603 -0.345293 0.151967 0.135828 -0.378771 0.197436 0.338751 -0.113703 0.143390 -0.116180 -0.039751 0.280854 -0.136311 0.518869 0.372700 -0.099140 0.124105 0.203055 0.024556 -0.146765 -0.294707 -0.332676 0.536721 -0.340258 0.354966 0.004704 0.397213 -0.352057 0.082202 -0.251009 0.139805 0.419506 -0.472625 0.256405 -0.262158 0.588883 -0.439276 0.260418 0.318026 0.729956
magic 0.211250 -0.342832 -0.217292 -0.175798 0.634813 -0.244407 0.128414 -0.183711 -0.499678 0.181166 -0.344586 -0.000718 0.643102 -0.375689 0.137419 -0.171634 -0.112229 0.740104 0.530012 -0.003204 0.224872 -0.101447 0.013504 0.062519 0.618297 -0.047002 -0.306650 -0.006144 -0.625424 -0.096507 0.265878 0.096384 0.133786 -0.077266 -0.238818 0.465499 0.449099 -0.003262 0.524056 0.686948 -0.665876 0.318495 -0.178588 -0.223189 -0.511825 0.295514 -0.088369 -0.062313 -0.001821 -0.090345
one 0.441615 -0.465523 -0.328909 -0.420820 0.383375 -0.041964 -0.109176 -0.197763 -0.114397 0.137611 0.314913 -0.461508 0.523317 0.352168 -0.451962 0.443083 -0.298998 0.487776 0.118526 -0.302724 0.630592 0.358387 0.288407 0.146104 0.233230 -0.229298 -0.196407 -0.177915 -0.340915 0.509587 -0.373386 -0.144189 0.077695 -0.257636 -0.484284 0.295217 -0.050257 0.083342 0.676026 0.646466 0.305725 0.433163 0.130416 0.532661 -0.473014 0.673881 -0.115867 0.007932 0.364015 0.083221
as 0.080461 -0.245740 -0.404879 0.146826 0.306775 -0.124717 -0.156894 -0.537178 -0.215564 0.021311 -0.010440 0.403566 0.411515 -0.185831 0.043519 0.340010 0.162002 0.505175 0.091357 0.171368 0.580103 -0.376013 -0.125323 -0.014774 0.005235 0.681983 -0.118567 -0.128832 -0.517950 0.073535 0.094495 0.258363 -0.151847 0.094088 0.170120 0.523939 0.284379 0.040972 -0.084305 0.388101 -0.401766 0.021720 0.455015 -0.712482 -0.168351 0.613640 -0.435552 -0.050317 -0.060619 0.018792
brown -0.036051 0.279916 -0.039152 -0.369269 0.133973 -0.014158 0.092015 -0.024895 -0.132974 -0.072439 -0.052713 -0.225129 -0.204390 0.016710 0.395575 -0.127519 0.009054 -0.080886 0.365986 -0.096392 -0.137701 0.181129 0.296378 -0.097275 0.336371 -0.201683 -0.089427 -0.389992 -0.715109 0.233642 0.253518 0.233770 -0.307037 -0.054835 -0.178677 0.082455 0.500208 -0.093301 0.346611 -0.059722 -0.089268 0.539291 -0.553445 0.007304 -0.440278 -0.411231 -0.086310 -0.100970 0.191510 0.113566
coffin -0.310413 -0.135185 0.165909 -0.579713 0.054403 0.231419 -0.365298 0.188593 -0.369834 0.385722 -0.179341 0.523591 -0.074252 -0.082979 -0.428134 -0.034164 0.338756 -0.639548 -0.015497 0.024623 -0.018400 0.312014 0.137288 0.107088 0.670509 -0.492712 -0.934822 -0.482282 -0.098159 0.551449 -0.447676 0.543060 0.285789 -0.195256 0.089159 0.462349 0.044487 -0.165771 0.340174 0.665954 -0.111252 0.547673 0.307602 0.019106 0.107943 -0.237695 -0.023019 -0.156915 -0.059940 -0.486683
now 0.134744 0.518018 -0.782792 -0.281083 -0.383382 -0.093062 0.765211 -0.140017 0.809733 -0.670579 -0.063999 -0.415107 0.927600 0.375817 0.033377 0.144931 -0.607944 0.701516 0.351588 -0.416542 -0.472097 0.938163 -0.556576 0.428037 0.040620 -0.741403 0.009995 0.569355 0.121806 -0.257838 0.312557 0.140625 0.564348 -0.610561 -0.543104 -0.610808 0.148175 -0.131524 -0.085450 0.116984 0.000413 0.529871 -0.513547 0.282182 -0.665879 0.529048 0.528802 0.089966 -0.211240 0.676410
staircase 0.443628 0.422508 0.456340 0.127158 -0.097039 -0.161351 0.115331 0.502394 -0.111375 -0.325181 -0.366245 -0.329555 0.535061 -1.014501 0.351047 -0.942116 0.419670 0.008490 0.401904 0.240593 -0.280226 0.063564 0.251513 0.061107 -0.010296 -0.484844 0.185093 0.356880 -0.415727 0.311296 0.290292 -0.127474 -0.018248 0.291273 0.470184 -0.074298 0.331256 0.439463 0.226652 0.389278 -0.200172 -0.153503 -0.786549 -0.420907 0.151928 0.055370 0.622379 0.245797 -0.469783 0.219999
table 0.079433 0.432801 -0.333409 0.285660 0.030741 -0.246903 0.492808 -0.202069 0.332967 -0.302650 0.025429 -0.205089 0.738277 -0.207362 0.458883 -0.028054 0.034586 0.509814 0.608395 0.027908 -0.078606 0.243981 -0.130225 0.316312 0.356696 0.131322 0.030624 0.006987 -0.575997 0.185969 0.355198 0.487207 -0.299714 -0.470026 -0.319264 0.207720 0.587420 -0.192416 -0.005894 0.347836 -0.080723 0.801253 -0.641807 -0.385080 -0.325375 0.555887 -0.267134 -0.081580 0.115707 0.060439
top 0.029221 -0.533979 -0.452510 0.484450 0.557902 0.166400 0.807861 -0.154814 0.124981 -0.019398 0.059536 -0.336435 0.747260 0.408202 -0.017026 0.079627 -0.343603 0.013399 0.196995 0.327263 -0.466397 0.317637 -0.598569 0.146195 -0.169929 -0.982984 -0.003723 0.250021 0.465014 0.095958 -0.145925 -0.363193 0.380489 -0.593244 0.290479 -0.034979 -0.156181 -0.514413 0.255880 0.480692 0.110634 -0.351964 0.228237 0.036890 0.571540 0.211232 -0.021330 0.481845 0.105826 0.352028
bottom 0.006721 -0.375595 -0.292411 0.278945 0.429875 0.036396 0.580447 -0.012189 0.268130 0.005449 -0.004352 -0.444717 0.763073 0.234295 -0.057592 -0.189532 -0.168810 -0.118073 0.006523 0.458413 -0.484846 0.325827 -0.314877 0.070430 -0.336989 -0.897409 0.243153 0.296165 0.608525 0.148147 -0.391845 -0.526160 0.486037 -0.414142 0.434003 -0.114611 -0.095465 -0.355476 0.322385 0.492674 0.257764 -0.448530 -0.084912 0.143491 0.595546 0.311266 0.036627 0.388134 -0.211255 0.290310
can 0.286315 -0.328099 0.317751 0.168064 -0.132950 -0.240751 -0.195602 0.026716 -0.214100 0.137081 -0.190330 -0.150979 0.791965 -0.791947 0.241895 -0.281030 0.252359 0.244904 0.584243 -0.310945 0.444991 -0.530872 0.195188 0.373137 0.221935 0.677235 0.120915 0.006337 -0.336675 0.355102 -0.087359 0.150931 -0.054135 0.092747 0.144825 0.007582 0.272787 0.665170 0.530064 0.850722 -0.251798 0.041979 -0.480695 -0.293990 -0.019384 0.322755 -0.331479 0.324348 -0.409087 -0.003253
crystal -0.633500 0.015856 0.440577 -0.260358 -0.547834 0.295427 -0.197994 0.301489 0.212824 0.448646 -0.098685 0.270110 -0.446704 -0.139160 -0.199135 -0.304483 0.312544 -0.738562 0.019095 -0.071636 -0.658966 0.025719 0.333708 0.152944 0.319587 -0.252208 -0.501806 -0.443698 0.068163 0.386359 -0.184876 0.259270 0.337692 -0.146523 -0.006864 0.134497 -0.108614 -0.073778 0.006089 0.214333 0.224334 0.829118 -0.309568 0.506215 0.358610 -0.935684 -0.166105 -0.118959 0.181665 -0.588034
forest 0.358541 -0.395055 0.315234 -0.186075 0.291605 0.093788 0.191851 0.225698 -0.084441 0.044039 -0.012906 -0.537600 0.303324 -0.192767 0.053159 -0.359164 0.191474 0.179945 0.036052 0.092219 -0.070661 0.177008 0.325761 -0.001638 0.048394 -0.618762 0.165643 0.286075 0.237747 0.263732 -0.275735 -0.349816 0.174538 -0.026666 0.268455 0.105656 -0.381858 0.106165 0.466009 0.123778 0.059615 -0.406742 -0.214118 0.327871 0.189316 0.044052 0.135273 0.122822 -0.195040 0.003365
into 0.114205 0.232462 0.162943 -0.076781 0.020706 -0.025337 0.077321 0.230334 -0.145090 -0.052985 -0.331509 0.104985 0.413407 -0.707354 0.222860 -0.638154 0.347348 0.022068 0.189622 0.321043 -0.330421 0.113415 -0.067821 0.085527 0.033993 -0.509887 -0.096250 0.277135 -0.084747 0.088564 0.112656 0.072855 0.146147 0.051640 0.421848 0.053943 0.296327 0.098292 0.017253 0.332618 -0.265108 -0.107109 -0.166089 -0.534630 0.206028 0.036046 0.452826 0.165219 -0.316271 -0.000218
sack -0.119171 0.195280 -0.024766 -0.440947 0.154384 0.028780 0.063316 0.003798 -0.202620 0.027579 -0.098990 -0.104188 -0.252861 0.003241 0.349876 -0.169086 0.006303 -0.162088 0.340343 -0.105050 -0.202520 0.133650 0.274120 -0.115593 0.314213 -0.236451 -0.136917 -0.419012 -0.617438 0.185431 0.220092 0.219675 -0.244312 -0.033600 -0.111660 0.138411 0.458071 -0.102414 0.316147 0.012859 -0.126765 0.482224 -0.442041 0.018123 -0.370367 -0.493558 -0.094096 -0.104332 0.165401 0.030585
thief 0.152804 -0.046498 -0.277316 -0.339767 0.167083 -0.095250 0.007300 -0.459076 -0.084959 -0.183332 0.015063 -0.183572 0.364917 -0.040089 0.107717 0.482904 0.269634 0.510440 0.113221 -0.001773 0.666207 -0.046418 0.136770 0.066298 0.225205 0.340336 -0.053387 -0.001365 -0.370177 0.155792 -0.017978 -0.037110 -0.077981 -0.031272 0.118971 0.237352 0.316552 -0.065636 0.251642 -0.030789 -0.184726 0.076162 0.181027 -0.451801 -0.319509 0.876661 -0.179323 -0.075808 -0.038592 0.312050
turn -0.026078 0.442236 -0.671744 -0.391826 -0.420367 0.012139 0.312415 -0.188805 0.569385 -0.340163 -0.178891 0.326477 0.574729 0.206554 -0.196423 0.157677 -0.340210 0.518724 0.209627 -0.315127 -0.238869 0.597373 -0.652388 0.325657 0.144384 -0.331581 -0.234052 0.489137 0.068479 -0.391862 0.265175 0.399942 0.412534 -0.391674 -0.295548 -0.397928 0.243287 -0.156688 -0.334133 0.174339 -0.259393 0.520791 0.026503 -0.054227 -0.720489 0.493793 0.421387 0.060999 -0.058352 0.389135
twisty -0.164639 -0.683043 0.222246 0.381573 0.391713 0.311235 0.401414 0.103678 0.253233 0.541893 0.708633 -0.110022 -0.219541 0.654550 -0.350186 -0.043320 -0.191851 -0.548284 0.099026 -0.103405 -0.469741 0.276596 0.184908 0.158387 -0.386577 -0.639856 -0.268686 -0.540134 0.133392 0.616940 -0.095586 0.026249 0.035056 -0.472037 -0.326630 0.221538 -0.845115 -0.289580 0.126042 0.406797 0.621339 0.057287 0.341261 1.020607 0.918225 -0.621285 -0.320001 0.015476 0.663812 -0.570872
alike -0.235407 -0.556497 0.077954 0.132471 0.322660 0.429195 0.576332 0.055623 0.340179 0.371662 0.417249 -0.110843 -0.271803 0.642578 -0.264871 0.015935 -0.211396 -0.587961 -0.033810 -0.064431 -0.643559 0.378052 -0.059383 0.175971 -0.311452 -0.924174 -0.366082 -0.299541 0.486292 0.437409 -0.130885 -0.147674 0.301914 -0.476507 -0.016649 0.105148 -0.794518 -0.313384 0.065359 0.168753 0.521809 -0.199012 0.321457 0.881984 0.758390 -0.529699 -0.056135 0.067468 0.395403 -0.342268
corner 0.378154 -0.493232 -0.200751 -0.461182 0.374017 0.032203 -0.175864 -0.101388 -0.232650 0.200923 0.247604 -0.457851 0.513787 0.244627 -0.484383 0.382188 -0.236059 0.335915 0.071418 -0.275684 0.620765 0.356925 0.332161 0.154942 0.311733 -0.262747 -0.309840 -0.247797 -0.317008 0.545652 -0.475086 -0.174230 0.178013 -0.201842 -0.477820 0.306572 -0.096423 0.024263 0.806051 0.686973 0.269518 0.429314 0.215182 0.598074 -0.407987 0.510298 -0.057338 -0.002156 0.292088 -0.064307
diamond -0.203798 0.327180 0.384220 -0.746931 -0.298060 0.284208 -0.266721 0.414442 -0.270662 0.227937 -0.170250 0.396529 -0.288788 -0.236114 -0.295967 -0.313718 0.465814 -0.426611 -0.153379 -0.140191 -0.123635 0.182062 0.176570 0.007321 0.290527 -0.162342 -0.428614 -0.324048 0.067096 0.295428 -0.332933 0.114040 0.493293 0.220177 0.020664 0.130602 -0.269516 0.084938 0.276571 0.123560 0.112907 0.345662 -0.006317 0.274756 -0.179987 -0.488608 0.200045 -0.318805 -0.165264 -0.577550
garlic -0.599453 0.095676 -0.334987 -0.392483 -0.798768 -0.063152 -0.038404 -0.038273 0.683072 0.070709 0.082042 -0.103608 0.123707 0.281845 -0.631753 -0.060548 0.105963 -0.884330 0.289477 -0.095588 -0.946431 0.805804 -0.399312 0.764980 0.349212 -0.833796 -0.290377 0.132943 0.321504 -0.010549 -0.271093 0.121052 0.963654 -0.707928 0.003856 -0.376360 0.161340 -0.439373 0.087244 0.133819 0.394144 0.858675 -0.642229 0.715709 -0.033821 -0.153661 -0.328248 0.354066 0.355770 0.423161
his 0.015979 -0.245935 -0.032249 0.317082 0.228450 -0.099961 -0.079907 -0.065778 -0.134610 0.044149 0.257572 0.016714 0.003977 0.062681 0.018128 0.037899 0.054134 0.067366 0.238412 0.018504 0.083888 -0.198720 0.061520 0.033886 -0.070540 0.137890 -0.030280 -0.229041 -0.461370 0.279682 0.238088 0.164808 -0.311325 -0.043886 -0.171402 0.187221 0.060415 0.075352 -0.036523 0.352869 -0.097413 0.188642 0.042445 -0.195259 0.063583 -0.018012 -0.290550 0.131973 0.334857 -0.006736
lamp -0.209908 0.669553 -0.942203 -0.523796 -0.625866 -0.089116 0.410280 -0.283875 0.752026 -0.492164 -0.329195 0.349536 0.734423 0.287119 -0.163439 0.267396 -0.322974 0.480507 0.270063 -0.317237 -0.447453 0.790532 -0.896390 0.477206 0.307220 -0.458696 -0.285402 0.600475 0.099078 -0.499122 0.334231 0.481529 0.567063 -0.637177 -0.274522 -0.461788 0.498780 -0.278759 -0.415187 0.126640 -0.307205 0.737917 -0.232634 -0.158603 -0.936711 0.658087 0.353988 0.170558 -0.137655 0.638796
little -0.197351 -0.592831 0.270939 0.323364 0.374060 0.364027 0.411719 0.102510 0.245534 0.533913 0.686271 -0.023369 -0.437407 0.691599 -0.291931 -0.045719 -0.161249 -0.634927 0.013228 -0.118697 -0.458744 0.250875 0.214075 0.090748 -0.425503 -0.611837 -0.285085 -0.576272 0.166912 0.614102 -0.042243 0.051713 -0.021979 -0.401918 -0.294366 0.257322 -0.865024 -0.272558 0.055784 0.244560 0.612628 -0.034600 0.383934 0.986236 0.950418 -0.695849 -0.236157 -0.067648 0.613638 -0.621652
southwest -0.113860 -0.202411 -0.179267 -0.082291 0.109315 0.226794 0.304898 0.125130 0.022870 -0.174961 -0.284369 -0.170896 0.289588 0.037419 0.016510 -0.121511 -0.000850 -0.224879 0.001145 0.192496 -0.501348 0.287441 -0.360875 0.113903 0.016488 -0.841735 -0.016285 0.290933 0.539937 0.106688 -0.078797 -0.307136 0.524581 -0.281563 0.559750 -0.055510 -0.089456 -0.075644 0.100881 0.227298 0.070813 -0.339020 -0.128221 0.025906 0.246009 -0.130401 0.194266 0.405363 -0.169735 0.311497
candles -0.269326 -0.105183 -0.355977 -0.076362 -0.194076 -0.063546 0.001446 -0.268074 0.260893 0.088168 -0.036161 0.200290 0.348921 -0.026623 -0.355648 0.229701 0.152114 -0.202485 0.164218 0.069348 -0.196658 0.187478 -0.466974 0.448231 0.425438 -0.098394 -0.328607 0.152646 0.138614 -0.111030 -0.290577 0.102350 0.410693 -0.388883 0.128066 0.018837 0.351830 -0.353973 0.032710 0.234164 -0.004794 0.526211 -0.050710 -0.109905 -0.181360 0.355978 -0.467446 0.242207 0.303315 0.146166
egg -0.058479 0.293159 0.016914 -0.794817 -0.349198 0.224272 -0.220684 0.061903 -0.124553 -0.107798 -0.421991 0.265528 -0.042510 -0.210401 -0.214955 0.172257 0.339136 -0.163733 -0.240809 -0.095675 0.087767 0.174532 -0.050162 0.033523 0.535967 -0.136793 -0.397986 0.099189 0.078602 0.084094 -0.343894 -0.080083 0.478609 0.128900 0.347869 -0.054421 0.136871 0.106627 0.195825 -0.031654 -0.176922 0.108229 -0.051582 -0.047391 -0.570389 0.247679 0.243472 -0.066624 -0.193002 0.151732
for 0.114587 -0.096163 0.029587 0.098377 0.123163 -0.214022 0.014222 -0.068216 -0.090737 -0.007855 -0.041674 -0.110484 0.269378 -0.002323 -0.023559 -0.018709 -0.085212 0.139675 -0.024740 0.138808 0.253070 -0.043185 0.171556 -0.134413 -0.090679 0.143594 0.185062 0.069457 -0.047802 -0.024899 -0.095347 0.026542 -0.314518 -0.016383 -0.105259 0.062027 0.056108 0.159096 0.167458 0.153233 0.107641 -0.055954 0.031198 0.033825 -0.063800 0.232971 -0.059856 0.110955 -0.001357 0.030780
have 0.284924 -0.472346 0.097183 0.256347 0.246188 -0.273352 -0.016344 -0.003157 -0.110460 0.000189 -0.167768 0.077724 0.585889 -0.198206 -0.190920 -0.324363 0.070183 0.072930 0.174905 0.309112 0.324003 -0.312622 0.201147 -0.214835 -0.404543 0.221064 0.349617 0.141301 -0.010236 0.165601 -0.081832 0.052429 -0.255521 -0.097384 0.296525 0.245609 -0.028802 0.299444 0.112662 0.729473 0.054649 -0.285076 0.123887 -0.063363 0.105384 0.421009 -0.181636 0.415406 -0.001835 0.113313
living 0.164986 -0.414507 0.055198 0.236356 0.188252 -0.239308 0.123786 0.252170 0.052758 -0.148529 -0.009241 -1.139680 0.706028 0.246575 -0.243035 -0.108914 -0.129367 -0.142791 0.225485 0.146395 -0.232404 0.422169 0.145938 0.161774 -0.094806 -0.837910 0.328881 0.418495 0.243379 0.160566 -0.203139 -0.701493 0.157772 -0.446839 0.060220 -0.377938 -0.287468 0.011544 0.532997 0.250806 0.519363 -0.211547 -0.481132 0.774901 0.169735 0.062497 -0.029339 0.889148 0.364805 0.706475
sceptre -0.178905 -0.069841 0.405727 -0.238947 0.059254 0.185617 -0.205598 0.360327 -0.327254 0.322736 -0.050408 0.329569 -0.172462 -0.101057 -0.226313 -0.329404 0.276485 -0.499591 0.068626 0.033016 -0.090748 0.127588 0.239573 -0.024578 0.239206 -0.275906 -0.488538 -0.460574 -0.133529 0.509287 -0.220902 0.287872 0.139836 -0.026186 -0.007232 0.333176 -0.239064 -0.004589 0.279191 0.492709 0.045054 0.277863 0.100808 0.170566 0.281294 -0.473324 -0.037983 -0.147702 0.030017 -0.570589
walls 0.068410 -0.404303 -0.439795 0.127736 0.132973 -0.088794 0.187936 -0.224909 0.073507 -0.005676 -0.084634 -0.107279 0.614986 0.012445 -0.113805 0.211762 -0.076260 0.297849 0.273233 0.050208 -0.117406 0.031064 -0.357711 0.278179 0.216914 -0.192561 -0.049515 0.174827 0.003097 -0.055394 -0.004178 -0.107614 0.152273 -0.283216 0.142731 -0.013763 0.283758 -0.151856 0.156953 0.454760 -0.157637 0.128613 0.027529 -0.134354 -0.191190 0.338777 -0.260464 0.336823 0.112995 0.373624
beautiful -0.326754 0.419628 0.310621 -0.362552 -0.543840 0.115280 -0.077288 0.398140 0.203397 0.102724 -0.007726 0.020665 -0.333905 -0.150749 0.223186 -0.380528 0.197385 -0.175258 0.175474 -0.368686 -0.420613 0.141993 0.471730 0.102045 0.087113 -0.079960 -0.183577 -0.499834 -0.468769 0.249925 0.308324 0.440151 0.039146 0.010897 -0.450413 -0.023478 0.055469 -0.001849 0.047840 -0.126300 0.066267 0.799208 -0.535982 0.483339 0.019527 -0.856580 0.265197 -0.376704 -0.027755 -0.343695
falls 0.136540 -0.419716 -0.060514 0.324262 0.333138 -0.092246 -0.025906 -0.092913 -0.235257 0.082970 0.049623 0.023936 0.289303 0.003514 -0.253690 0.037483 0.015473 -0.009148 0.127383 0.224217 0.122698 -0.251691 -0.053086 0.016832 0.026144 0.085638 0.104181 0.129276 -0.119313 0.101423 0.033728 -0.120149 -0.315674 -0.124193 0.164060 0.181794 0.023590 0.067419 0.020893 0.456966 0.014956 -0.114421 0.088209 -0.194722 0.032242 0.224541 -0.355111 0.503774 0.290822 0.242253
ground 0.299194 -0.013014 -0.082602 -0.044365 -0.011823 -0.215376 0.196574 -0.027566 0.087651 -0.300863 -0.113907 -0.522312 0.691890 -0.141078 0.060653 0.073906 0.010921 0.285965 0.224209 0.017508 0.020357 0.163857 0.112284 0.176433 0.209716 -0.189912 0.160476 0.196676 -0.219387 0.261851 0.017458 -0.160101 -0.038081 -0.199204 -0.044863 -0.049907 0.293529 0.195149 0.390127 0.281527 0.033944 0.173252 -0.525189 -0.049048 -0.349620 0.432244 0.014203 0.292869 -0.057718 0.420647
jade -0.049517 0.223828 0.614916 -0.341621 -0.179717 0.110548 -0.218551 0.482441 -0.173607 0.171318 -0.121062 0.047033 -0.233676 -0.402247 -0.018761 -0.487860 0.365181 -0.341149 0.175517 -0.107092 -0.221479 -0.041849 0.326631 0.022127 0.232134 -0.114854 -0.216240 -0.360497 -0.116148 0.370257 -0.195603 0.133795 0.289819 0.205982 -0.011906 0.078682 -0.097910 0.156707 0.305940 0.083872 0.114399 0.326187 -0.349675 0.149528 0.119203 -0.655005 0.093906 -0.232179 -0.124077 -0.505494
ladder -0.079903 0.017548 -0.215778 0.318754 0.321754 0.248666 0.636050 0.061533 0.202157 -0.113679 -0.106365 -0.118828 0.287511 0.216871 0.211611 -0.294707 -0.171341 -0.214288 -0.111209 0.407592 -0.577812 0.283350 -0.503238 -0.144993 -0.426533 -0.900892 0.155411 0.309118 0.701963 -0.151262 -0.112393 -0.373666 0.513810 -0.161825 0.518183 -0.195755 -0.204183 -0.421146 -0.038263 0.004870 0.048847 -0.701282 0.089486 -0.061676 0.655314 -0.077070 0.395603 0.061942 -0.382330 0.190031
off -0.114027 0.564334 -0.778294 -0.259678 -0.390858 -0.009609 0.512783 -0.297883 0.638478 -0.516645 -0.124236 0.156151 0.397010 0.518875 0.008180 0.236643 -0.537453 0.361217 0.174719 -0.266517 -0.461294 0.691590 -0.773113 0.250389 0.000867 -0.563195 -0.129324 0.521633 0.215401 -0.404893 0.407552 0.358875 0.341627 -0.520368 -0.260787 -0.531748 0.253616 -0.210754 -0.469296 -0.095705 -0.187494 0.325832 -0.178777 -0.076595 -0.584209 0.350798 0.421922 0.153848 -0.043301 0.643076
opens 0.365415 -0.064868 0.302801 0.123166 -0.058233 -0.265555 -0.103475 0.077237 -0.175202 -0.176395 -0.241736 0.076960 0.363592 -0.512114 0.169369 -0.084621 0.358902 0.063518 0.163420 0.125724 0.161070 -0.420998 0.260081 -0.029801 0.135499 0.265783 0.038474 -0.060249 -0.413734 0.225077 0.074589 0.125982 -0.318343 0.220483 0.127436 0.215053 0.536964 0.382883 0.197913 0.479954 -0.208215 0.060057 -0.235735 -0.498154 -0.070737 0.210455 -0.016443 0.112673 -0.116563 0.101985
painting -0.078344 -0.335979 0.080208 -0.441962 0.174992 0.421203 -0.238657 0.185829 -0.265170 0.424053 0.010632 0.448867 -0.094669 -0.077108 -0.480993 -0.042248 0.024962 -0.130911 -0.068061 -0.236763 0.116634 0.219502 0.079405 0.138090 0.343557 -0.272952 -0.749800 -0.308028 0.022494 0.243480 -0.353089 0.306350 0.448997 0.051290 -0.208552 0.257982 -0.388297 -0.121948 0.283436 0.526451 -0.166453 0.279916 0.633005 0.287070 0.111722 -0.265810 0.206207 -0.370322 -0.191300 -0.651160
shaft 0.249510 -0.373952 -0.056813 -0.023269 0.297982 -0.071662 0.242021 0.008904 -0.172349 -0.086191 -0.062612 -0.636858 0.740852 0.070549 -0.131827 0.092114 -0.141425 0.182637 0.067164 0.099314 0.083686 0.235447 0.124065 0.127891 0.118188 -0.424565 0.066084 0.216532 0.142148 0.196245 -0.230406 -0.362659 0.022633 -0.330914 0.064201 -0.055504 -0.079198 0.048395 0.473520 0.370661 0.129872 -0.165264 -0.017817 0.271505 -0.009986 0.376111 -0.057452 0.435946 -0.000180 0.324449
sitting 0.233831 0.391566 -0.214481 0.304131 -0.073541 -0.316100 0.524707 -0.043270 0.514906 -0.349681 0.011366 -0.424609 0.939330 -0.395606 0.349372 -0.155164 -0.019287 0.614580 0.519160 -0.051228 -0.017440 0.288578 0.024872 0.374357 0.236945 0.136369 0.238737 0.186261 -0.491783 0.239396 0.256203 0.332066 -0.158297 -0.383341 -0.418215 0.138973 0.439543 0.004976 0.095934 0.464680 0.070587 0.691751 -0.762047 -0.175722 -0.288611 0.677031 -0.126236 -0.074190 -0.031625 0.036096
skull -0.462409 0.182752 0.219732 -0.619120 -0.584649 0.308608 -0.255404 0.203906 0.166286 0.212902 -0.284185 0.242832 -0.385570 -0.139513 -0.300965 -0.095060 0.253236 -0.690943 -0.128002 -0.168521 -0.538188 0.186362 0.074916 0.185139 0.467963 -0.385503 -0.526200 -0.134768 0.325968 0.133965 -0.322869 0.025018 0.582805 -0.018598 0.253225 -0.062000 -0.032858 0.011227 0.057865 0.025777 0.139822 0.563334 -0.301738 0.406248 -0.148044 -0.599205 0.010270 -0.095269 0.015750 -0.221330
white -0.033967 -0.480442 -0.015569 0.541811 0.075492 0.083567 0.320351 -0.142718 -0.083088 -0.016610 -0.173720 -0.097584 0.723827 0.138645 -0.009068 0.150307 0.007212 0.077265 0.312395 0.096718 -0.238102 -0.101079 -0.247970 0.368650 0.231169 -0.264478 -0.176652 0.149422 0.032789 0.104045 0.274232 -0.057282 0.139388 -0.244169 0.090503 -0.061433 -0.008194 -0.225284 0.148221 0.495335 -0.179695 0.176849 -0.050395 -0.185789 0.174002 0.118363 -0.321936 0.393705 0.346169 0.163110
axe -0.370755 0.661567 -0.228463 -0.619562 -0.663219 0.031332 0.032766 0.023002 0.237235 -0.243635 -0.430865 -0.128149 -0.366887 -0.012766 0.256998 -0.013849 0.047328 -0.348108 0.059363 -0.184181 -0.496983 0.268495 -0.174211 0.158517 0.430739 -0.500525 -0.125375 0.017870 0.130546 -0.301170 -0.001926 -0.096633 0.501854 -0.010038 0.257196 -0.322404 0.631616 -0.256908 0.083323 -0.631484 -0.075568 0.362015 -0.701213 -0.033376 -0.617295 -0.319345 0.200900 -0.103191 -0.064086 0.446150
been 0.188090 -0.199019 0.121588 0.235149 0.209897 -0.282363 -0.051776 -0.009095 -0.147091 -0.054134 -0.098376 0.058262 0.324478 -0.018472 -0.076376 -0.298321 0.085288 -0.040259 0.122035 0.315910 0.339273 -0.210322 0.266171 -0.330770 -0.376339 0.209557 0.350645 0.025764 -0.146721 0.206982 -0.004755 0.144611 -0.441570 -0.125824 0.210616 0.242247 0.036674 0.198463 0.074594 0.444094 0.145372 -0.220922 0.058424 -0.056624 0.075134 0.241011 -0.166416 0.333844 0.139346 0.093168
behind 0.196853 -0.528180 0.098286 0.598658 -0.028830 0.174389 0.547208 -0.009200 0.108606 -0.410954 -0.364063 -0.668862 0.776773 0.097686 0.062882 0.277675 -0.151541 0.305496 0.080203 -0.040166 -0.286181 -0.086262 -0.325159 0.344267 0.057392 -0.429410 0.046075 0.548789 0.620604 -0.147480 0.234032 -0.564003 0.470588 -0.067377 0.214267 -0.486319 -0.333871 0.027281 0.124545 0.017172 -0.037225 -0.449290 -0.028741 0.019118 0.239512 0.121832 0.069699 0.491941 0.145895 0.467378
bracelet -0.212301 0.403441 0.097186 -0.737034 -0.532033 0.231375 -0.007072 0.189968 0.144484 -0.006866 -0.499143 -0.261029 -0.148383 -0.114757 -0.078090 0.025672 0.003174 -0.510954 -0.169585 -0.238996 -0.359482 0.317544 -0.105883 0.205158 0.541782 -0.588150 -0.334055 0.113380 0.402935 -0.231867 -0.291076 -0.338709 0.748603 0.099323 0.200958 -0.365233 0.192898 -0.061618 0.307306 -0.361586 -0.015377 0.222153 -0.386232 0.332720 -0.512329 -0.401897 0.442289 -0.046097 -0.131136 0.238077
cellar 0.145167 -0.070241 -0.084520 -0.005220 0.116531 0.071603 0.415750 0.016492 0.274094 -0.273451 -0.235961 -0.547566 0.590696 -0.157648 0.079863 -0.144117 -0.174343 0.092910 -0.051679 0.147207 -0.238679 0.341407 -0.210835 0.094551 -0.078142 -0.578755 0.226072 0.581378 0.585382 -0.124652 -0.185890 -0.567635 0.559798 -0.058168 0.405326 -0.319015 -0.181043 -0.007651 0.148769 -0.025280 0.051830 -0.561698 -0.288365 0.174274 0.107426 0.318214 0.320635 0.242708 -0.435248 0.429669
huge -0.155057 0.320332 0.633892 -0.326737 -0.289292 0.105187 -0.213575 0.510071 -0.189017 0.242410 -0.067000 0.180379 -0.171280 -0.440545 -0.073265 -0.561496 0.576075 -0.424908 0.027516 -0.023236 -0.171849 -0.030107 0.451761 0.007924 0.121001 0.067985 -0.128112 -0.434692 -0.193594 0.472922 -0.169564 0.201837 0.143741 0.208070 -0.097172 0.187408 -0.174488 0.210278 0.265795 0.201029 0.211917 0.426616 -0.337573 0.199216 0.147479 -0.613501 0.000568 -0.219451 -0.095692 -0.635571
jewels -0.223099 -0.398255 0.375698 -0.233079 -0.001065 0.295874 -0.155186 0.257035 -0.150565 0.534068 0.238287 0.217432 -0.159349 0.126356 -0.410730 -0.244305 0.176678 -0.282116 0.114386 -0.147988 -0.112490 0.040498 0.471100 0.008556 0.082034 -0.180747 -0.461288 -0.616859 -0.210993 0.588244 -0.213082 0.251943 0.148609 -0.183526 -0.347921 0.276462 -0.385329 -0.124914 0.322670 0.575633 0.190438 0.587911 0.288290 0.598405 0.467389 -0.591388 -0.117194 -0.194132 0.276371 -0.708110
kitchen 0.111358 -0.170781 0.053580 0.584350 -0.135271 0.080693 0.545266 0.022568 0.270342 -0.313620 -0.235459 -0.489452 0.857301 -0.080764 0.175393 0.001269 -0.164575 0.307283 0.282214 -0.087498 -0.286677 0.066837 -0.288842 0.406629 0.116444 -0.214515 0.001350 0.380863 0.301818 -0.019811 0.300947 -0.146449 0.351918 -0.142446 -0.066971 -0.284648 -0.143443 -0.081685 -0.006535 0.243124 -0.089533 0.065510 -0.313999 -0.031631 0.124495 0.251251 -0.018417 0.190400 0.074205 0.187219
light -0.525729 0.459423 0.075867 -0.334787 -0.631223 -0.054413 -0.188518 0.098329 0.192251 0.208335 -0.226937 0.480837 -0.212948 -0.076765 -0.051686 -0.164089 0.533469 -0.753254 -0.024535 0.077257 -0.420929 0.261903 -0.282670 0.194837 0.231844 -0.096020 -0.265595 -0.085505 0.071446 -0.226331 -0.089833 0.214866 0.404916 -0.048472 0.081163 0.126968 0.343023 -0.320920 -0.118429 -0.171342 0.126236 0.468479 -0.320295 0.046775 -0.128368 -0.272596 -0.215682 -0.078183 0.093461 -0.107916
reservoir 0.236556 -0.733799 -0.151536 0.127972 0.364728 0.291664 0.335150 -0.012978 0.007714 -0.001398 -0.030055 -0.588042 0.554312 -0.095152 -0.226891 0.001766 -0.489109 -0.041260 0.117620 0.019057 -0.492434 0.197713 -0.308814 0.330043 0.000275 -0.817857 -0.105342 0.519522 0.765558 0.016718 -0.270120 -0.611563 0.557154 -0.292892 0.409104 -0.368904 -0.661125 0.249542 0.179406 0.360485 0.036739 -0.615192 -0.122633 0.479026 0.153207 -0.095357 -0.018345 0.660687 -0.073764 0.378177
screwdriver -0.448860 0.292496 -0.090714 -0.797803 -0.374032 0.236388 -0.226874 0.113530 -0.010770 0.088236 -0.335049 0.302423 -0.203196 0.057550 -0.216080 -0.020760 0.373608 -0.542008 -0.143403 -0.003440 -0.295182 0.500493 -0.188012 0.160814 0.539978 -0.526686 -0.537278 -0.074287 0.182175 0.065414 -0.291168 0.041219 0.644364 -0.103646 0.314228 0.061495 0.146054 -0.307773 0.155211 -0.051252 0.014780 0.356070 -0.165041 0.165696 -0.332584 -0.088822 0.097954 -0.097799 -0.020940 0.001724
seen 0.154276 0.046506 0.380499 0.058465 -0.247658 -0.272932 -0.232266 0.104460 -0.269975 0.009765 -0.213480 0.003446 0.413600 -0.593637 0.303692 -0.284604 0.352640 0.010448 0.477147 -0.235246 0.373283 -0.447022 0.232723 0.219187 0.178375 0.647066 0.143202 -0.041998 -0.378892 0.407411 0.032070 0.247768 -0.241170 0.063732 0.126273 0.033924 0.306028 0.607140 0.332265 0.513370 -0.113783 0.093527 -0.493899 -0.365186 -0.072513 0.072508 -0.259524 0.238139 -0.298815 -0.029297
shore 0.210061 -0.276260 -0.316046 0.096128 0.088367 0.016064 0.438027 -0.007648 0.214458 -0.181276 -0.097298 -0.498588 0.845829 -0.058285 -0.085760 0.105477 -0.192889 0.327378 0.339115 -0.006918 -0.234304 0.279782 -0.265303 0.336615 0.136479 -0.531095 -0.039317 0.288745 0.112106 0.017811 -0.012279 -0.189550 0.289808 -0.419093 0.016981 -0.138795 -0.004226 -0.149457 0.279840 0.474055 0.006675 0.114841 -0.121819 0.105805 -0.165657 0.266253 -0.013006 0.421823 0.196039 0.347975
shovel -0.310727 0.009848 -0.356768 -0.389373 -0.312293 -0.022571 -0.130181 -0.224772 0.233392 -0.043673 -0.095644 -0.026009 0.148898 0.086103 -0.229672 0.240737 0.144185 -0.097434 -0.127823 0.057102 -0.084641 0.267105 -0.236663 0.247446 0.268364 -0.112818 -0.061364 0.260607 0.316697 -0.208280 -0.354415 -0.125454 0.402080 -0.188513 0.315192 -0.098165 0.264829 -0.281036 -0.065784 -0.255196 -0.022624 0.162371 -0.133882 -0.080543 -0.214837 0.579251 -0.193877 0.131787 -0.055413 0.391803
some 0.093249 -0.309972 -0.051917 0.246203 0.228030 -0.038600 0.116889 -0.176001 -0.045145 0.087906 0.150096 0.063540 0.161664 -0.017016 -0.017556 0.105879 -0.053401 0.204519 0.047455 0.095244 0.118436 -0.229568 0.009224 -0.030465 -0.142712 0.198186 0.044465 -0.092210 -0.104315 0.081709 0.051383 0.074975 -0.234873 -0.100378 -0.110784 0.137319 -0.010836 -0.049142 0.026258 0.180348 -0.058428 -0.078828 0.296829 -0.190931 0.233072 0.192190 -0.157905 0.056738 0.046524 -0.049567
treasures -0.344284 -0.601347 -0.285788 0.644157 0.049403 -0.358850 -0.255365 0.049013 0.202212 0.347952 0.671247 -0.237664 0.282836 0.463097 -0.504273 -0.242069 0.046373 -0.184128 0.471491 0.101907 -0.252220 0.172872 -0.055248 0.398252 -0.184508 -0.127064 0.308957 -0.185955 -0.305918 0.215266 -0.056699 0.023213 -0.105674 -0.718664 -0.340170 0.106911 -0.108266 -0.422823 0.053451 0.633833 0.448224 0.605847 -0.136164 0.559448 0.567273 -0.005079 -0.691111 0.622773 0.804730 0.061814
trident -0.415681 -0.059422 0.301459 -0.392370 -0.301197 0.307685 -0.275415 0.288031 -0.012170 0.363257 -0.017268 0.213007 -0.400474 0.012038 -0.253098 -0.174933 0.173877 -0.418952 -0.090321 -0.170987 -0.297554 0.069342 0.370923 0.023854 0.208001 -0.173032 -0.449445 -0.412246 0.014946 0.326765 -0.209040 0.155409 0.300232 -0.037395 -0.097114 0.117362 -0.275757 -0.053150 0.089971 0.138048 0.128858 0.563165 0.015715 0.545928 0.207976 -0.702750 0.033053 -0.215617 0.099894 -0.519862
about 0.159026 -0.201517 -0.212943 0.194114 0.086591 -0.016739 0.189718 -0.149956 0.143125 0.027696 -0.025625 0.026104 0.395121 -0.178638 -0.073702 0.142152 -0.137240 0.365231 0.028277 -0.033282 0.127256 -0.096016 -0.237551 0.179956 0.020212 0.227712 -0.074813 0.127496 0.141375 -0.272251 -0.076884 0.014860 0.181340 0.005990 -0.166478 -0.046897 -0.038271 -0.025851 0.016473 0.195092 -0.148449 -0.004577 0.261770 -0.057627 -0.035633 0.255734 -0.058134 -0.081333 -0.161860 -0.099469
bag 0.112252 -0.157135 0.372837 -0.163649 -0.034382 -0.023967 -0.199903 0.148143 -0.072418 0.315634 0.250808 -0.044169 0.197379 -0.203122 -0.319776 -0.049510 0.238053 0.017406 -0.105381 -0.075148 0.354188 -0.110867 0.586516 0.036172 0.047004 0.402236 -0.036517 -0.408730 -0.297722 0.436656 -0.298859 0.205068 -0.102452 0.034503 -0.436303 0.280170 -0.061199 0.076851 0.393629 0.282906 0.226829 0.407487 0.015737 0.187302 0.193930 -0.004434 -0.226452 -0.218074 0.008912 -0.488238
cave 0.118322 -0.034103 0.228997 -0.054621 0.009935 0.209641 0.243207 0.207514 0.130607 -0.083357 0.025798 -0.391825 0.055476 -0.055459 0.168945 -0.205476 -0.039569 -0.007038 -0.026814 -0.064932 -0.117448 0.161606 0.212026 -0.023531 -0.124450 -0.315133 0.146643 0.082831 0.326246 0.067004 -0.137227 -0.263244 0.247930 0.033703 -0.019654 -0.183528 -0.407628 0.097154 0.198999 -0.134542 0.213977 -0.213926 -0.141192 0.373068 0.189213 -0.170924 0.305905 -0.090491 -0.159762 -0.060420
chalice -0.326181 0.479350 -0.126485 -0.506134 -0.456867 0.104517 -0.157509 0.069442 0.157997 -0.106056 -0.207009 0.250024 -0.352108 0.039380 -0.070817 -0.011539 0.094775 -0.383026 -0.228992 -0.102328 -0.274065 0.335596 -0.239920 0.076291 0.318473 -0.228793 -0.217244 0.048924 0.256400 -0.174372 -0.184576 0.017548 0.459714 0.036772 0.114648 -0.162428 0.114924 -0.139298 -0.096522 -0.387663 0.036349 0.242139 -0.223133 0.076329 -0.354343 -0.118520 0.187326 -0.163030 -0.117880 0.064925
chasm 0.019251 -0.496041 -0.011959 0.098299 0.183646 0.169238 0.169854 0.133924 -0.025556 0.054454 -0.102540 -0.189474 0.415216 -0.062602 -0.214747 -0.121970 0.022230 -0.015381 0.129287 0.117086 -0.379472 0.171034 -0.131851 0.247330 0.007355 -0.591720 -0.094397 0.220694 0.266825 0.175632 -0.088599 -0.245525 0.405284 -0.235530 0.201331 -0.058278 -0.321215 0.035560 0.133214 0.480627 0.037902 -0.139810 0.019084 0.222367 0.263463 -0.137964 0.006482 0.410811 0.039226 0.088399
clove -0.430877 -0.068572 -0.209799 -0.093823 -0.560377 -0.082213 -0.031498 0.009766 0.557145 0.153058 0.190472 -0.107226 0.201753 0.169142 -0.488555 -0.167188 0.134081 -0.644248 0.425437 -0.078054 -0.764085 0.563515 -0.262389 0.669164 0.192643 -0.593727 -0.175971 -0.013487 0.108236 0.081764 -0.123921 0.208491 0.700386 -0.598515 -0.160347 -0.237174 0.093733 -0.347623 0.075396 0.318125 0.325815 0.800487 -0.479541 0.606438 0.170451 -0.193728 -0.363746 0.287943 0.335408 0.197819
control 0.158779 -0.176197 -0.084339 0.633635 0.114132 -0.157664 0.541568 -0.380842 0.131531 0.067663 0.142792 -0.156193 0.260156 -0.099954 0.107298 0.465117 -0.060030 0.358678 0.258493 -0.225082 0.021028 -0.450833 -0.390546 0.424154 0.258836 0.390211 -0.031086 0.022692 -0.060917 -0.058392 0.001683 0.022763 -0.186182 -0.233428 -0.360511 -0.016852 0.305907 -0.294436 0.081745 -0.182377 -0.003030 0.422699 0.187423 -0.422412 0.240702 0.256584 -0.399081 -0.024756 0.044854 0.036509
emerald -0.118457 0.349350 0.400311 -0.554890 -0.551971 0.045378 -0.183469 0.380882 0.242994 0.000190 -0.018229 -0.276084 0.022184 -0.244780 -0.216136 -0.200808 0.367215 -0.330025 -0.159840 -0.150872 -0.092791 0.298402 0.515096 0.135895 0.121352 -0.026729 0.065594 -0.173332 0.004426 0.315784 -0.305075 -0.070622 0.281302 0.060995 -0.132553 -0.104915 -0.069928 0.126139 0.315547 -0.124262 0.427247 0.429942 -0.543860 0.521026 -0.106665 -0.171904 0.088050 -0.112280 -0.112759 -0.122145
exit 0.475574 0.272400 0.001652 -0.078545 -0.070645 -0.323760 0.093004 0.006967 0.141354 -0.488385 -0.062652 -0.717286 0.562513 -0.111552 0.186666 0.014912 -0.043365 0.359269 0.233260 -0.037350 0.153117 0.264334 0.273063 0.033984 0.156477 -0.153369 0.352461 0.294547 -0.268785 0.186699 0.010558 -0.211495 -0.154023 -0.053018 -0.021279 -0.210849 0.359254 0.230595 0.399613 0.023230 0.160355 0.170118 -0.684133 -0.003922 -0.522566 0.563056 0.170589 0.185246 -0.059615 0.578489
feet -0.050357 -0.162232 -0.303577 0.162475 0.024620 -0.181211 -0.004148 -0.178408 0.043924 -0.027851 0.160457 -0.014286 0.219687 0.161612 -0.018171 0.057877 -0.056384 0.231049 -0.006055 0.044639 0.137293 -0.089861 -0.074210 0.020138 -0.133155 0.207340 0.148731 -0.062384 -0.117754 0.067257 -0.017305 0.048918 -0.126549 -0.138999 -0.067767 0.077315 0.101465 -0.078751 -0.047069 0.152847 -0.099566 0.065217 0.081682 -0.133640 0.028619 0.348697 -0.157791 0.144931 0.084368 0.139421
figurine -0.102696 0.168572 0.716544 -0.180145 -0.178870 0.048478 -0.234690 0.542949 -0.187015 0.243377 -0.091411 0.038497 -0.267105 -0.484426 0.049958 -0.621688 0.420625 -0.422222 0.260851 -0.055422 -0.293589 -0.155146 0.413164 0.010900 0.191602 -0.058628 -0.162956 -0.454786 -0.229573 0.423745 -0.127856 0.186892 0.178322 0.202007 -0.017129 0.138001 -0.051883 0.169213 0.293491 0.145962 0.106083 0.366491 -0.450714 0.123260 0.289876 -0.815311 -0.018851 -0.204410 -0.059763 -0.561488
frigid 0.229973 -0.511763 -0.526044 -0.184928 0.592489 -0.191557 -0.031122 -0.459864 -0.386244 0.123548 0.115904 0.248044 0.509600 0.299809 -0.159495 0.393345 -0.238886 0.654124 0.061899 0.113194 0.567999 -0.069328 -0.121564 -0.034669 0.285665 0.088674 -0.278110 -0.132054 -0.523210 -0.048125 0.067409 0.170418 -0.084488 -0.083101 -0.206638 0.408564 0.297528 -0.191684 0.384825 0.617794 -0.524002 0.025829 0.490394 -0.234073 -0.413161 0.692536 -0.171796 0.000710 0.206619 0.034504
glass -0.070607 0.359168 -0.192663 0.275291 0.138722 -0.268036 0.178573 -0.109704 0.056477 -0.072452 -0.090865 0.223551 0.435083 -0.394593 0.393688 -0.206330 0.257559 0.261167 0.509298 0.187826 -0.026811 -0.065683 -0.066645 0.140723 0.241376 0.339867 0.014930 -0.083570 -0.633584 0.251118 0.334014 0.567504 -0.444689 -0.308513 -0.148100 0.438319 0.571044 -0.057648 -0.122935 0.461937 -0.163530 0.589683 -0.468437 -0.586374 -0.103238 0.320762 -0.377799 0.000203 0.073496 -0.165741
has 0.114547 0.090053 0.154224 -0.008839 0.013469 -0.317308 -0.116978 0.016226 -0.164219 -0.179580 -0.105563 -0.406132 0.364805 0.092863 -0.018223 0.010159 0.101910 0.098761 -0.111521 0.193962 0.406947 0.056136 0.330600 -0.175687 0.112018 0.234706 0.352813 0.113783 -0.164612 0.162522 -0.202280 -0.133856 -0.364619 -0.115786 -0.043079 0.081369 0.247795 0.019017 0.222634 0.065480 0.175773 0.008872 -0.153054 0.036349 -0.118244 0.372872 -0.128497 0.313704 0.019456 0.181409
he 0.248721 0.063954 -0.090283 0.053394 0.119093 -0.070469 0.080563 -0.123341 0.030548 -0.066900 0.122236 -0.086678 0.164940 0.062936 0.050863 0.111649 -0.131755 0.313192 0.037266 -0.036951 0.134711 0.037976 0.122334 -0.002834 -0.041206 0.095784 0.113875 0.025904 -0.186662 0.137850 0.074303 0.082129 -0.207365 0.010718 -0.187385 0.058085 0.097856 0.054453 0.070681 0.066304 0.035650 0.064927 -0.094216 -0.045967 -0.077551 0.264146 0.004363 -0.110688 -0.037515 -0.003581
hear 0.334740 -0.816250 -0.097084 -0.049249 0.414236 0.135243 0.022793 -0.082840 -0.172631 0.365230 -0.125874 -0.032703 0.770474 -0.431372 -0.288549 -0.033125 -0.028410 0.615810 -0.044409 -0.049290 0.442608 -0.178268 0.020763 0.211987 0.128312 0.151356 -0.133932 0.132718 0.132192 -0.078891 -0.389889 -0.189154 0.533933 0.181527 0.030470 0.156169 -0.280729 0.103326 0.513621 0.788084 -0.370095 -0.292567 0.469024 0.092402 0.076221 0.573408 0.039137 -0.021008 -0.539490 -0.292580
its 0.134146 0.070694 -0.081014 0.188568 -0.063620 -0.115396 0.077433 -0.070734 0.099891 -0.171052 -0.128322 0.032144 0.252471 -0.211642 0.075043 0.015362 0.018939 0.149287 0.138640 0.010500 -0.013346 -0.072389 -0.128155 0.018418 -0.046998 0.153900 0.106312 0.189935 -0.073185 -0.107534 0.142864 0.053253 -0.059223 0.027105 0.073848 -0.003842 0.200741 0.129272 -0.094791 0.132180 -0.077222 -0.006015 -0.105807 -0.308595 -0.099271 0.221730 0.029691 0.068165 -0.098393 0.153770
kill -0.005449 0.081075 0.046720 -0.255387 0.113975 -0.119414 -0.016179 -0.301635 -0.039555 -0.151192 0.173739 -0.530206 0.059293 0.112664 0.247120 0.283333 0.186880 0.192237 0.042724 0.029156 0.606352 0.059849 0.389664 -0.138887 0.188800 0.274516 0.145543 -0.045396 -0.207626 0.159338 -0.146529 -0.150524 -0.291642 -0.067419 -0.037559 0.058910 0.208908 -0.219338 0.269996 -0.462289 0.032412 0.091356 -0.091998 -0.153048 -0.054228 0.679553 -0.137649 -0.033654 0.164271 0.235714
leads 0.197392 -0.105273 0.187459 -0.125650 -0.079406 0.026503 0.015433 0.334704 0.006741 -0.054454 -0.302609 -0.186269 0.394815 -0.491779 0.021832 -0.511447 0.270963 0.082374 0.102689 0.129075 -0.303481 0.124205 0.017574 0.183558 0.034762 -0.472968 0.093240 0.335849 0.161190 0.132032 -0.083197 -0.259680 0.432067 0.109888 0.342694 -0.079572 -0.093785 0.248472 0.166185 0.319015 -0.138511 -0.179391 -0.323351 -0.083209 0.096063 -0.047878 0.280180 0.212686 -0.383968 0.123900
long 0.254649 -0.246084 0.292526 -0.106140 -0.007970 -0.105532 0.073717 0.446283 -0.027224 -0.205672 -0.178998 -0.777305 0.466084 -0.075575 -0.121055 -0.111651 0.084917 0.129779 0.102798 -0.032139 -0.084394 0.189717 0.350397 0.174114 0.053436 -0.458124 0.215584 0.246138 0.054112 0.351293 -0.071991 -0.489291 0.130898 -0.088688 -0.043167 -0.205045 -0.254350 0.432831 0.464245 0.256997 0.324685 -0.081840 -0.429962 0.536996 -0.095917 -0.022891 0.122933 0.389627 -0.007557 0.313416
loud 0.141884 0.053597 0.247845 -0.062377 0.069177 -0.033669 0.071456 0.122453 -0.004488 -0.171429 0.033383 -0.660864 0.160378 0.087234 0.018626 0.000724 0.001761 0.018993 -0.078150 0.073425 0.129062 0.243772 0.394137 -0.097444 0.008809 -0.180916 0.232684 0.138268 0.076515 0.094445 -0.184200 -0.306903 -0.085140 -0.045423 -0.089101 -0.117179 -0.125185 -0.003616 0.318759 -0.262624 0.266568 -0.144930 -0.239984 0.364729 0.044527 0.094485 0.122227 0.105635 0.055988 0.197510
northeast 0.099462 -0.347192 -0.103465 -0.021797 0.089257 0.345891 0.388838 0.185423 0.087472 -0.223632 -0.228610 -0.490208 0.350314 -0.066106 0.054160 -0.043354 -0.255827 -0.020689 0.018094 -0.020366 -0.465980 0.318094 -0.297403 0.170255 -0.028805 -0.873407 -0.033721 0.410041 0.677960 -0.003646 -0.074211 -0.529057 0.651667 -0.162526 0.420099 -0.352996 -0.401095 0.110278 0.202519 0.064091 0.078868 -0.518477 -0.137407 0.296428 0.154277 -0.228605 0.316521 0.425534 -0.204146 0.366300
out -0.166353 -0.320440 -0.080578 0.119009 0.047162 -0.132977 -0.011555 -0.064598 0.027667 0.129318 0.107932 -0.101915 0.231034 0.184295 -0.214378 0.056293 0.044877 -0.095640 0.134157 0.093657 -0.099700 0.071492 -0.007886 0.143144 0.049425 -0.097966 0.008981 0.016170 -0.025960 0.106453 -0.105108 -0.048826 -0.034806 -0.303843 -0.032747 0.080179 0.020476 -0.219076 0.108481 0.218573 0.147432 0.162618 0.028581 0.147169 0.195364 0.103573 -0.336007 0.303548 0.360522 0.050604
quantity -0.265631 0.045553 -0.047396 0.199757 0.188419 -0.073433 0.028696 0.013233 0.052801 0.193100 0.121930 0.136831 0.126720 -0.035881 0.068957 -0.250714 0.091180 -0.241950 0.433397 0.092705 -0.287966 0.107832 0.013407 0.144785 0.136765 -0.135913 -0.218873 -0.307916 -0.474349 0.429059 0.120565 0.437344 -0.235216 -0.452184 -0.227791 0.304518 0.160317 -0.186095 0.053940 0.546880 0.185660 0.646425 -0.389365 0.077112 0.235792 -0.278148 -0.429418 0.121041 0.387252 -0.261722
rainbow -0.118150 -0.233547 -0.217727 0.084912 0.160195 -0.042865 0.023460 -0.260518 -0.041981 0.160655 0.083144 0.108305 0.280637 0.194695 -0.236421 0.145273 -0.046246 -0.079018 0.154817 0.188584 -0.096392 0.074598 -0.176352 0.175434 0.144318 -0.117265 -0.099004 0.101005 0.026134 0.074541 -0.056220 0.058995 -0.111911 -0.459830 0.031875 0.111079 0.019335 -0.181701 -0.067439 0.242324 -0.006601 0.140021 0.130390 0.000690 0.014746 0.257752 -0.396826 0.409904 0.440411 0.218170
scarab -0.082321 0.159920 0.412491 -0.439923 -0.273717 0.152260 -0.230811 0.322931 -0.054505 0.126831 -0.144239 0.024652 -0.144209 -0.324235 0.010886 -0.206987 0.307836 -0.100339 -0.152312 -0.180774 0.008003 0.018152 0.483017 0.000059 0.144527 0.095355 -0.178333 -0.286818 -0.207853 0.280279 -0.046544 0.093008 0.148212 0.247072 -0.142014 0.129036 -0.047880 0.146929 0.212480 -0.018741 0.066358 0.343263 -0.203292 0.315562 -0.036018 -0.357257 0.245179 -0.271120 -0.186595 -0.326564
trunk -0.323249 -0.284388 0.309253 0.033992 -0.068726 0.146970 -0.076498 0.185934 0.022082 0.462419 0.245607 0.179973 -0.086789 0.076913 -0.309590 -0.291791 0.133366 -0.453346 0.180570 0.007707 -0.337567 0.039493 0.284255 0.093404 0.017639 -0.147679 -0.273360 -0.433768 -0.090940 0.470271 -0.156623 0.249877 0.076309 -0.333890 -0.207814 0.213779 -0.231509 -0.147959 0.123525 0.498159 0.226921 0.549501 0.027847 0.426380 0.562207 -0.552463 -0.317853 0.014564 0.353918 -0.533032
along 0.013237 -0.103695 -0.106554 -0.131773 0.071902 0.033346 0.138079 0.024586 -0.045585 -0.051494 -0.170364 -0.050244 0.242490 -0.019851 -0.014695 -0.102243 0.091902 0.004170 0.117268 0.085994 -0.187716 0.084764 -0.186805 0.118496 0.131692 -0.391187 -0.061849 0.126776 0.088149 0.081960 -0.018552 -0.052339 0.187448 -0.205512 0.205368 0.081102 0.103959 -0.085785 0.105800 0.221670 -0.097183 0.018316 -0.089169 -0.088821 -0.024960 0.013514 0.006250 0.234868 -0.014421 0.165596
altar 0.184482 -0.222392 -0.275523 0.130180 0.216835 -0.014071 0.307927 -0.154373 0.154326 -0.105459 0.124141 -0.332900 0.467841 0.063550 -0.089837 0.228990 -0.245126 0.310915 0.142741 -0.025664 -0.004539 0.178313 -0.159433 0.218845 0.095055 -0.133003 -0.052845 0.184507 0.031368 -0.029552 -0.049264 -0.148900 0.056837 -0.275508 -0.114829 -0.056900 -0.053911 -0.103880 0.151681 0.197354 0.017989 0.060761 0.053757 0.092260 -0.164418 0.330941 -0.140124 0.173042 0.180655 0.157643
beach 0.247544 0.152405 -0.084245 0.158249 0.078990 0.018920 0.277269 0.115934 0.095052 -0.172264 0.083176 -0.295236 0.399704 -0.121317 0.150503 -0.033231 -0.150443 0.363467 0.165289 -0.066604 0.145544 0.098154 0.082111 -0.020513 -0.081932 -0.038470 0.074311 -0.074561 -0.174163 0.102669 0.024665 0.042681 -0.180928 -0.086464 -0.267364 0.059233 -0.027551 -0.052689 0.112513 0.178492 0.039601 0.169096 0.025647 0.001722 -0.036586 0.081351 0.184295 -0.050151 -0.036354 -0.108022
bell -0.235154 0.239167 -0.297131 -0.357964 -0.338388 0.040011 0.220435 -0.017377 0.270725 -0.152912 -0.186746 -0.064087 -0.054375 0.185786 0.121890 -0.048701 -0.103729 -0.191646 0.134800 -0.134808 -0.559648 0.359107 -0.340110 0.179271 0.231034 -0.583340 -0.146876 0.075245 0.163979 -0.245818 0.142868 0.015577 0.368671 -0.275789 0.165872 -0.265766 0.255555 -0.240696 -0.064379 -0.204657 -0.126226 0.174195 -0.302112 0.149428 -0.280121 -0.202547 0.159724 0.054316 0.010542 0.383784
below 0.114016 -0.171815 -0.021176 0.102811 0.014467 -0.108349 0.070672 -0.036783 -0.011733 -0.082781 -0.159531 -0.117678 0.491305 -0.108212 -0.009616 -0.028145 0.054099 0.106654 0.089973 0.088279 0.031010 -0.015870 -0.021574 0.124440 0.054918 -0.072784 0.087923 0.228513 0.074546 0.089655 -0.055015 -0.088150 0.092483 -0.080942 0.139331 -0.026238 0.111019 0.142877 0.155538 0.293496 -0.007376 -0.090144 -0.144344 -0.056309 -0.036883 0.300933 -0.046445 0.219538 -0.100676 0.179448
canary 0.109018 -0.001933 0.043824 -0.333539 0.082045 0.124779 -0.070458 0.077444 -0.304753 -0.051652 -0.274535 0.153653 0.085766 -0.161457 -0.032077 0.072492 0.110179 0.127716 -0.115401 0.002709 0.232568 -0.029806 -0.022700 -0.039396 0.194484 -0.030718 -0.239508 -0.036674 -0.003737 0.052635 -0.108317 -0.081350 0.246209 0.140782 0.101916 0.111785 -0.008095 0.036768 0.256306 0.113280 -0.137585 -0.139323 0.240490 -0.074876 -0.223598 0.148424 0.228586 -0.135667 -0.247993 -0.087012
chain 0.132685 -0.175440 -0.211737 0.108321 0.276405 -0.143482 0.112093 -0.213315 0.041307 0.003984 0.292010 -0.238781 0.356195 0.168218 -0.016438 0.156179 -0.058750 0.343948 0.217973 0.076565 0.122874 0.100059 0.164442 0.076722 0.092870 0.024360 0.041595 -0.127033 -0.348778 0.230767 0.040851 0.069691 -0.288857 -0.282259 -0.259299 0.161879 0.119914 -0.115645 0.147625 0.173482 0.005763 0.315608 -0.135445 0.043715 -0.044892 0.425834 -0.246377 0.059620 0.266829 0.087142
collection -0.303666 -0.535942 -0.464057 0.619696 -0.029410 -0.500713 -0.227856 -0.131139 0.347257 0.150986 0.538364 -0.369516 0.366086 0.414960 -0.394891 -0.104099 0.014929 -0.020129 0.420833 0.120597 -0.142366 0.086624 -0.146858 0.383866 -0.151490 0.029598 0.471227 -0.001658 -0.263755 0.051942 -0.015596 -0.104675 -0.085293 -0.658087 -0.169293 0.022057 0.155438 -0.386274 -0.060007 0.334777 0.331962 0.490179 -0.341705 0.379088 0.340197 0.298339 -0.751209 0.679756 0.767252 0.471788
comes 0.430770 -0.342529 0.010844 -0.132362 0.251021 -0.111060 -0.015940 -0.032065 -0.317250 -0.158416 -0.160736 -0.259719 0.487229 -0.179357 -0.046039 0.229872 0.178354 0.537047 0.142802 -0.001300 0.478866 -0.182543 0.205982 0.046712 0.098425 0.161410 0.036284 0.123402 -0.275594 0.238216 0.039500 -0.210221 -0.059456 0.101139 0.052154 0.092307 0.055117 0.328005 0.399648 0.382327 -0.182441 -0.163588 0.158186 -0.208304 -0.248893 0.535352 0.038960 0.162067 -0.124241 0.264161
consists -0.355040 -0.534720 -0.207106 0.687545 0.034725 -0.332725 -0.204949 0.025074 0.235063 0.371005 0.642833 -0.121277 0.235503 0.400797 -0.441949 -0.279874 0.096012 -0.230204 0.481348 0.151664 -0.286837 0.129365 -0.067329 0.372803 -0.190454 -0.088039 0.269432 -0.226314 -0.335968 0.269418 0.015608 0.144039 -0.149853 -0.706817 -0.307561 0.148340 -0.073948 -0.403832 -0.003686 0.643012 0.423458 0.597870 -0.147901 0.461609 0.629829 -0.049500 -0.700515 0.574912 0.757703 -0.007714
cyclops 0.172936 -0.013609 0.108363 0.097740 0.135582 0.016623 0.373063 0.156199 -0.015265 -0.299027 -0.335285 -0.661671 0.565652 -0.007046 0.077082 -0.147133 -0.170929 -0.082017 -0.110326 0.253424 -0.175065 0.280305 -0.030317 -0.050303 -0.144239 -0.646429 0.302958 0.605316 0.617109 -0.145405 -0.150542 -0.584839 0.251616 -0.165942 0.293843 -0.372078 -0.258950 0.053005 0.226751 -0.090548 0.196153 -0.650525 -0.175804 0.259508 0.187087 0.084226 0.303497 0.511213 -0.257345 0.419874
east-west 0.131343 -0.039413 0.246092 0.066313 -0.114203 0.085016 0.314633 0.602790 0.141629 -0.357575 -0.247200 -0.721523 -0.041085 0.027262 0.222578 -0.082535 -0.010079 -0.009421 0.076183 -0.146903 -0.622055 0.149985 -0.016205 0.102271 -0.219983 -0.773879 0.244590 0.317247 0.415649 0.137304 0.293833 -0.604161 0.350705 -0.030800 0.163173 -0.533844 -0.436522 0.351735 0.144641 -0.142902 0.363358 -0.377360 -0.438224 0.436494 0.101493 -0.640197 0.389595 0.281490 0.021148 0.365321
enter 0.064209 -0.288043 0.222749 0.698386 -0.194381 0.198167 0.430874 -0.047756 0.178905 -0.337200 -0.288992 -0.406849 0.506713 0.104751 0.172881 0.084701 -0.218782 0.156988 0.050232 -0.065401 -0.238900 -0.104726 -0.290813 0.269609 -0.040054 -0.184845 0.045552 0.401691 0.561223 -0.144926 0.367867 -0.285041 0.337851 0.108605 0.130028 -0.429774 -0.324291 -0.008112 -0.171580 -0.113585 -0.125072 -0.314764 -0.142492 -0.046232 0.282362 0.093883 0.082837 0.192087 0.094086 0.259319
lid 0.164295 0.235686 -0.016750 0.204422 0.045455 -0.191820 0.044070 -0.199036 -0.077048 -0.131186 -0.009568 0.177409 0.057538 -0.041672 0.340332 0.122848 0.105670 0.229181 0.015062 0.100147 0.249721 -0.291292 0.088618 -0.119874 0.053359 0.425013 0.078166 -0.184984 -0.443074 -0.011245 0.222527 0.284630 -0.455722 0.083350 -0.099551 0.216930 0.528197 -0.006667 -0.074020 -0.009331 -0.260849 0.104088 -0.024434 -0.507059 -0.074316 0.249254 -0.100619 -0.144834 -0.026572 0.012275
northwest 0.320631 -0.379624 -0.022397 -0.007006 0.153686 0.187267 0.290811 0.278483 0.050053 -0.253860 -0.221276 -0.576732 0.458510 -0.169779 -0.042701 -0.149156 -0.096885 0.171273 -0.019720 0.052119 -0.312906 0.241292 -0.117971 0.081074 -0.106397 -0.798417 0.116952 0.513048 0.451864 -0.001599 -0.080200 -0.679956 0.538260 0.040745 0.371407 -0.354507 -0.413327 0.214579 0.242139 0.182160 0.016449 -0.648390 -0.080356 0.231449 0.117248 -0.028594 0.472045 0.430389 -0.254258 0.397537
over 0.067884 -0.191496 -0.273813 0.148569 0.258545 -0.047934 0.161132 -0.122707 -0.076404 -0.041372 0.053072 -0.095991 0.308740 0.183008 -0.023382 0.077598 -0.076041 0.125357 0.157663 0.157329 -0.017090 0.047260 -0.125937 0.012234 0.023586 -0.220768 0.018092 0.035261 -0.098864 0.096485 0.027126 -0.060714 -0.107816 -0.224371 0.067461 0.059741 0.064153 -0.091197 0.096199 0.276956 -0.064413 -0.025946 0.032808 -0.114023 0.029754 0.218976 -0.142622 0.275651 0.215340 0.239422
pot -0.271132 -0.299949 0.567764 0.101748 0.131242 0.128715 -0.214201 0.476274 -0.273134 0.515853 0.214488 0.207682 -0.149160 -0.088211 -0.258478 -0.507031 0.255564 -0.670113 0.271069 0.052983 -0.233925 0.044035 0.463171 0.031047 0.023097 -0.231742 -0.395510 -0.675912 -0.262209 0.696031 -0.203511 0.451855 -0.103126 -0.140126 -0.190252 0.421275 -0.371500 -0.022480 0.248305 0.732400 0.219713 0.462429 0.038076 0.348848 0.752686 -0.745020 -0.270038 -0.075806 0.237018 -0.778774
providing -0.552859 0.544975 0.187634 -0.355410 -0.672714 -0.048121 -0.194691 0.215789 0.193142 0.215236 -0.204847 0.429926 -0.288405 -0.064750 0.014455 -0.300270 0.541694 -0.722981 -0.020415 0.026577 -0.428359 0.310729 -0.155789 0.123861 0.160933 -0.114351 -0.228301 -0.161365 -0.055498 -0.177966 0.016403 0.269932 0.362354 0.004252 -0.086438 0.127676 0.259604 -0.304245 -0.115951 -0.207031 0.164255 0.505982 -0.394883 0.171305 -0.092563 -0.420223 -0.099607 -0.172854 0.037480 -0.214486
sand 0.069724 -0.062689 0.011432 -0.325823 0.022061 -0.002258 -0.118046 -0.180058 -0.143028 0.016149 0.030768 -0.052524 0.066854 0.021866 -0.126643 0.249527 0.216714 0.215547 -0.059209 -0.038313 0.463899 -0.053315 0.312333 -0.036546 0.164330 0.239102 -0.067450 -0.067608 -0.210795 0.104688 -0.228590 -0.048108 -0.095429 0.071677 -0.078654 0.120247 0.133169 -0.095133 0.189206 -0.099842 -0.065565 0.133651 0.210850 -0.083970 -0.197725 0.474419 -0.127593 -0.122882 0.032486 -0.004559
sapphire-encrusted -0.223255 0.458798 0.234155 -0.600392 -0.576089 0.221739 -0.003891 0.259779 0.174379 0.003483 -0.438319 -0.268694 -0.220177 -0.154809 -0.006957 -0.088812 0.043435 -0.542264 -0.152912 -0.219828 -0.406077 0.242976 -0.004901 0.164662 0.456936 -0.495577 -0.262802 0.067617 0.353734 -0.162908 -0.241582 -0.276434 0.604135 0.139046 0.135413 -0.346009 0.108787 0.025119 0.214365 -0.372835 0.060268 0.251389 -0.462658 0.315296 -0.352017 -0.520857 0.432277 -0.085155 -0.128317 0.118627
southeast -0.137988 -0.115792 -0.201712 -0.088327 -0.010843 0.313646 0.361926 0.160785 0.139094 -0.241773 -0.261922 -0.333483 0.202626 0.150551 0.112818 -0.067668 -0.207706 -0.221158 -0.040923 0.075270 -0.527327 0.480790 -0.374381 0.130169 -0.016187 -0.890489 -0.020723 0.393973 0.788440 -0.158755 -0.048259 -0.399153 0.637838 -0.273207 0.403738 -0.344644 -0.320146 -0.114713 0.056875 -0.145903 0.159272 -0.435419 -0.107713 0.291519 0.158485 -0.236608 0.326093 0.337257 -0.138857 0.360061
that 0.007711 -0.253678 -0.020042 0.169098 0.041780 -0.088694 -0.073513 -0.061108 -0.019719 0.118499 0.058390 0.101260 0.113892 0.074507 -0.104719 0.057331 0.030014 0.035870 0.212819 -0.015953 -0.034387 -0.150066 -0.039622 0.146992 0.014654 0.132614 -0.037250 -0.075108 -0.192499 0.175147 0.094793 0.131494 -0.136412 -0.130014 -0.034977 0.103594 0.108870 0.037142 0.043747 0.349270 0.039186 0.184773 -0.000043 -0.039425 0.002053 0.036525 -0.327367 0.154747 0.219186 -0.014394
too -0.272063 0.532997 -0.293413 -0.110253 -0.308041 -0.167560 -0.238875 -0.227349 0.429285 -0.137956 0.367966 0.133840 -0.639227 0.436688 0.005649 0.270921 -0.073969 -0.201665 -0.189758 -0.063247 -0.069727 0.383083 -0.070930 0.029059 -0.061609 0.232588 0.139917 -0.133542 0.002256 0.017080 0.043260 0.253047 -0.157327 -0.060946 -0.130534 -0.101569 0.248703 -0.186377 -0.473312 -0.752522 0.296030 0.336356 -0.351910 0.014826 -0.126964 0.279400 -0.145118 -0.404195 0.144622 0.179529
wide -0.008125 0.103661 0.061070 -0.136056 -0.096936 -0.009146 -0.074578 0.077307 -0.018979 -0.061362 -0.030791 -0.245999 -0.000612 0.011432 0.059952 -0.041470 -0.044813 -0.105852 0.093331 -0.152643 -0.107649 0.107791 0.169460 0.105342 0.183020 -0.151971 -0.072202 -0.045900 -0.071405 0.099170 -0.048194 -0.019835 0.030582 -0.022493 -0.124280 -0.100107 -0.001170 0.132531 0.195472 -0.008663 0.074951 0.198392 -0.376789 0.213298 -0.187167 -0.205769 0.040935 -0.021657 0.010186 0.025752
3 0.258571 -0.249235 -0.052938 0.603234 0.137670 -0.156619 0.492858 -0.341396 0.142775 0.049752 0.100803 -0.188509 0.370614 -0.096242 -0.004318 0.504303 -0.090825 0.459660 0.117319 -0.165629 0.166502 -0.460121 -0.321671 0.352527 0.153155 0.478400 0.051832 0.150466 0.080195 -0.166455 -0.082175 -0.118832 -0.163742 -0.132381 -0.331503 -0.062483 0.174644 -0.148243 0.026421 -0.130103 0.040333 0.177005 0.309248 -0.357752 0.193101 0.445173 -0.353381 0.048918 -0.037248 -0.007783
bauble -0.306553 0.372414 -0.210740 -0.580142 -0.470702 0.106230 -0.035897 0.092118 0.197202 -0.000891 -0.060750 0.242663 -0.173135 0.149885 -0.163875 -0.008803 -0.042203 -0.104843 0.031883 -0.299914 -0.289875 0.410621 -0.145180 0.162820 0.170073 -0.277334 -0.277816 -0.079839 -0.045407 -0.136808 0.060330 0.236844 0.419969 -0.155159 -0.266434 -0.172428 0.048280 -0.168505 -0.027482 -0.153957 -0.037865 0.462058 -0.124790 0.356310 -0.382360 -0.264527 0.258620 -0.209605 -0.075924 0.014466
bloody -0.268920 0.622001 -0.042083 -0.640392 -0.685368 0.070704 -0.023898 0.178290 0.254356 -0.225540 -0.389068 -0.257235 -0.358297 -0.133615 0.199277 -0.087813 0.070576 -0.326731 0.059787 -0.267424 -0.470642 0.271512 0.011768 0.180499 0.399428 -0.488931 -0.110214 0.012661 0.110832 -0.187903 -0.041914 -0.151365 0.551696 0.085291 0.143757 -0.372950 0.443653 -0.089930 0.182441 -0.560848 0.009353 0.368793 -0.771748 0.161064 -0.571455 -0.393156 0.288454 -0.160399 -0.129679 0.335155
book -0.275592 0.403927 -0.082137 -0.309381 -0.391331 0.023289 -0.053998 0.016300 0.137230 -0.071079 -0.157279 0.228800 -0.096775 0.056239 -0.020214 0.039960 0.156305 -0.306612 -0.087911 0.007869 -0.230287 0.222263 -0.108992 0.053968 0.199570 -0.121292 -0.136339 -0.036813 0.076420 -0.013628 -0.103826 0.184595 0.129558 -0.097729 0.095838 -0.030349 0.295838 -0.123867 -0.100861 -0.206808 0.116425 0.281603 -0.227080 -0.090632 -0.181659 -0.028130 0.030040 -0.081366 -0.063213 0.049947
buoy -0.282506 0.373619 0.000294 -0.384792 -0.310751 0.083416 -0.121222 0.044309 -0.001685 0.004347 -0.139331 0.162329 -0.408064 0.079942 -0.013899 -0.020692 0.186200 -0.375066 -0.080184 -0.051158 -0.284093 0.161571 -0.041524 -0.015009 0.317510 -0.205988 -0.211278 -0.138684 0.018941 -0.131630 -0.023956 0.047325 0.161287 0.026078 0.096239 -0.063582 0.239447 -0.144013 -0.041966 -0.318809 -0.075867 0.258373 -0.197485 0.030546 -0.248082 -0.312523 0.086799 -0.159938 -0.006002 0.012938
clearing 0.178621 -0.458434 0.040905 -0.264025 0.132636 0.275618 0.099983 0.123626 -0.022088 0.063193 -0.181987 -0.377459 0.381379 -0.159002 -0.225245 0.034062 -0.095557 0.160637 -0.151526 -0.075094 0.022974 0.239848 -0.015892 0.130421 0.061017 -0.513271 -0.145445 0.307229 0.556510 -0.092213 -0.409757 -0.529184 0.727824 0.083624 0.124808 -0.200463 -0.407308 0.036623 0.413078 0.123209 0.028213 -0.454074 0.247171 0.432665 0.098594 0.101123 0.398261 0.087165 -0.404399 0.020066
dark 0.198642 -0.019345 0.265647 0.002667 -0.120059 0.015714 -0.225673 0.427348 -0.101808 -0.093522 -0.215254 -0.157796 0.124263 -0.527821 -0.062574 -0.432951 0.395930 0.008592 0.268006 -0.028346 -0.168462 -0.067956 0.204951 0.127420 0.028892 -0.155123 0.035117 0.136724 -0.215585 0.223963 0.164020 -0.159716 0.148276 0.288336 0.214091 -0.125320 -0.065753 0.409505 0.081715 0.296631 -0.193355 -0.041441 -0.347765 -0.079561 -0.026340 -0.224687 0.217068 0.201491 -0.139605 0.131514
darkness -0.075967 0.295060 -0.057471 -0.023512 -0.019377 0.077329 0.148896 0.015806 -0.020186 -0.039723 -0.199466 0.305643 0.107982 -0.361686 0.225232 -0.293120 0.073704 0.010806 0.073372 0.174490 -0.301099 0.069786 -0.304204 0.032253 -0.032755 -0.304836 -0.163285 0.187343 0.077219 -0.136964 0.200996 0.185937 0.138282 -0.012848 0.279788 -0.047895 0.208387 -0.058883 -0.231627 0.016784 -0.246964 -0.101591 0.080887 -0.482672 0.132231 -0.029461 0.365263 0.000709 -0.190225 -0.031664
descending -0.019869 0.376392 0.254144 0.047475 -0.019952 0.003023 -0.040647 0.228289 -0.190430 0.016179 -0.141262 0.223465 -0.086886 -0.511128 0.258032 -0.523525 0.208789 -0.161225 0.099008 0.219130 -0.184913 -0.001836 0.066586 -0.091248 -0.072575 -0.150235 -0.081264 -0.049371 -0.239248 0.121362 0.225848 0.208986 -0.202712 0.144120 0.171565 0.131513 0.253372 0.072174 -0.165581 0.034004 -0.139138 0.029976 -0.099381 -0.424073 0.279960 -0.204996 0.360943 -0.051979 -0.184651 -0.211566
dome 0.087741 -0.106507 -0.005821 0.021956 0.097587 -0.009135 0.180789 0.021378 -0.000358 -0.099725 -0.099067 -0.323705 0.326429 0.056888 -0.020145 0.077296 -0.082058 0.036167 -0.052741 0.081610 -0.022949 0.128268 0.048721 0.009710 -0.049116 -0.214792 0.139070 0.098179 0.203395 0.091530 -0.123567 -0.220903 0.053627 -0.178581 0.059460 -0.059772 -0.037046 -0.053467 0.194765 0.066216 0.165240 -0.163396 -0.017226 0.119211 0.087256 0.075706 -0.000359 0.247308 0.018768 0.145689
edge -0.002373 -0.485342 -0.151322 0.149166 0.235297 -0.010382 0.179641 -0.028259 -0.057083 0.116898 0.061556 -0.183400 0.499446 0.136071 -0.228280 -0.008586 -0.047245 -0.018123 0.253403 0.156060 -0.238464 0.167198 -0.119696 0.249945 0.067570 -0.450941 -0.087769 -0.008465 -0.007833 0.261170 -0.080448 -0.069294 0.133376 -0.449159 0.026726 0.113775 -0.067253 -0.160370 0.278810 0.615354 0.085344 0.156860 0.008692 0.195235 0.178655 0.003533 -0.275675 0.475682 0.343514 0.125143
entrance 0.135093 -0.367281 -0.259347 0.155935 0.208799 0.125774 0.368282 -0.088010 0.163565 -0.167501 -0.071277 -0.307237 0.496206 0.068003 -0.024802 0.082375 -0.290901 0.150945 0.086942 0.091021 -0.235255 0.213318 -0.335788 0.172434 -0.086518 -0.562098 0.056647 0.462974 0.486281 -0.071135 -0.098368 -0.396705 0.424484 -0.206537 0.262955 -0.176081 -0.218633 0.008657 0.061766 0.234734 0.030012 -0.379744 0.012174 0.096571 0.100863 0.253462 0.105709 0.365103 -0.083991 0.339226
flood 0.058289 -0.262437 -0.162140 0.656440 0.270692 -0.119295 0.409204 -0.430530 0.009119 0.143620 0.221473 0.094349 0.127321 0.059379 0.079988 0.500093 -0.156212 0.273180 0.165995 -0.102323 0.108686 -0.470134 -0.441145 0.231701 0.065216 0.473311 -0.046682 -0.025269 -0.043909 -0.105431 0.058314 0.124566 -0.353635 -0.241929 -0.287967 0.099342 0.201697 -0.345477 -0.081263 -0.126225 -0.051925 0.233187 0.478289 -0.493073 0.298064 0.254037 -0.450006 0.022155 0.148378 -0.069294
great -0.033008 -0.043053 0.012814 0.127958 0.092952 -0.091271 0.021734 -0.036275 -0.025159 0.140688 0.152647 0.041940 0.047245 -0.047381 0.051801 -0.063540 0.176005 -0.003224 0.164312 0.152199 0.032736 -0.110097 0.180545 -0.056125 -0.051738 0.133421 0.001909 -0.251301 -0.305486 0.229354 0.047014 0.201452 -0.234736 -0.096199 -0.112921 0.224654 0.165937 -0.142090 0.050801 0.219834 0.013189 0.250556 0.033013 -0.123326 0.231408 0.004212 -0.239310 -0.010890 0.149087 -0.151292
head -0.007891 -0.304104 -0.361493 0.216398 0.012200 -0.330801 -0.338817 0.000690 0.046440 -0.142385 0.154560 -0.229652 0.252299 0.057623 -0.285042 -0.055233 0.099302 0.316476 0.148142 -0.024208 0.107614 -0.098788 0.012482 0.110270 0.002453 0.249713 0.305853 0.055602 -0.383721 0.107421 0.038594 -0.164524 -0.054671 -0.064626 -0.022526 0.021169 0.110823 0.069508 -0.091968 0.249785 -0.090994 0.253802 -0.229633 -0.040824 -0.178045 0.346144 -0.325935 0.349810 0.331991 0.414226
heavy -0.229616 0.326446 -0.283502 -0.073776 -0.264768 -0.160083 -0.151699 -0.194561 0.418043 -0.094332 0.246277 -0.010916 -0.315918 0.253802 -0.030338 0.157726 0.027571 -0.158959 -0.041393 0.004229 -0.159184 0.359620 -0.087394 0.194616 0.047884 0.067672 0.096910 -0.033659 0.022220 -0.002710 -0.001374 0.198551 -0.016113 -0.168767 -0.050677 -0.089867 0.305984 -0.225535 -0.300283 -0.548012 0.209601 0.344007 -0.412691 0.016662 -0.041122 0.299883 -0.169263 -0.218913 0.085293 0.219009
holding -0.006139 0.225540 0.218954 0.014154 -0.174358 -0.021640 -0.206604 0.151163 0.024030 -0.054597 0.105363 0.051209 -0.348321 -0.097345 0.091481 -0.069677 0.107361 -0.065488 0.035507 -0.137770 0.003763 -0.085022 0.293030 -0.051904 -0.051037 0.274809 0.065926 -0.239836 -0.250297 0.173689 0.166036 0.126277 -0.192162 0.273672 -0.215206 -0.044605 -0.016199 0.257580 -0.110349 -0.161504 0.042502 0.186631 -0.259405 0.039779 -0.096276 -0.256883 0.029869 -0.229176 0.036117 -0.125428
hot 0.019044 -0.139956 0.030974 0.010656 0.039862 -0.009656 -0.000764 0.066354 0.017787 0.178530 0.295635 0.003431 -0.002520 0.155555 -0.131420 -0.081845 0.019585 -0.061021 0.163231 -0.117141 -0.061585 0.123546 0.167140 0.059981 0.014590 -0.052747 -0.096037 -0.328946 -0.291369 0.203583 0.029207 0.248205 -0.144294 -0.227314 -0.262667 0.120478 -0.067783 -0.089844 0.110897 0.356709 0.118087 0.377755 0.062535 0.274286 0.070725 -0.108110 -0.156444 -0.068071 0.257195 -0.206027
label -0.135678 0.249463 0.187973 0.001979 0.192202 0.014063 -0.085507 0.053399 -0.305311 0.246989 -0.237081 0.449195 -0.170697 -0.344681 0.236423 -0.372916 0.224941 -0.002900 0.176648 -0.023639 0.041558 -0.203780 0.125144 -0.159334 0.237877 0.238293 -0.246084 -0.298200 -0.403346 0.066591 0.236995 0.408169 -0.188154 0.102406 -0.165801 0.385760 0.235596 0.022705 -0.087284 0.166858 -0.277323 0.303272 -0.114854 -0.299139 -0.049025 -0.287717 -0.019383 -0.362098 -0.099107 -0.523504
nasty -0.368445 0.001951 -0.312181 0.040012 -0.452592 -0.300638 -0.245253 -0.045080 0.491883 -0.031078 0.146701 -0.416782 0.068065 0.136051 -0.211968 -0.084675 0.152083 -0.154538 0.219897 -0.096832 -0.256463 0.198305 -0.076009 0.431113 0.117854 -0.100820 0.336719 0.127145 -0.074018 -0.117709 -0.049992 -0.202098 0.258644 -0.323964 0.081956 -0.111731 0.294389 -0.214548 -0.055505 -0.226590 0.285604 0.414072 -0.680578 0.403581 -0.032981 0.139469 -0.357402 0.296993 0.381778 0.611892
pile -0.037043 -0.237124 0.218614 0.021262 -0.026718 0.006217 -0.032870 0.209936 0.038861 0.202777 0.224802 -0.360878 0.159446 0.121299 -0.268131 -0.045929 -0.033857 -0.222402 0.148812 -0.050947 -0.152056 0.230396 0.285710 0.217712 0.044696 -0.304020 -0.044984 -0.191292 -0.071373 0.371621 -0.183102 -0.081225 0.072543 -0.252438 -0.254934 -0.019839 -0.152756 -0.059792 0.337578 0.340917 0.403881 0.372796 -0.180327 0.569574 0.243330 -0.253168 -0.150879 0.185626 0.268069 -0.100353
pump -0.378347 0.356812 -0.097286 -0.409471 -0.299096 0.202503 -0.058495 -0.016941 0.136425 -0.047764 -0.258420 0.271477 -0.322100 -0.049397 -0.005281 0.025379 0.152026 -0.433166 -0.162990 -0.006151 -0.310785 0.196512 -0.327903 0.015959 0.251111 -0.272103 -0.209001 0.105235 0.398787 -0.265129 -0.155746 -0.070551 0.379936 -0.060196 0.450974 -0.119897 0.074348 -0.157375 -0.145453 -0.360636 -0.055053 -0.026105 -0.136744 -0.115503 -0.183852 -0.127163 0.111334 -0.050411 -0.081321 0.166006
red 0.071189 0.127737 0.146472 -0.151343 -0.197759 -0.036237 -0.013461 0.165601 0.035727 -0.119364 -0.045776 -0.354717 -0.045745 0.000255 0.034483 -0.064779 0.130330 -0.102379 0.111829 -0.101934 -0.188909 0.142426 0.187580 0.078769 0.258580 -0.268588 -0.009859 -0.062904 -0.175399 0.088232 0.052895 -0.129315 0.011996 -0.008228 -0.034918 -0.163676 0.124215 0.086217 0.234815 -0.066519 0.036193 0.233060 -0.413774 0.210303 -0.240099 -0.194818 0.104452 0.067121 0.102947 0.191103
