the -0.519662 -1.337978 -0.738794 1.874604 -0.508116 0.874156 -1.205676 1.088010 0.097254 1.319844 -0.014955 -0.320796 -1.121731 1.622348 -1.724521 2.012877 2.008145 0.097338 1.292640 -0.566742 -1.727188 -0.815750 -0.542741 0.177615 -1.188673 0.247102 -0.295409 0.456833 1.356813 0.322694 -1.651955 0.842910 0.834851 0.097240 0.099751 -0.208544 -0.847801 -0.279497 -0.516640 -1.006234 0.792555 -0.555321 0.734429 0.440265 0.585921 -0.672324 0.073408 -4.409628 -1.065791 -1.444563
a 0.588131 0.062390 -1.143751 -0.244667 0.760497 0.276395 -0.798946 0.141208 -1.081855 0.455464 -1.789411 0.339595 -0.218979 2.419365 -0.094685 0.594700 0.409248 2.420608 0.749499 0.305079 -0.384985 0.349235 -0.174810 -0.178387 -0.042779 1.211749 0.598011 0.872790 1.180748 1.411340 -0.500058 0.788769 0.209123 0.161130 -0.942172 0.728180 -3.474903 -1.264186 1.208409 -1.843228 0.203297 1.290977 0.325278 0.708858 1.235958 -0.298795 -0.956928 -1.884994 -1.638406 -0.356008
you -0.341097 0.111987 -1.654789 0.364599 0.126996 0.428059 -0.931391 -0.542481 0.361175 1.034772 -0.451759 0.476808 0.448050 2.290489 -1.789666 2.166475 0.305385 -1.424532 0.361066 -0.033692 -1.343874 -0.293194 0.818174 -0.222768 -0.818307 0.395483 1.135072 2.338395 -0.359310 0.238601 -1.246889 1.602235 1.180531 -0.433991 0.207934 -0.623152 -1.619293 -0.920264 1.018086 -1.478206 0.495710 0.384478 1.101926 -0.403582 -0.241898 -0.807210 -0.530714 -0.096612 -0.934573 -1.955871
of -0.458946 0.896294 -0.996699 2.008014 0.605817 -0.536269 0.334902 1.173268 -2.073502 0.680346 -2.023940 -0.791586 -0.351604 1.860613 -0.735310 0.813969 1.381394 1.668172 0.702736 1.044824 -0.179165 -0.754696 -0.042056 0.244717 -0.925020 -0.888830 0.874472 1.322002 -1.813256 0.733368 -2.984770 0.109117 0.110987 0.426092 0.506258 0.945403 -1.874223 -0.365344 1.300649 0.219167 1.193659 1.012488 1.145580 0.036801 -0.813946 -0.578537 0.562041 -2.565426 -0.576973 0.457085
to 0.096971 1.274448 -1.056004 2.216922 0.759328 -0.018203 -0.116259 0.103660 0.748925 -1.251502 0.010355 -0.378252 -0.979212 2.775002 -0.081452 0.934733 1.965787 -1.048683 -0.246558 0.115748 -1.834046 0.548913 0.039200 0.988413 -0.023930 1.430287 -0.245796 0.442329 0.543647 0.439888 -0.387266 0.360303 0.823868 -1.275931 -0.727726 1.406618 -2.280219 -0.883834 -0.273538 -2.155396 1.615199 -0.904442 1.274942 0.244860 -0.129808 -0.438976 -0.539075 -1.078907 -0.544496 0.161424
and 1.122529 -0.124803 1.058612 0.778757 0.031812 -0.552141 -0.091845 0.823718 0.379727 -0.584245 0.108381 0.535063 -0.682783 1.659563 -1.409274 0.323832 0.958666 0.045225 1.851611 -0.950953 -2.229317 -1.482519 -0.464130 -0.203135 0.525070 0.669840 2.098301 0.763792 0.346480 2.113446 -2.465497 0.658442 0.332124 -1.066423 -1.540364 0.253470 -0.453970 -0.418612 1.187888 -1.045633 0.345886 1.286400 -0.155426 0.860143 -0.455243 -0.452885 -0.952876 -1.696884 -0.408900 -0.965279
is -0.616558 -1.041599 -1.439369 1.110652 -0.484051 -0.452327 -1.004390 0.398858 -0.507605 -0.377878 0.252210 0.201110 0.576609 2.662872 -0.627512 0.175958 0.118788 1.662625 0.667314 -0.836855 -1.018756 0.878152 -0.977464 -0.022523 -0.637097 1.088585 1.344947 0.257193 1.007721 1.357254 -1.314509 0.268485 0.211887 -0.263075 -0.148358 0.261840 -1.454384 0.353860 -1.674017 -1.386452 1.902634 2.212117 0.125014 0.153714 -0.592676 -0.624636 1.032236 -1.261291 -1.891360 0.037854
in 0.256145 -0.125333 -1.497905 0.267707 -1.038119 1.288164 0.339191 0.457221 0.758979 -0.235469 -0.620263 0.901487 -0.823934 2.187948 -0.847485 0.847823 0.901437 2.027025 0.249068 -0.128120 -1.104879 -1.036485 -0.934863 0.048645 -0.583227 1.206765 1.416871 0.374104 0.122692 -1.278471 -0.946352 -0.485969 1.269711 -0.408711 0.086274 -1.087404 -1.024410 -1.242071 0.611954 -0.392864 0.326542 0.809044 0.800140 -0.799127 -0.793066 -0.290521 -0.759416 -1.573679 -2.002199 -0.318598
on 0.208703 -0.589470 -1.497390 -0.018833 -0.038987 0.418926 -1.190708 1.409710 -0.975400 0.129029 -0.165613 0.320367 -0.386051 0.794470 -1.595256 1.256631 0.436056 0.347763 -0.347350 0.202626 -1.725187 -0.255702 -0.204845 1.783386 -0.761380 1.295416 0.567031 0.519342 -0.486631 0.826090 -0.909618 0.748309 -0.429793 -0.223683 -0.092675 -1.035652 -1.972405 0.816892 0.487091 -1.656781 0.210471 0.315338 1.171223 0.029527 -0.118012 -0.309125 -0.456088 -1.020186 -0.398615 0.998248
your 0.255413 -0.057515 -1.101167 1.542974 -0.251055 0.791494 -0.041178 -1.328810 0.176239 0.341523 -0.346544 0.042900 -0.408828 1.211829 -1.601732 1.486690 0.966272 0.315058 -0.271629 -0.304507 -0.897502 -0.009687 -1.062036 1.115749 0.466662 -0.026234 -0.794605 1.067286 -1.358510 -0.359126 -2.350461 0.986908 -0.235695 -1.159992 -0.432224 0.882184 -0.886722 -0.313749 0.330663 -2.530189 -0.834035 1.867785 -0.292818 0.079201 -1.312191 -1.891252 -0.308606 0.097781 -0.684587 -0.593433
here -0.997898 0.504590 -0.249166 -0.097354 0.139692 -0.254386 -0.777563 0.100591 -0.304343 -0.809232 0.068947 0.648429 0.524214 1.172228 -0.507568 0.488787 0.998760 1.466537 -1.011349 -1.583036 -0.809158 0.042576 -0.315646 0.485782 -1.179485 -0.025651 -0.633002 0.683187 -0.633513 1.476776 -0.158128 0.348879 0.810149 -0.668805 -0.163951 -0.710004 -1.461911 -1.339110 0.682125 -1.024480 1.842991 1.375325 -0.362667 0.155026 0.035241 -1.679614 -0.320938 -1.203614 -1.965188 0.242901
are 0.611323 -0.257510 0.657078 -0.560262 -0.577012 -0.377177 -0.533804 0.375309 -0.302742 0.597996 0.624976 1.401975 -1.014004 2.591211 -0.573763 1.012219 0.533384 -0.003205 -0.693209 0.059230 -0.874585 0.068133 -0.821181 0.060574 -1.483381 1.045412 1.143702 0.863575 -1.482048 -0.747702 -1.440752 0.601484 0.579668 -0.521789 -0.677126 -0.061089 -1.987281 0.644669 0.406658 -0.633654 1.660604 0.509496 0.180227 0.243402 -0.889462 0.057143 -0.077964 -0.794183 0.191476 -0.517276
it 0.543372 -0.443402 -1.094004 0.938625 0.543179 0.374639 -0.657591 0.117785 0.924270 -0.871005 -1.273179 0.826994 -1.051882 1.332298 -0.764903 -0.493507 0.966129 0.272950 0.854280 -0.014608 -2.199004 -0.776295 -0.051944 0.888666 -0.259718 0.185518 0.765966 1.575318 -0.060315 0.873907 -1.720411 0.219194 0.494307 -0.255882 0.626488 0.555876 -0.687628 0.790344 -0.170745 -1.355542 0.004613 0.293480 0.539803 0.099199 0.561979 -0.208523 0.757949 0.393599 -1.342664 -0.539607
north 0.026342 1.316750 0.232029 0.078624 0.001928 0.560938 0.722263 0.585900 0.733048 0.147192 -0.694671 0.291441 0.193879 1.205867 -1.721037 1.206693 0.318859 1.708947 -0.032830 -0.589071 -0.978404 0.567327 -0.338924 -0.116077 -0.487475 0.856876 1.089768 1.279689 -0.212011 -0.129838 -0.412781 1.065241 0.311360 -0.041973 -0.633225 -0.055072 -1.610389 0.247565 -0.398853 -1.268192 1.245121 0.453615 1.122372 -0.188545 0.321992 -1.213684 0.403068 -1.182166 -0.149240 0.351109
west 0.144256 1.460771 0.270422 0.001651 0.408582 0.993839 0.342424 0.630907 1.185146 0.197302 -0.220103 0.312832 0.585031 1.484388 -0.550420 0.929507 0.571009 1.505791 0.264383 -0.286050 -1.032798 0.401876 -0.625814 0.178094 -0.216562 1.082506 0.879578 1.643153 -0.319545 -0.578740 -0.653483 1.053318 -0.455560 -0.268893 0.060237 -0.463690 -1.373370 -0.202554 -0.834563 -1.327134 0.783845 0.357573 1.449825 -0.033342 0.551737 -0.960498 -0.087082 -1.964598 -0.267231 -0.259290
up 0.337541 1.884248 -0.644959 -0.115759 0.917606 0.853859 0.204441 0.488036 0.476882 0.087110 0.010593 -0.295024 -1.525399 0.810896 -1.525804 0.846814 0.440139 -0.048766 1.062602 -0.068316 -0.454136 -1.159133 -0.568917 1.040957 -1.343619 1.504670 -0.090213 1.309840 -0.136511 1.373056 -0.721247 1.215882 -1.132311 -0.373124 0.487218 0.661344 -0.995119 0.897445 0.229321 -0.987584 1.149265 0.460025 -0.612470 -0.091230 0.025964 -0.386219 -0.492850 -0.948837 -1.636979 -1.215265
south -0.171617 1.449268 0.303897 0.150820 0.111472 0.559013 0.626117 0.919243 0.899283 -0.024604 -0.411068 0.376765 0.404520 1.396412 -1.425078 0.912811 0.347525 1.333695 -0.106974 -0.587136 -1.247443 0.462222 -0.309631 -0.290269 -0.427882 0.615733 1.142429 1.323956 -0.415751 -0.096225 -0.368214 1.042059 0.136124 -0.274805 -0.593130 -0.322962 -1.275756 0.179226 -0.673218 -1.143447 1.105762 0.315629 1.193214 -0.215080 0.642687 -1.275752 0.390910 -1.550491 -0.141429 0.403362
east 0.170428 1.271688 0.331823 0.168930 0.629194 1.039101 0.496841 0.653496 1.182915 0.276452 -0.167541 0.630735 0.738074 1.500570 -0.521606 0.859252 0.532097 1.672694 0.129246 -0.265224 -1.004355 0.380855 -0.578531 0.180326 -0.188086 0.941779 0.691323 1.484295 -0.409793 -0.724401 -0.512299 1.288648 -0.353768 -0.124655 -0.516623 -0.644494 -1.479063 -0.058397 -0.990008 -1.565553 0.733936 0.530451 1.075709 -0.258801 0.150805 -1.092322 0.263715 -1.999393 -0.397893 -0.220137
with 1.034391 0.303664 -0.285053 0.323812 -0.258064 0.874935 0.078653 1.596785 -0.221739 -0.781732 0.940329 0.912285 -0.387334 2.486224 -0.167343 -0.389951 -0.398671 -0.082804 -0.572249 0.682633 -0.511860 -0.702050 -0.351975 0.099309 -1.159892 0.261404 0.622792 0.268227 0.548671 0.564213 -1.615509 0.738613 0.135955 -1.373569 -0.294281 0.914798 -1.239651 -0.051665 0.044175 0.484821 0.065525 0.100576 -0.305820 0.201750 0.211172 -1.002123 0.893627 -0.686087 -1.161587 0.409818
room 0.518355 0.702339 0.094241 1.240207 0.672789 1.081904 -1.135911 1.203579 0.750058 -1.027385 -0.261690 -0.333431 0.811751 2.306505 -0.753427 0.290812 0.720503 1.993222 -0.289421 -1.118460 0.728687 0.305364 0.155626 0.757581 0.491331 0.742576 1.174177 0.728385 0.561908 -0.185854 -0.830941 -0.052967 -0.222153 -1.361922 0.716647 -0.362762 -2.005996 0.830653 -1.167932 -0.429481 1.017577 0.322989 1.577647 0.473609 -0.597806 -1.982713 -0.228380 -0.986931 0.246326 -0.514820
can -0.199024 0.239756 -1.295486 -0.351319 0.329920 -0.180058 0.728590 0.422815 -0.061270 0.157187 0.580149 -0.332754 0.941810 2.160936 -1.136513 0.845895 1.138272 0.646729 1.338731 -0.071649 -0.781221 -0.238437 -0.061473 0.784841 -1.513985 -0.305536 0.375963 1.347665 -0.295894 0.283763 -0.279506 1.028549 0.171926 -0.863887 -0.336214 -0.402378 -1.074944 -0.924596 0.737069 -0.998716 0.696317 0.991802 1.043426 -0.975648 0.517325 -0.871252 -0.347968 -0.188094 -0.029866 -0.539313
there -0.802956 0.670647 0.087914 -0.183885 -0.334667 -0.612685 -1.383148 0.466859 -0.509107 -0.631647 0.204828 0.090597 0.367128 1.793034 1.036890 0.485590 0.289099 1.088823 -0.969017 -0.775324 -0.442245 0.115326 -0.703712 -0.514147 -0.946161 0.532763 0.712533 1.279677 -0.734035 0.741206 -0.714322 0.196797 0.643991 -0.800557 0.285285 -0.137395 -1.373591 -0.125619 -0.526829 -0.763087 1.971663 1.328974 0.446709 0.323195 -0.449993 -0.353458 0.082076 -1.138953 -1.040022 0.253821
from 0.098620 -0.380761 -1.346097 -0.315393 -0.572559 0.423513 0.547636 0.529126 1.129459 -0.005134 -0.919646 -0.515364 -1.327035 1.370050 -0.381330 0.477466 0.057924 0.462184 0.412564 -0.949890 0.050729 -0.947447 -0.532672 0.529131 -0.381509 -0.184057 -0.347669 1.103477 -1.032629 0.417919 -2.098740 0.098246 0.510733 -0.946375 -0.500758 1.089004 -1.249239 -0.719541 -0.558787 -0.965617 1.420301 0.200586 0.420893 0.025980 1.068223 0.246105 0.730526 -1.028802 -0.473866 0.198616
by -0.681642 0.059202 -0.465610 -0.726376 0.172580 0.426968 0.549080 -0.248447 -0.854300 0.405495 0.204226 0.188809 -1.222413 2.217903 -0.817230 0.913335 0.890979 1.153615 0.217981 -0.055975 0.221313 -0.245911 -0.362383 1.270382 -1.063866 1.079843 1.212772 1.077033 -0.080537 -0.028720 -0.717569 0.604801 -0.710154 -1.111122 -0.680985 1.396631 -0.869074 1.195080 -0.985006 -0.418384 0.768972 0.446591 -0.919926 0.145413 -0.052157 -0.617248 0.004248 -0.373221 -1.683137 -0.484148
see -0.181064 0.403955 -1.062257 -0.407889 0.269877 -0.451917 0.431663 0.664157 -0.044067 -0.015227 0.513593 0.293948 1.213469 2.026177 -1.501513 0.373341 0.956368 0.683833 1.150913 -0.259367 -0.885736 -0.109179 0.085611 0.536660 -1.437406 -0.434880 0.444843 1.260573 0.045767 1.028378 -0.428762 1.163456 0.157446 -0.780708 -0.309642 -0.767550 -1.049069 -1.066179 0.991855 -0.695760 0.925317 1.197175 0.608490 -0.853297 0.338547 -1.045019 -0.744538 -0.367440 -0.228641 -0.334970
at 0.757071 0.432756 -1.147377 0.767844 0.524784 0.140902 0.417950 -0.102658 0.388816 0.543200 -0.364821 0.619414 0.505410 0.547029 0.347019 1.145390 0.252382 -0.546315 -0.651356 -0.170242 -0.493291 0.306414 -1.251003 0.076786 -1.105030 1.441013 0.362621 0.549210 -0.455475 0.491305 -1.966424 1.064064 0.859293 -0.342425 1.340079 -0.472554 -1.260607 0.997863 0.407185 -0.122622 0.901874 0.446249 -0.256462 1.070194 0.365153 -1.112906 -0.430348 -1.173529 -0.624717 -0.245274
this 0.008302 0.220268 -0.259099 1.495208 0.691514 0.281485 0.324019 0.368457 0.201382 -1.059024 -0.744798 0.327825 0.438796 1.215367 -0.027197 1.465860 1.416720 1.343481 0.744240 -0.895753 -0.561464 0.783601 0.222073 0.379546 -0.655190 1.020260 1.014210 1.287721 0.984772 -0.188285 -1.684087 0.227634 0.643744 -0.380325 0.220623 0.027485 -1.609959 0.627815 -0.326784 -0.961149 0.832671 -0.144953 0.321411 -0.089278 -1.033378 -0.885258 1.006480 0.175032 -1.145267 -0.715262
an -0.343197 0.067160 -1.342037 0.437356 0.438740 0.868437 0.115123 0.835503 0.133195 -0.032926 -0.022735 -0.604231 0.564567 2.210926 0.138722 0.474625 1.563907 0.991390 -1.309869 -1.593133 -0.662485 0.196127 -0.600110 1.062992 -0.638163 0.284887 1.342595 0.366279 -0.132720 -0.212477 -1.580594 0.559508 0.175900 -0.665219 0.770520 0.157555 -0.624905 -1.760881 0.027252 -1.675303 0.238384 0.532390 -0.629013 -0.850837 1.377167 0.749555 0.968566 -0.397999 -0.426800 1.203950
that -0.255239 -0.162499 -1.273866 -0.311872 0.737704 0.122914 -1.014793 -0.152764 0.906355 0.606653 -1.076952 0.691336 -0.370306 0.867797 -0.180564 1.026483 1.350966 0.999666 0.902077 -0.558302 -0.850413 -0.868256 0.369091 0.111400 -0.558924 -0.991283 0.527006 0.691128 0.426393 -0.103139 -1.727518 -0.198428 1.782446 -1.166476 -0.030973 -0.072896 -1.803252 0.336783 -0.151558 -0.451365 0.878864 -0.197075 -0.072492 -0.619117 -0.272181 -0.266887 -0.953475 -0.253330 -0.855531 0.663158
into 0.192580 -0.229639 -0.954028 0.451350 0.457092 1.319266 -0.127198 0.633212 0.192856 0.057668 -0.899344 -0.265054 -0.563379 0.635502 -1.671357 -0.217947 1.246453 0.720502 -0.253397 0.199680 -0.688147 -1.580842 -1.174706 -0.476358 1.127118 -0.164400 1.251114 0.804344 -0.146146 0.127711 0.071145 0.568842 0.702733 -0.934698 0.723019 0.196459 -1.453453 0.495993 0.252532 -1.243449 0.680264 0.473314 -0.212592 -0.661747 0.845536 -1.411421 -0.639732 -1.747803 0.128830 -0.484816
as 0.036625 -0.625940 -0.828986 -0.016223 0.302566 -0.297692 -0.048591 -0.874780 -0.231095 -0.354305 -1.329251 0.236256 -0.515030 0.681104 -1.068877 -0.593868 0.661322 0.689923 -0.855935 0.077815 -1.929673 -0.533656 -0.093696 0.559070 -1.151292 0.222971 0.513545 0.982028 -0.258491 -0.616052 -1.278845 0.879890 1.274162 -0.735685 -0.104470 1.057625 -0.410664 0.176038 -0.222948 -1.295203 -0.513220 1.359397 1.095620 1.244636 0.544205 -0.559957 0.161631 -0.303254 -0.894330 -0.630143
has -0.331404 -0.145820 -0.033692 0.316951 -0.052317 0.123577 0.118793 -0.128905 0.376043 -0.054198 -0.120021 0.163718 -1.464189 1.491930 -1.070052 1.192851 1.570983 1.288003 0.411084 -0.806951 -0.030891 -0.062971 -0.234651 1.427176 -0.654838 0.549049 -0.008195 0.281807 -0.516733 0.665103 -1.207739 0.675298 -1.179908 -0.583196 0.139570 0.746132 -1.039044 1.036181 -0.566576 -0.781546 -0.211170 0.416939 -1.138402 -0.318810 0.253248 -1.250395 -0.375437 -0.158786 -0.936989 -0.347954
which 0.188341 -0.965892 -1.022847 0.222953 0.094678 -0.181386 -0.276038 0.493331 1.315937 -0.206479 -0.701750 0.267227 -0.352563 1.532553 -0.365185 -0.215598 1.150538 0.477084 0.322189 -0.612218 0.177542 -0.381860 -1.451070 0.426204 -1.184341 0.491295 0.061339 0.613389 0.144333 1.194907 -0.413217 0.658763 0.642273 0.395499 -0.027576 -0.585498 -2.378439 0.974126 0.447243 -0.954067 0.319387 1.021239 -0.049001 -0.348407 0.315372 -0.049193 1.281641 -0.450922 0.237388 0.171464
out -0.017288 -0.147046 -1.362066 0.267444 1.491652 -0.636445 0.211527 0.733843 0.395594 -0.552934 -0.717709 -0.420543 -0.554211 0.779726 -1.041716 0.286882 0.081550 -0.785378 0.844815 -1.317667 0.816939 -1.149448 -0.907387 0.530469 -0.361752 -0.027610 0.493608 1.719543 -0.807454 0.475717 -1.314160 0.541472 0.171079 -0.260732 0.035738 0.993778 -0.361923 0.412378 -0.329380 -1.614652 1.033170 0.270505 0.986284 0.022552 0.191480 -0.917334 -0.735833 -1.388817 -0.718425 -0.213996
just -0.067051 0.476859 -0.793641 -0.020644 0.976027 -0.291115 -0.063406 -0.604464 0.673040 0.451357 -0.686976 -0.099239 -1.272387 1.665545 -1.445038 1.044274 1.196863 0.818159 0.083540 -0.004119 0.012477 -0.388280 -0.247696 1.647387 -0.797293 0.295372 0.089425 0.932994 -0.778859 0.113978 -0.756978 0.967029 -1.147850 -1.049796 0.611666 0.809400 -0.761377 0.627699 -0.202394 -1.037815 0.160007 0.970418 -0.411261 0.161015 -0.271684 -0.969631 0.078224 -0.218349 -1.086937 -0.643913
down 1.123658 1.789093 -1.061835 -0.353223 0.858762 0.566969 0.234210 0.689449 0.378010 0.047788 -0.064690 -0.798229 -0.740166 0.086475 -1.289730 0.741918 -0.340776 0.162521 0.288542 -0.035935 -0.903861 -1.068286 -0.478393 -0.194291 -1.176234 0.969299 -0.152051 1.300969 0.144362 0.110899 -0.854004 0.971858 -0.167589 -0.277424 0.505847 -0.389386 -0.931474 0.269995 -0.422529 -1.412322 1.578338 0.690722 0.215967 -0.874865 0.287803 -0.561852 -0.010337 -0.554467 -0.582540 -0.232331
get -0.360821 -0.391470 -1.041048 0.177197 0.017474 0.284424 -0.043479 0.347559 -0.770753 -0.641673 -0.463761 0.152338 -0.771029 1.463971 -0.776661 0.365566 0.565707 0.110441 -0.116310 0.035732 0.272288 0.347267 -0.590236 0.130606 -0.318749 -0.858299 1.036113 1.441519 -0.532377 0.881408 -0.232684 0.879325 -0.479386 -0.169348 1.193394 -1.119462 -0.240805 0.098668 0.164343 -1.268021 1.335469 0.594007 -0.121125 -0.130887 0.531276 -1.896758 -1.180755 -0.477531 -1.785019 -0.234216
for 0.224743 0.316695 -0.674236 1.373616 1.397080 -0.504590 -1.206857 -0.465560 -0.009768 -1.123519 -0.533238 -0.321874 -0.474543 1.362671 -0.949919 0.351010 1.166613 0.501224 -0.268606 -1.175786 -0.332790 -0.049713 -0.155686 0.962824 -1.568763 0.385003 0.735643 -0.674451 0.497593 0.215034 -1.851474 1.044555 -0.018504 -0.082278 -0.400434 1.049446 -0.398999 0.697636 0.446061 -0.529841 0.608867 -0.405342 0.590695 0.598333 -0.641836 -0.089297 -1.213645 0.204392 -0.435705 0.059453
taken 0.352190 0.052767 -0.553319 -0.063186 -0.581439 1.172088 -0.488619 0.711765 -0.697064 -0.794373 -0.927503 0.370030 -0.457144 1.164002 -1.125608 0.459889 1.432086 0.814423 -0.404059 0.125603 0.539256 0.971088 -0.107851 0.439766 -0.250941 -0.121718 0.375765 1.070089 0.021631 0.715931 0.359683 1.537379 -1.127394 -0.662364 0.519115 -1.502141 -0.791203 -0.935333 -0.138722 -0.724398 0.940722 0.207729 -0.724802 0.618705 0.605554 -2.349625 -0.794153 -0.595173 -1.316312 -0.146756
open 0.419391 0.388990 0.294498 -0.510431 0.192616 0.045904 -1.114137 0.780048 1.340263 0.988356 0.511390 -0.182798 -1.278173 1.618072 -1.713891 0.547607 1.159190 0.011620 -0.908080 -0.307370 0.043596 0.087514 -0.301149 0.005056 -0.150997 0.520680 1.494935 1.510088 -0.028963 0.509154 -0.363257 1.041095 0.262055 0.463145 0.536482 0.496078 -0.174613 -0.743456 0.081568 -0.569349 -0.265461 0.634372 0.325388 -1.259467 0.893236 -0.161899 1.041245 -0.729542 -1.837139 0.407501
door 0.525118 0.757139 0.453294 0.172404 1.040464 0.128328 -1.117287 0.835771 1.361923 1.143679 0.132953 0.760340 0.007584 1.614005 -1.827577 0.294503 0.793619 -0.118620 0.160279 -0.197489 -0.718014 0.950607 -0.358367 0.222224 -0.173806 0.515095 1.004065 1.238861 0.296663 0.956797 -1.136730 0.213791 0.541432 -0.063888 0.205720 1.021622 -0.309376 -0.279356 -0.607859 -0.482933 -0.932627 0.694603 0.270048 -1.470921 0.170572 -0.192786 0.949132 -0.897391 -1.365192 0.582407
be 0.448857 0.137374 -0.475570 0.767921 -0.365465 -0.341669 -0.864863 0.396071 -0.320795 -0.838520 0.434351 0.540283 -0.790760 0.893766 1.146745 1.026496 1.470390 0.847519 1.093539 -0.039663 -0.993022 0.140652 -0.536202 0.781112 -1.168808 0.334963 0.727409 0.943535 0.037911 -0.278679 -0.665739 0.231268 0.742937 -0.416667 -0.245342 1.425001 -1.155189 0.053423 0.101400 -1.276933 0.679072 -0.292323 0.685336 -0.439531 -0.340904 -0.609587 0.242782 0.996418 -0.843203 -0.821362
i 0.042720 0.186261 -1.436142 0.273685 0.433026 -0.311420 0.008844 -0.478457 0.506021 0.110622 0.002216 -0.309614 -0.428336 1.040705 -0.273153 1.398230 1.048985 0.434573 0.467694 0.576067 -0.427862 0.047264 -0.453358 0.832798 -1.193264 -1.299407 1.087199 0.143125 1.588307 -0.361349 -0.875090 0.604292 0.920070 -0.899413 1.307132 -0.371256 -0.415161 0.260812 1.590785 -0.061810 1.248498 0.902128 1.034418 -0.507065 0.264165 -0.366266 -0.617973 0.872888 -1.408639 0.416043
but 1.051556 -0.222391 -0.297107 -0.260217 0.485622 -0.634192 -1.057271 -0.465767 0.103788 -0.475887 0.352354 0.148015 -0.020639 1.289505 0.286974 1.142925 0.984098 0.170090 0.315975 0.324311 -1.390817 -0.303760 -0.684271 -0.205538 -0.677161 -0.222781 -0.164006 1.179808 0.863919 -0.145731 -2.160901 0.591078 0.858312 -0.863027 0.283362 0.389503 -0.493948 1.067608 -0.234912 -0.828147 0.364615 0.609458 0.317374 -0.193791 0.359715 -1.212219 -0.335604 -0.419637 -0.426654 -0.332901
one -0.200230 0.255955 -0.497803 0.472404 -0.019922 0.390476 0.532570 0.109440 -0.087106 -0.508540 -0.210321 -0.243307 0.268103 1.263846 -0.417087 0.465216 1.181242 0.897473 0.378648 -0.108025 -0.905817 0.159591 -0.874320 1.391863 -0.493114 0.841055 0.395586 0.472815 -0.478682 0.823876 -1.329696 -0.495541 -0.101344 -0.921087 0.719559 0.952458 -0.204400 1.246756 0.617063 -0.423425 0.245207 0.133948 -0.005149 -0.276094 0.698101 -0.626441 0.064971 -0.183128 -1.069702 0.021572
now 0.608941 0.442730 -1.156748 -1.228354 1.272808 -0.305773 -1.019972 -0.029879 -0.599104 -0.241889 -0.713357 0.659960 -0.910477 0.697042 -1.292687 0.462842 0.730320 -0.032440 1.053636 -0.693587 -0.521008 1.497704 -0.306322 0.222975 -0.649218 -0.291237 1.008405 0.530963 -0.014515 0.397920 -1.027547 0.099500 0.188894 -0.834489 -0.242133 -0.130545 -0.029593 0.150474 -0.708227 -0.942181 1.812722 -0.163006 -0.301143 -0.082956 -0.238440 -0.707148 0.645263 -0.961155 -2.199900 -0.500979
time 0.419883 0.220771 -0.854556 0.178114 -0.702875 1.053454 -0.038722 -0.072867 0.177241 0.429128 -0.913417 -0.448324 -0.790430 0.453618 -0.062726 0.899234 0.868577 1.147857 0.414514 -0.359986 -0.730993 0.971907 -0.724018 0.212270 -1.440432 0.365792 0.662880 0.414937 -0.492270 0.668315 -1.488660 0.569466 0.739789 -0.335542 -0.095000 1.456930 0.271938 -0.555952 -0.150885 -0.819158 0.816842 -0.889502 1.619747 1.471245 1.043131 -0.586153 -0.545510 0.824379 -0.259958 -0.853009
wall -0.142296 0.460089 -0.782680 -0.594202 0.140924 1.375390 -1.038890 0.729873 0.822709 0.238033 -0.316883 0.476734 0.952707 1.375665 -0.714660 0.086318 0.665723 0.809077 0.863819 -0.418660 -1.395546 0.278480 -0.746004 0.755046 0.746115 1.179441 0.921870 0.825890 -0.593509 1.252011 -0.619155 -0.988277 0.234377 -0.880558 1.052587 0.336299 -0.800685 0.563238 -0.194036 -0.415500 0.388112 -0.255698 0.946138 -1.312393 0.455562 -0.272236 0.573687 -0.857557 -0.373375 0.596371
small 0.657777 -0.200162 -1.422678 0.227072 0.345411 0.376818 -0.229258 1.060251 0.415501 -0.438621 -0.773380 -0.275660 -0.326418 1.795325 -0.847852 -0.364613 0.591915 1.888317 0.185281 -0.332731 0.449630 0.292339 -1.360610 -0.004439 -0.895237 0.932506 0.235890 -0.278357 -0.453465 0.522928 0.119239 1.053804 -0.307302 0.898390 -0.045776 -0.569487 -1.353876 0.440711 0.041585 -0.561784 0.030260 -0.112200 0.915525 -0.759864 0.412602 -0.563409 -0.110394 -0.993041 -0.501189 0.139173
have 0.132597 0.733380 -0.219947 -0.039591 -0.059024 -0.907630 -0.352502 0.236479 0.093234 -0.798795 -0.871989 0.537443 -1.500409 0.745997 0.433341 1.714541 1.972332 0.067321 0.623342 -0.398363 -0.575138 -0.202232 0.261913 0.209781 -0.847669 -0.409579 1.069927 0.965177 0.034144 -0.101627 -1.325404 -0.429880 0.900960 -0.066593 0.670242 0.930997 -0.852356 0.805677 0.575902 -0.996300 0.739824 -0.809228 0.224972 -0.663316 0.360908 -0.467712 -0.714676 0.509419 -0.709290 0.248453
large 0.475706 0.771146 0.587172 -0.075803 -0.167776 -0.098923 -0.781794 1.291704 -0.304377 -0.101256 -0.626138 0.586667 -0.151522 1.124918 -1.091755 -0.218944 0.445577 1.158220 -0.150237 -0.741377 0.188142 -0.224359 -0.504924 0.970858 -0.914361 1.330481 0.333294 0.291403 0.820069 0.405285 -0.675422 -0.107149 0.194493 -0.032650 0.028126 0.130621 -1.582923 0.141957 1.072558 -0.238672 0.516125 1.020721 -0.137416 -0.588670 0.089484 -0.078664 -0.081200 -0.726216 -0.351321 -0.080641
score -0.301114 0.676260 -0.278226 0.065635 0.379327 0.586637 0.331632 -0.968347 0.817070 0.115380 -0.274109 -0.083287 -1.081520 1.301301 -1.406389 0.900492 1.164715 0.923559 0.050543 -0.007908 0.368270 -0.054960 -0.884350 1.645420 -0.250646 -0.209307 -0.207561 0.561546 -0.981827 0.420667 -0.703211 1.093486 -1.213946 -1.012710 0.065322 0.659832 -0.430552 0.519493 -0.122309 -0.824078 -0.231438 1.136324 -0.958677 -0.106373 -0.379928 -1.513658 -0.202299 -0.224209 -1.072002 -0.443607
all 0.794604 0.277571 -0.417565 -0.324471 0.371966 0.459397 0.510301 0.621808 0.080287 -0.970344 -0.317335 0.503356 -0.834645 1.265670 0.314969 0.590739 1.125982 0.257683 0.626807 0.092776 -0.582003 0.140455 -0.756211 0.072569 -0.659455 -0.202484 0.240512 0.517990 -0.636395 -0.186460 -2.252791 0.395248 0.122647 0.055660 0.015849 -0.836604 0.023015 0.208901 0.710861 -0.345794 0.594948 -0.386596 0.073610 0.225418 -1.005671 -0.560051 0.130772 -0.432450 -0.874913 0.425158
gone -0.406343 0.543679 -0.203691 -0.061153 0.252428 0.580513 0.546843 -0.756692 0.485445 0.377584 -0.080252 0.162124 -1.219575 1.542436 -1.428133 1.064274 1.265847 0.822978 0.026023 0.074416 0.415031 -0.109197 -0.514365 1.544833 -0.866016 0.370334 0.229846 0.867781 -0.625719 0.374722 -0.561439 1.021978 -1.109885 -0.863243 0.156116 0.673988 -0.585158 0.730697 -0.203980 -0.575783 0.083990 0.774261 -1.092333 0.151373 0.071038 -1.570058 -0.429974 -0.180701 -1.640405 -0.838555
he 1.083113 -0.098422 -0.820831 0.257689 0.927148 0.063147 -0.373089 -0.141782 1.368581 -0.209592 -0.057473 0.596057 -0.827626 -0.874662 0.188573 0.688921 -0.033874 0.167044 0.506592 -0.249570 -1.018866 -1.238453 -0.415707 0.673655 -0.006645 -0.326963 1.694487 0.469374 0.287027 0.733543 -1.607550 0.946487 1.318843 -1.272613 -0.326172 0.521571 -0.547533 0.299142 0.467196 -0.035601 -0.214783 0.608648 0.032558 0.939165 0.260398 -0.817562 -0.849903 0.524911 -0.487674 -0.051532
what 1.060820 0.897952 -0.830571 -0.980306 1.603176 0.194799 -1.179484 0.206374 -0.218382 -0.132357 -0.573239 0.774099 -0.873511 0.310074 -0.205192 0.597956 0.934759 0.326581 0.940927 -0.206702 -0.720350 1.374935 0.083901 0.486205 -0.716583 -0.852273 0.915224 1.234605 -0.451674 0.053145 -0.672793 0.609113 0.434046 -1.276836 0.249863 -0.313692 -0.612739 -0.557962 -0.237256 -0.807338 1.300580 -0.533268 -0.360118 -0.045618 -0.305910 -0.933300 0.523723 -0.697636 -1.703661 -0.442369
some 0.516534 0.878478 -0.682950 -0.343846 0.238103 -0.303221 -0.242180 0.977976 -0.516738 -0.543187 -0.363386 -0.450454 -0.515175 1.603849 -1.569569 -0.125751 1.100360 0.542384 0.257864 -1.315465 -0.605901 -0.283304 0.417468 0.106673 -1.675509 0.058827 0.528918 0.454324 -0.487170 0.177143 -1.490633 0.383333 0.095117 0.019871 -0.799214 -0.009223 -0.410525 -0.620291 -0.024799 -0.339453 0.078536 0.061886 1.098673 -0.164830 0.047264 -0.174267 -1.034414 0.026144 0.737622 0.827601
its 0.751804 -0.380483 -0.858185 0.042737 -0.120718 -0.863206 0.558350 0.575140 0.311060 -0.248550 -0.762100 0.302229 0.347895 0.250044 -0.926800 0.619807 1.104356 -0.103838 0.008725 -0.739072 -0.619785 0.198199 -0.975565 0.527371 -0.936506 0.417379 -0.643270 1.004434 -0.142811 -0.157445 -1.163159 -0.524580 0.930649 -1.241898 -0.277091 0.706153 -0.383164 0.658827 -0.043735 -0.966337 -0.953016 1.035212 0.155056 0.428397 -0.341514 -0.817859 0.714279 -0.644217 -0.599120 0.769146
points -0.785117 0.696942 -0.347651 -0.830826 0.023803 0.872581 0.279321 -0.111640 0.384763 0.820861 -0.133187 0.554124 -1.417767 1.459639 -1.140951 0.958935 0.994346 0.162052 -0.345227 0.566964 0.617736 0.107988 -0.169592 1.320343 -1.163036 1.134871 0.584919 1.239468 -0.467660 0.256408 0.221465 1.474724 -0.796905 -0.803818 -0.149909 -0.143420 -0.553800 0.842285 -0.715843 -0.151415 0.529662 0.300115 -0.726801 0.595022 -0.199760 -1.316252 -0.551376 -0.642090 -1.973173 -0.975247
passes -0.011415 0.162878 -0.831287 -0.100838 -1.130887 1.249914 -0.368464 -0.034437 0.570238 0.547256 -0.804804 -0.170885 -0.587445 0.074488 0.272599 0.740931 0.444995 0.971803 0.213093 -0.322804 -0.347776 0.854057 -1.212786 0.215065 -1.028790 0.718215 0.427352 0.365124 -0.784825 0.915069 -1.007955 0.761947 0.277665 -0.161465 -0.057371 1.741382 0.517590 -0.421490 -0.545675 -0.463976 1.152586 -0.952243 1.737066 1.615002 1.253155 -0.370195 -0.355120 0.457008 -0.065193 -1.129486
floor 0.572926 0.273574 -0.590891 -0.437748 0.406502 0.350775 -0.362702 1.116864 0.205508 0.291686 0.873342 -0.349566 -0.783737 0.297608 -1.228922 0.609886 -0.134849 1.824859 -0.353788 -0.501927 -1.181889 -0.978941 0.423811 0.663054 -0.649734 1.310892 0.321506 -0.059304 -0.167028 0.499571 -0.278772 0.149673 0.735479 -0.315268 0.834201 -0.337959 -0.708315 -0.387125 -0.277560 -0.117958 0.617487 -0.056991 0.109768 -0.670440 -0.538268 -1.103762 0.569184 -0.812085 -0.281907 0.155227
through 0.588923 0.374882 -1.041005 -0.071883 -0.478072 0.476185 -0.078306 0.286062 0.960417 0.329865 0.472073 0.217407 -0.688907 -0.181201 -0.460694 0.478954 0.830639 0.271147 0.810837 -0.171818 -0.735743 -1.686781 -0.724093 -0.566154 -0.818408 0.644812 -0.408748 1.470144 -0.402665 0.079764 -0.313291 1.181362 0.457316 -0.149543 -0.197287 1.328947 -1.384605 0.005313 -0.850825 -0.541000 -0.294552 0.031261 0.615744 -0.725085 0.093462 -0.799620 1.191116 -0.544811 -0.062066 -0.329768
take -0.184279 -0.135910 -0.887376 -0.217271 -1.026509 0.636516 -0.183603 0.362400 0.142813 -0.498975 -1.076923 0.485606 -0.813080 0.857499 -1.039360 0.407366 1.557629 0.254972 -0.272007 0.386849 -0.411700 -0.231329 -0.611907 0.153177 -0.068345 -0.553556 -0.009829 1.049748 -0.106658 0.807713 -0.625212 1.126228 -0.323230 -0.599966 -0.385951 -1.667217 -0.082887 -0.263474 -0.121967 -0.750891 0.537713 0.792376 -0.595449 0.226328 0.554815 -1.099761 -0.625335 0.221006 -1.281783 0.034938
his 0.699060 -0.283802 -1.492897 0.498804 0.371142 -0.010698 0.606431 0.396308 0.030969 0.088897 0.051708 -0.170499 0.213996 -0.677388 -0.174078 1.104254 -0.220938 0.404425 -0.170024 -0.277414 -0.967539 -0.933132 -0.938694 0.728069 0.289429 0.161382 1.021359 -0.040935 0.036056 0.689876 -1.808303 0.117560 0.694630 -1.200437 -0.971265 0.864053 0.265860 0.111880 -0.020932 -0.519195 -0.777960 1.366305 0.197769 1.196598 -0.678272 -1.646500 -0.722480 -0.324564 -1.418220 1.064925
put 0.138269 -0.606625 -1.753767 0.043273 -1.217456 0.495517 -0.679285 0.584433 -0.282026 -0.629135 -0.826205 0.194059 -1.355453 0.602251 -1.518091 0.121278 1.235252 0.576854 -0.732629 0.841020 0.321186 -0.823673 -0.345672 0.400579 0.102826 0.627193 0.956597 0.806571 -0.583998 -0.486649 0.071162 0.769229 -0.357882 0.169062 0.566026 -1.310236 0.204530 -0.353041 0.516952 -0.124512 -0.137659 0.227180 0.490364 -0.516899 0.027180 -1.053878 -0.392049 -0.640593 -1.561311 -0.890216
back 0.168376 0.875794 -1.162260 0.045521 0.582226 0.137391 0.641603 0.400446 0.752814 -0.128920 0.553240 -0.282430 -0.671586 0.342353 -0.573166 0.372730 -0.040084 -1.039105 0.629212 -0.396616 -1.602817 -0.970145 -0.752892 0.055945 0.103350 0.294073 1.046115 0.919088 -0.097681 0.546686 -0.278020 0.311950 0.840619 -1.202578 -0.374094 0.815944 -0.536090 1.113743 -0.361244 -1.225084 0.961343 0.338868 0.507825 -0.200985 -0.074462 -0.836433 -0.765925 -0.654846 -0.376261 -0.187017
off 0.346828 0.140087 -0.726215 -0.228353 0.904055 1.326032 0.459765 0.523644 0.331047 -0.030016 -0.703566 0.024322 -1.472848 0.300588 -0.980736 0.122553 0.523865 -0.784596 -0.449428 -0.114008 -1.170058 -0.290030 -0.194426 0.806764 0.928398 0.336930 0.820815 0.404538 0.100057 0.649041 -1.015431 0.735308 0.189938 -0.093816 -1.193591 -0.806675 -0.314923 0.186474 -0.376175 -2.058344 0.712740 0.196968 0.164378 0.639240 0.309991 -0.399232 -0.183192 -0.391891 -1.078190 0.249799
old 0.406139 -0.380278 -0.682199 0.099764 0.529536 -0.204143 0.072810 1.576233 -1.544203 0.397774 0.974593 -0.592610 0.432982 0.657994 0.063435 0.654515 0.943336 -0.025081 -0.478144 -1.315227 -0.228131 0.724404 -0.606546 0.998823 -1.078162 -0.176602 1.209627 0.950853 0.774212 0.296172 -0.290670 0.653473 -0.131641 -1.571023 0.116447 -1.077874 0.036726 -0.973949 -0.350502 -1.320785 0.258057 1.139611 -1.032273 0.248193 0.801803 -0.579566 -0.144045 -0.803952 0.143955 0.715816
leads 0.716709 1.317021 -0.553714 -0.422882 1.558646 0.563831 0.217613 0.716122 0.459495 -0.022925 0.499191 0.066620 0.785759 0.693625 -0.007939 0.004764 0.868968 0.052008 0.165646 -1.306224 -0.442976 -0.301970 -0.494040 0.072344 0.139719 0.885408 0.619827 0.536862 -0.304230 0.599931 -0.345475 0.272335 0.112433 -0.391050 -0.601408 0.489626 -1.785233 0.028518 -0.300153 -1.425929 0.906442 -0.182833 -0.468699 -1.060853 1.106946 0.006458 0.286263 -1.542048 0.080978 0.460816
little 0.328962 0.595854 -0.531510 -0.627528 0.665121 0.005171 -0.163874 -0.005932 0.053105 -0.786199 -0.082939 0.659010 0.903639 0.615528 1.423568 1.096369 0.167152 0.583212 0.526384 -0.273205 0.526345 0.210643 -1.052933 0.062790 -0.101781 0.454522 -0.590441 0.212914 0.903149 0.204196 -2.490308 1.563057 -0.325697 0.533689 -0.163067 -0.311121 -0.862740 -0.399920 1.308447 -0.866876 0.202009 0.250327 -0.131353 -0.002551 0.703104 -0.593140 -0.540835 -1.263330 -0.908854 1.076354
about -0.231073 0.378374 -0.215501 0.130992 0.602201 -0.394757 -0.066611 0.329005 0.477760 0.076460 -0.441706 0.025021 0.111926 1.028926 0.643585 1.468366 0.468213 -0.204927 0.011930 -0.494026 -0.327777 -0.468885 0.034672 0.935060 -0.797314 1.004155 -0.009507 -0.434756 0.852920 0.785104 -1.058065 0.766203 0.060359 -1.031246 0.144175 -0.254550 -0.076423 -0.141172 0.440075 -0.317356 -0.369300 0.386074 -0.476469 1.317950 -1.404066 -0.416658 -1.344656 -0.376943 -0.673585 0.120065
end 0.750933 0.461117 -0.525801 -0.413725 0.362410 0.296752 0.903391 -0.102733 -0.637052 0.646725 -0.549587 -0.194550 0.906015 0.515509 -1.362798 0.676365 0.888714 0.813855 0.171487 -0.622111 -0.764747 1.136087 -0.266737 -0.556113 -0.304676 0.316582 0.676945 0.737701 -0.861402 0.481240 -1.323054 -0.194785 0.548407 -0.910982 0.403801 -0.057673 -0.468311 0.389576 0.196913 0.206951 0.992001 -0.326619 -0.137060 0.210499 1.159981 -1.061344 0.332896 -1.102009 -0.171016 -0.253151
x -0.111369 -0.559156 -0.058389 0.014088 -0.043949 0.103001 -0.839591 0.966853 0.002650 0.146274 -0.631691 0.937400 0.339529 0.942902 -0.869130 0.082288 0.511260 0.196445 -0.504996 -0.268987 -0.211641 0.372075 -0.319905 0.538007 -1.201020 0.163139 -0.290710 0.621295 -0.129503 0.677548 -0.374685 1.112865 -0.448158 -0.117906 -0.178659 0.045242 -0.221896 -0.006528 -0.318666 -0.656790 -0.312835 0.401868 0.010837 0.248055 -0.110169 -0.578822 0.574052 -0.617271 -0.459335 0.513809
like 1.025032 -0.047107 -0.835205 -0.212259 1.596297 -0.077671 -0.378289 0.587218 0.112333 0.215571 -1.093854 0.526279 -0.438551 0.554517 0.731821 0.298869 0.874156 0.406217 0.810418 -0.240960 -0.566792 -0.289056 -0.181380 0.670045 -1.486058 0.274658 -0.018972 0.491638 0.171297 -0.482306 0.022694 0.893848 0.767962 -1.416295 1.565668 0.183765 -0.928720 -0.431798 1.119441 -0.502239 -0.444110 0.364940 -0.441466 0.748545 -0.476034 -0.059132 0.409635 0.017836 0.216435 -0.902433
am -0.576542 0.075130 -0.942765 0.380895 0.313407 0.817762 0.466735 0.001026 0.844019 0.180982 -0.668352 0.949810 -0.331822 1.418107 -1.497873 0.053372 -0.576671 -1.920537 -0.148943 0.715420 0.571990 0.513839 0.015103 -0.265900 -0.288496 -1.003032 1.195689 0.868913 -0.024928 0.403091 -0.117879 1.466039 -0.674029 0.712916 0.416809 0.014633 0.902014 0.134518 -0.288208 -0.337061 1.197592 0.213053 1.254492 0.439557 -0.002919 -1.007305 -0.146350 0.110030 -1.235113 -0.116900
youre 0.958076 0.874629 -0.607131 -0.213005 0.262186 -0.247102 0.826942 0.009902 -0.116959 -1.000385 0.153447 1.354426 -0.370350 0.522810 -0.868542 0.992664 -0.426475 1.193904 0.114185 0.700112 -0.993324 0.163811 0.422860 0.488058 -1.063398 0.650373 0.344577 -0.049766 0.285066 -1.207005 -0.534669 0.743584 -0.963801 -0.282309 0.859904 -0.944503 -1.839987 0.372776 0.365866 -0.519413 1.581257 0.422657 -0.288606 -0.713405 0.154048 -0.455726 -0.577239 0.111958 -0.017807 -0.257259
not 0.633900 -0.109161 -0.642238 0.583952 0.837877 -1.104912 -0.179548 -0.483552 -0.097445 -1.001975 0.138541 1.027870 -0.818860 1.219638 0.393118 0.633934 0.748607 0.384048 0.243298 -0.015389 -1.573185 -0.158408 -0.146718 -0.032179 -0.820971 -0.878602 0.234334 0.038661 0.087853 -0.803041 -1.024300 0.566877 0.378168 -0.077500 0.676579 0.338944 -0.998031 0.864057 -0.021160 -0.901183 0.802087 0.371941 0.444232 -0.336921 -0.091683 -0.731505 -0.011813 0.383071 -0.128775 -0.148146
or -0.706693 0.633418 -0.532095 -0.104493 1.016908 0.345716 0.620288 -0.019589 0.552082 0.540098 0.722937 0.270373 -0.247772 1.184321 0.541381 0.394935 0.871775 1.056272 0.059512 -0.350429 -1.870465 -1.211993 -0.290103 0.159484 -1.090107 -0.234458 1.424157 0.116582 -0.491779 0.321446 0.553594 1.148018 0.320401 -0.557399 -0.041708 0.128712 -0.373610 0.279121 -0.617436 -0.629853 -0.078790 0.259623 -0.611135 -0.060489 0.144824 -0.315825 -0.302351 -0.210806 0.151646 -0.083060
hall -0.026803 1.214505 0.317174 0.728598 0.399466 0.121138 2.344509 0.348844 0.174020 0.093418 -0.434531 -0.021426 0.931964 0.677968 -1.494999 0.275369 0.566490 1.080817 0.431895 -0.249604 -0.690094 0.569550 0.093124 0.678961 -1.582916 0.070771 0.541704 0.109041 0.739263 0.099691 -0.516354 -0.054210 -0.032591 -0.428776 -0.230272 0.097056 -0.991781 0.439119 0.148047 0.408133 0.926422 1.063081 0.049715 0.120290 0.629561 -0.702475 0.361515 -0.471069 -0.329518 0.022494
also 0.353581 1.016899 -0.560239 -0.947944 0.032982 -0.614864 -0.206677 0.924799 0.029048 -0.354593 0.795999 -0.335627 0.460320 1.103086 -0.791145 0.194712 0.606973 0.835804 1.070395 0.407293 -0.431616 -0.637591 -0.238314 0.508723 -1.128459 -0.354591 0.106245 1.054515 0.430994 0.749492 -0.049791 0.477296 0.059898 -0.693310 -0.082282 -0.465726 -0.640284 -0.729798 0.744161 -0.268698 0.623474 1.140259 0.718563 -1.447254 0.952667 -0.605825 -0.671162 -0.264478 -0.431425 0.407142
says 0.420486 0.253995 -0.327054 0.314373 0.248870 -0.048145 -1.027105 -0.273964 1.128394 0.084014 -0.399331 -0.103450 -1.106150 -1.034990 -0.123864 1.308796 -0.611093 0.950186 0.477821 0.063795 -0.225364 0.887420 -0.582734 1.393399 -0.278477 -0.676425 -0.251971 0.213588 0.814586 -0.039452 -1.008636 0.625481 0.630462 -1.426957 -0.264067 0.536741 -0.424063 -0.681684 0.362202 -0.848672 1.426357 0.407882 1.032551 0.946231 -0.323397 -0.229610 -0.382367 0.331530 -0.795054 -0.123852
around 0.863495 -0.477053 -0.597678 -0.631880 0.420701 0.854892 0.580043 0.725333 0.414337 -0.537619 0.472846 0.939037 -0.174348 0.546959 -0.989666 -0.485634 -0.492708 -0.275949 -0.249930 -1.203777 -0.441830 -0.921509 -1.155677 0.547863 -1.343031 1.462077 -0.254775 -0.168902 -1.273709 0.126874 -1.007037 0.975326 1.198607 -0.654092 0.121891 0.271068 -0.358144 -0.025448 1.250233 -0.287608 0.490202 -0.126865 -0.089906 0.982769 -1.471426 -1.135909 0.360339 -0.732363 -0.369397 -0.161135
light 0.152154 -0.696854 -1.198324 -1.511230 -0.141524 1.102002 -0.223610 0.969505 0.121119 -0.284824 0.066673 -0.273675 -0.962086 1.799412 0.075091 -0.292511 0.779885 0.323638 0.011188 -1.120879 -0.045086 -1.761935 0.121024 0.374226 -0.881710 0.207148 0.440331 0.487437 -0.385182 0.222052 -0.457306 0.583461 -0.032362 -0.238917 -0.686429 -0.137085 -0.062004 -1.178342 -0.638841 -0.468656 0.101763 0.258150 0.449833 0.364701 0.567759 -0.012712 0.621094 -0.490714 -0.292009 -0.311259
stone 0.488477 0.572217 -0.192554 0.054625 -0.532806 0.259119 -0.559255 1.588211 -0.811283 0.826439 -0.400412 0.149691 0.272350 1.097014 -0.969313 0.206592 0.239921 -0.026715 0.177599 -0.333347 -0.052825 -0.535299 0.198136 0.139020 -0.177028 1.665589 0.154313 0.864126 -0.277550 0.840328 -1.047714 -0.422526 -0.093484 -0.610299 0.333730 -0.164287 -1.231544 0.711205 -0.748329 -0.472737 0.459154 0.304934 0.002709 -0.368978 0.275042 0.026187 -0.526482 -0.399026 1.034094 0.035753
passage 1.402958 1.017141 0.648122 -0.498302 0.072124 0.956547 -0.016544 0.242744 0.552611 -0.780062 0.545383 0.244084 0.773315 0.634210 -0.143367 0.504382 0.280302 0.118723 -0.358185 -0.831128 0.176865 -0.408282 -0.251592 -0.800945 0.112982 1.388953 0.283309 1.420358 0.385253 -0.673675 -1.159692 0.314779 -0.272131 -0.062236 -0.667175 0.327468 -1.964796 0.380807 -0.828766 -0.507924 0.424894 0.299733 0.060723 -0.282287 1.277007 -0.351246 0.290209 -1.131707 -0.235722 -0.653734
dropped 0.867927 0.482484 -0.520568 -0.689377 -0.057505 0.830843 -0.034117 0.910175 -0.580602 -0.294910 -0.527313 0.029511 -0.560473 0.856889 -0.265399 0.418405 1.008188 0.720061 0.311745 0.116274 0.406774 1.486436 -0.127221 -0.497355 -0.467967 -1.099061 0.523565 0.862858 -0.364728 0.879493 -0.105747 1.368075 -0.438376 -0.571486 -0.573483 -2.156346 0.071402 -1.101001 -0.354127 -0.282395 0.178718 0.273003 -0.795535 0.283948 0.160014 -1.830086 0.274951 -0.459066 -1.667412 0.048094
seems 0.398928 0.251730 -0.613224 0.444578 0.588153 0.142328 -0.611984 0.518282 0.002923 -1.133488 0.190706 0.243025 -0.294777 0.543709 1.031369 0.001469 1.090919 0.311758 -0.144737 -0.699916 -0.677249 -0.540574 -0.270859 0.370483 -0.230579 0.410297 0.497396 0.912687 -0.422542 0.154687 -0.767603 0.179413 0.526882 -0.760394 0.564878 0.348987 -1.182337 -0.127056 -0.593369 -0.967966 0.218206 0.088353 -0.027839 -0.016956 0.222681 -0.357838 0.531248 -0.144789 -0.206963 -0.210657
been 0.003831 -0.182673 0.046757 -0.000001 -0.145149 -1.007447 0.051187 0.126989 0.161196 -0.848214 -0.309862 0.342873 -1.378494 0.396335 -0.107786 1.324617 1.647399 0.837872 0.479432 -1.245632 -0.048629 0.079371 0.033908 0.557090 -0.782479 0.066498 0.836547 0.711563 -0.173440 0.343872 -0.855036 -1.014645 0.243313 0.114181 0.156073 0.604568 -0.818996 0.960027 -0.536961 -0.461431 0.151816 -0.368665 -0.302911 -0.711802 0.682049 -0.625770 -0.356224 0.614008 -0.776271 0.424209
corridor 0.728011 0.179414 0.360291 -0.698064 0.798232 0.682676 1.298715 0.363685 1.625690 0.443087 0.501147 0.298546 0.867093 0.551550 -1.350059 0.379511 0.469982 1.284608 0.333492 -1.219453 -0.360171 0.153495 0.585031 -0.667431 -0.011877 0.533011 0.263242 0.564880 -0.183448 -0.119102 -1.383442 0.061430 0.392673 0.191224 -0.596537 -0.397861 -1.574709 0.112570 -0.737716 0.334665 0.554957 -0.393031 -0.254405 -0.460756 0.352468 -0.826311 0.076362 -0.893109 -0.799957 1.289396
dark 0.807479 -0.394606 -0.611959 0.264481 -0.278152 0.214388 0.245714 0.539616 0.102049 -0.571858 0.485399 0.235068 0.331247 0.892828 -0.937856 -0.658428 -0.273993 0.243013 0.639697 -0.985939 -1.066883 -0.735992 -0.022661 -0.003752 0.372375 0.546770 1.140146 1.093348 0.224115 -0.500731 -1.190429 0.014529 -0.377932 -0.153209 0.166452 0.226906 -1.222589 -0.086262 -1.189838 -1.248880 0.995048 0.883422 -0.853069 -1.259693 1.694163 0.162219 0.776519 -0.273025 -0.008756 -0.640338
was 0.043029 -0.445473 -0.288284 0.099701 0.564649 -0.055975 -0.844783 -0.230622 0.581939 -0.313735 -0.532787 0.269675 -1.224252 0.418887 0.383430 0.404316 0.750014 1.181640 -0.018275 -0.560433 -0.877892 -0.358172 0.055796 0.865338 -1.671161 -0.390277 0.733787 0.266501 0.679095 0.004662 -0.883197 0.278794 0.510739 -0.242489 0.569863 -0.180329 -1.068081 1.072263 -0.619380 -0.194735 -0.215072 0.390306 0.258100 0.414759 -0.145168 0.170345 0.359908 0.845499 -0.830774 0.865530
train 0.274616 -0.298237 0.195940 0.874860 -0.093519 0.699451 -0.137287 0.216971 0.836832 -0.126390 -0.372357 0.123996 -1.104419 -0.527997 -0.825181 -0.339662 -0.364321 0.206699 -0.626849 -0.295181 -0.913368 0.755293 -0.510769 0.671763 -0.367094 0.696725 -0.258506 0.391336 -0.545135 0.281608 0.016331 0.614182 0.797261 1.068859 -0.940974 1.498898 0.173896 -1.361913 -0.007318 -1.497642 0.688111 -0.683590 1.496796 0.662084 1.220091 0.079869 0.412402 -0.652976 -0.388694 -0.598660
side 0.239806 0.007884 -0.415295 -0.239434 -0.717458 0.048431 0.956364 0.517713 -0.877408 -0.127555 0.143565 -0.633979 0.111924 1.038341 -0.435334 0.994575 0.736882 0.572427 -0.521266 0.303975 -1.328726 0.687582 -0.695757 0.573615 -0.104298 1.141864 -0.003081 0.755067 -0.289418 0.134461 -1.419077 -0.494994 -0.163293 -0.062047 -0.221925 0.152121 -0.400537 1.004826 0.186444 -0.994482 -0.019974 0.013920 1.115111 -0.253516 1.276008 -0.374716 0.038586 -1.009408 -0.613518 1.095016
long 1.165334 0.081876 -0.291693 0.357626 0.065574 0.668344 1.054315 0.233007 -0.391108 0.470571 0.271124 -0.232202 -0.144337 0.283785 -1.365726 0.537200 0.969101 1.117875 -0.232990 -0.983948 -0.394173 0.931980 0.490144 -0.771433 -1.107120 0.209393 0.872722 0.683162 0.136804 0.432958 -1.369714 -0.117847 0.211711 0.024128 -0.624864 -0.258223 -1.698678 -0.667080 -0.678144 0.024472 0.414328 -0.048203 -0.993527 -0.102586 1.047151 -0.977631 -0.686006 0.438467 -0.796928 0.531587
only -0.458654 -0.404910 -1.185765 -0.707695 0.742608 -0.551623 0.356014 -0.136189 0.275353 0.141039 0.757690 0.007338 0.078771 1.670927 -0.032014 0.665705 1.118374 0.067486 0.803658 -1.414020 -0.211609 -0.397141 -1.059114 0.127650 -0.900914 -0.057414 0.812673 0.064323 -0.339497 0.236205 -0.592474 -0.556190 0.973435 -0.437450 -0.302109 0.611144 -0.947315 1.320642 -0.086416 -0.416362 -0.097036 -0.143866 0.425281 -0.460313 0.247214 -0.411979 -0.575215 -0.449791 -0.680899 0.788960
drop 0.235894 0.551753 -0.092723 -0.549364 0.050965 0.603111 0.092304 0.145590 -0.046805 -0.046639 -0.691711 0.025927 -0.569691 1.289305 -0.672565 0.102598 0.503226 0.289057 -0.168945 0.182172 0.397334 0.517310 -0.514805 -0.280676 -0.895704 -0.690234 -0.202860 0.758263 -0.728940 0.764504 -0.528667 1.658274 -0.732390 -0.138103 -0.415167 -1.470802 0.468535 -0.486579 -0.346847 -0.468762 0.176849 0.753681 -0.643200 0.217561 -0.393382 -1.324059 0.945798 -0.406028 -1.636078 -0.208798
no -0.717197 1.023530 -0.351766 -0.909072 0.570696 -0.269311 -1.172129 -0.149641 0.381680 -0.780943 -0.093961 -0.078353 -0.104210 1.695240 0.352650 0.679924 0.528049 0.911453 0.188061 -0.624899 -1.389133 -0.731285 -0.365618 0.234251 -0.886999 -0.649348 -0.177731 0.175146 0.182368 0.145455 -0.633531 0.397713 0.014088 -0.375020 0.462539 0.017577 0.204028 1.103211 -0.332649 -0.816047 -0.238151 0.416280 0.581933 -0.408439 -0.198584 -0.431807 -0.454719 -0.156446 -0.082558 0.417367
hear 0.045850 0.678777 -1.032127 -1.039481 0.084782 0.218624 -0.738004 -0.378297 0.357516 0.305660 -0.648246 -0.124494 0.453821 1.892027 -0.751360 0.263199 -0.499260 0.578975 1.101832 -0.859511 0.223467 0.358488 0.517124 0.210458 -0.573274 -0.178044 0.205389 -0.216348 0.049753 0.143763 -1.838624 1.034422 0.193701 -0.243764 0.120402 0.746890 0.844003 -1.610490 0.202196 -0.266342 -0.204787 0.023549 1.551783 0.147337 1.114992 -0.068327 0.360737 -0.424769 -0.135291 -1.022779
z 0.120146 0.302802 -0.324282 -0.175751 -1.211840 0.999971 -0.154186 0.142643 0.242123 0.276935 -0.724074 -0.327034 -0.696571 -0.539567 0.440894 0.419399 0.343394 1.264460 0.355770 -0.140304 -0.994163 1.096601 -1.208190 0.244882 -0.782600 0.206004 0.137048 0.743515 -0.776488 0.312173 -0.741395 0.941785 0.362963 -0.106820 -0.528835 1.147313 0.865631 -0.716480 -0.702329 -0.917516 0.750496 -0.740363 1.862684 1.547498 1.093087 -0.522538 0.282190 0.187715 -0.080238 -0.737569
above 0.676741 -0.366026 -1.433544 -0.908492 -0.062001 0.708139 -0.286274 0.546819 0.915180 1.127038 -0.127321 -0.814023 -0.296466 1.519679 -1.270970 0.327441 0.556140 -0.070898 0.056881 -0.659896 -0.052393 -0.737169 -0.682560 -0.120184 -0.274798 1.445602 -0.309118 0.322120 -0.815275 0.675218 -0.697943 0.085878 0.119478 -0.620310 0.520676 -0.067690 -0.654342 -0.366988 -0.750803 -0.341200 0.522580 0.354962 0.578908 -0.317453 -0.555085 0.184688 0.734966 -0.512016 0.493939 -0.201611
over 0.593069 -0.550344 -0.952722 -0.374842 -0.143054 -0.232185 0.601628 0.397989 -0.218306 -0.257995 -0.056422 0.304787 -0.314656 0.134571 0.134131 0.490234 -0.187836 -0.067046 0.232869 -0.154945 -0.927129 -0.430692 -1.067055 0.357944 -0.686096 0.184030 0.504898 0.435535 -0.810965 0.540523 -1.228029 -0.283643 -0.028215 -0.024313 -0.468819 -0.418719 -0.156869 0.644279 -0.111926 -0.474112 0.052253 0.654922 0.455310 0.357208 -0.223589 -0.394870 0.329620 -0.811743 -1.024725 0.960772
southwest -0.127291 0.697995 -0.493545 0.147163 -0.343694 0.106021 0.354176 -0.054299 0.816787 -0.520184 0.275441 0.033105 0.186080 0.229483 -0.845530 0.027280 0.828079 0.529680 0.067858 -0.217703 -0.247449 0.345466 -0.485916 0.041271 -0.109058 1.022119 0.146950 0.885216 -1.597185 0.072767 0.549705 0.635432 -0.236566 -0.319357 -0.651595 0.170028 -1.515729 0.209728 -0.416676 -0.299995 1.234594 -0.398153 0.038462 -0.388565 -0.187629 -0.782185 0.802625 -1.459833 -0.775418 -1.185242
after 0.321688 0.096527 -0.872521 0.472933 0.720913 1.287262 -0.081479 -0.623220 0.146330 -0.167644 0.491220 0.761832 0.182501 0.773092 -0.187274 0.741754 -0.330926 0.094017 0.003522 -0.258859 -0.346095 -0.730504 0.102880 -0.878839 0.170207 0.200569 0.670866 0.059088 -0.205873 0.714217 -1.506046 1.283617 0.364151 1.293928 0.550605 0.915874 -0.401993 0.668691 0.667679 0.051299 -0.129842 -0.938416 0.563624 0.278801 0.343712 -1.768044 -1.312115 -0.249098 -0.918062 0.131572
key 0.466959 0.015245 0.157996 0.827678 0.262388 1.099855 -0.296028 1.206553 0.240492 -0.031005 0.205919 -0.310585 -0.827882 2.032356 -0.331062 -0.742416 1.388503 0.662741 -0.919067 -0.174831 -0.318219 0.661409 -0.497871 -0.520048 -0.615142 -0.382793 0.256065 0.208598 0.748866 1.306939 0.443368 0.880286 1.177249 -0.654995 0.173003 -0.695491 -0.232895 -0.920036 0.354074 -0.294674 -0.393381 -0.202919 -0.608362 -0.222593 -0.119296 -1.352885 -0.086797 0.249600 -1.477235 0.603291
metal 1.307552 0.076544 -0.504393 0.030758 -0.390320 -0.163065 -1.289051 0.321353 0.929605 0.326731 0.360438 0.036821 0.113857 0.479822 -1.506931 -0.082900 0.288500 0.747754 -0.461173 0.731506 0.018217 1.164917 -0.155644 -0.135919 0.143871 1.393555 -0.499655 0.097119 0.564976 1.418544 0.056122 0.714556 0.465048 -0.108741 -0.108059 0.532004 -1.371287 -1.103105 0.688647 -0.228563 0.850337 0.116498 0.321193 -0.738724 1.068180 -0.595362 0.055888 -1.145105 -1.090835 0.576759
very 1.518169 -0.892893 -0.173739 0.583309 0.599991 -0.688010 -0.164670 0.334771 -0.326810 -0.257984 -0.030701 1.137134 0.076388 -0.190087 -1.020940 0.102035 0.007268 0.999815 0.436986 -0.392762 -0.021545 -0.037931 0.045401 0.244328 -0.899002 -0.161129 0.064317 0.807933 0.070067 -0.442207 -1.037479 0.328240 0.517521 -0.458258 -0.455373 0.355419 -2.489736 -0.106601 0.107911 0.008945 -0.113779 1.490409 -0.426187 0.364823 -0.039645 -0.852141 0.471194 0.015156 -0.227890 -0.195505
hole 0.276791 0.660014 -1.211092 -0.791904 -0.423246 0.249391 -0.129033 0.238650 0.682591 -0.286888 -0.717159 -0.100764 0.048338 0.825925 -0.443246 0.426997 -1.007112 0.513442 1.010950 -0.330626 0.376676 -1.115995 -0.162057 0.536052 -0.139232 1.260919 -0.864740 0.362389 0.906920 0.166330 -1.061134 0.546873 -0.290847 -0.364883 0.906802 -0.090823 -0.671438 0.248160 0.138496 -0.466164 0.622878 0.700317 0.222215 -0.905585 0.877647 -0.187658 -0.212446 -1.023495 -0.350685 -1.063147
southeast 0.359163 0.795856 0.009996 0.056834 0.077943 -0.206677 0.040797 0.067862 0.868208 -1.208002 0.255408 0.433212 -0.024823 0.396399 -0.810963 0.091824 0.845834 0.464649 -0.391915 -0.068955 -0.596385 0.455475 -0.396023 0.273986 0.275264 0.814689 0.077754 0.894271 -0.912756 -0.422767 0.457166 0.554553 -0.365167 -0.111102 -0.411713 -0.482936 -1.471301 0.793756 -0.244714 -0.473216 1.274168 -0.289506 0.308076 -0.504779 0.204110 -0.950307 0.838709 -1.665537 -1.025398 -0.232909
two -0.320179 0.803421 0.165815 -0.818871 -0.176221 -0.048984 0.153027 0.031152 -0.144540 0.342345 0.120844 0.220813 -1.433080 1.548977 -0.396156 0.508875 1.735291 0.550591 -0.405123 -0.098568 -0.465246 -0.782239 -0.303610 0.838469 -0.753261 0.718056 0.519361 0.146866 -0.524788 0.432198 -0.279202 0.304509 -0.414616 -0.524693 -0.563719 0.219014 -0.267530 0.688750 0.076605 0.199009 -0.155356 0.076074 -0.523051 0.352131 -0.122479 -0.911661 -1.104230 -0.030737 -0.753156 -0.385127
looks 1.110750 -0.484391 -1.419714 0.451881 1.219594 -0.333228 -0.423223 0.701840 0.726424 -0.322362 -0.521993 0.428195 0.039076 -0.506631 -0.121048 -0.199531 -0.245553 0.295078 0.337098 -1.262380 -0.182815 0.013676 -0.820101 0.691766 -0.890047 0.734663 0.687392 0.785466 0.153497 0.160308 -0.715131 1.168791 0.663015 -0.797791 1.062087 -0.100632 -0.498493 -0.321226 0.274590 -0.547534 -0.075067 0.484047 -0.147100 0.680392 -0.048755 -0.424911 0.524199 -0.267247 -0.414899 -0.701369
rod -0.765527 0.024804 -0.550024 1.735115 -1.116717 1.385013 0.070583 0.820186 -0.011138 -0.985289 -1.278229 0.186887 -0.355997 1.000144 -0.713798 -1.055327 1.108849 -0.024996 0.490306 1.007542 1.129415 -1.413100 -0.113412 0.481928 0.296705 -0.890529 -0.311037 0.934392 -0.445248 1.078451 -0.672667 -0.183306 -0.377675 -1.065842 0.736787 0.621579 -0.448503 0.427302 -0.058616 1.052072 -0.093963 0.406033 -0.419301 0.636198 -0.005940 -0.966541 -0.130630 -0.882515 -0.769879 -1.052164
go -0.992840 0.885241 -0.346404 -0.340648 0.704824 -0.139077 0.571528 -0.301703 0.497491 -0.116074 0.921487 0.477421 -0.015293 0.580033 0.051705 0.924582 0.576487 0.413908 0.960956 0.160056 -1.180938 -0.987227 -0.154561 0.204333 -0.640414 -0.763308 1.347899 0.820051 -0.957526 -0.335012 0.112037 0.947546 0.277254 -0.528047 0.021965 0.152932 -0.806534 0.424763 0.092048 -0.766106 0.954874 0.321531 0.638422 -0.365216 -0.333313 -1.066361 -0.379292 -0.069323 -0.234526 -0.405224
northeast 0.358895 0.485263 0.269744 0.554462 -0.175930 -0.295223 0.194608 -0.223029 1.056778 -0.623851 0.004850 0.501035 -0.277005 0.350815 -0.378420 0.042904 0.412335 0.565869 0.176982 -0.260854 0.146932 0.816660 -0.647742 0.288207 0.159240 0.522460 0.184008 0.573998 -1.345391 0.089946 -0.055485 0.808136 -0.458795 0.462469 -0.966951 -0.134179 -1.480312 0.262753 -0.533937 -0.504116 1.910732 -0.284278 0.258619 -0.110538 0.648170 -0.373223 0.048755 -1.201846 -0.688770 -0.764271
make 0.424274 -0.046726 -0.704353 1.149320 0.933029 0.196736 -0.458294 0.806454 -0.159348 -0.742758 -0.375297 -0.734938 -0.384134 1.476098 -0.182988 0.058738 1.692757 -0.305922 0.496719 0.126692 0.770817 -0.422811 -0.226565 0.440395 0.195854 -1.040549 0.306888 1.140608 -0.091715 -0.441538 -0.053321 0.335031 -0.166112 -1.352289 1.164285 -0.036017 -0.663534 0.284030 -0.613175 -0.711558 0.602808 -0.025538 0.427435 -0.215892 -0.485253 -1.510851 -0.762674 -0.241224 0.731262 -0.325061
my -0.390091 -0.007884 0.055622 0.322682 0.412572 -0.354985 0.441986 -0.885817 0.705582 -0.417341 0.310352 -0.209225 -0.938549 0.371394 -0.182610 0.781591 0.858140 0.550089 -0.098972 0.052178 -0.270262 -0.230224 -0.676319 1.256112 0.019065 -1.249422 0.338902 -0.447850 0.306299 0.215150 -0.798409 0.370091 0.120473 -1.361811 -0.419014 0.987826 0.072104 0.360967 0.906697 -0.131161 0.378011 1.098595 -0.106448 0.668868 -0.425381 -0.624588 -0.899506 0.334587 -1.207881 0.197972
red -0.784483 -0.604086 -0.697338 -0.783956 -1.400104 1.062541 -0.230207 1.234914 -0.137881 -0.190597 -1.126677 0.967939 0.273362 1.186984 -0.130699 0.135668 1.007237 0.616549 0.729094 0.329985 0.351151 -0.685233 0.072893 0.980977 0.339255 0.403464 -0.103693 0.703766 0.597316 0.851691 -0.387866 0.307301 -0.298393 -0.390507 -0.961501 -0.829931 -0.501461 0.036848 0.305925 -0.124348 -0.730067 0.652631 0.729126 0.914176 0.619630 -0.503266 -0.639199 -0.345683 -0.690347 -0.452120
standing 0.707503 0.366220 -0.161363 0.509106 0.220206 -0.329003 -0.015587 0.176031 -0.015896 1.257782 -0.310754 0.934163 -0.567559 0.413340 -1.157823 1.145916 -0.871565 0.106984 -1.017212 0.380643 -1.013059 0.808343 -0.110862 0.702118 -0.678790 1.802968 0.918136 0.283329 -0.336700 -0.528973 -0.411775 -0.015747 0.335026 0.327675 -0.142218 -0.315777 -1.845462 -0.144433 -0.034971 -0.770949 0.943014 0.673363 0.281852 -0.377845 -0.060061 0.761833 -0.155395 -0.361282 -0.200420 0.346298
walls 0.654281 0.318373 0.474425 -0.503968 -0.207556 0.186757 -0.821976 1.132895 -0.754109 -0.451947 0.782699 0.607030 -0.230809 1.751775 0.179821 0.404841 0.370252 0.352077 0.171735 -0.682373 -0.404511 -0.398496 -0.070257 -0.111278 -0.228270 0.767670 0.021932 0.323062 -0.574454 -0.271549 -1.418434 -0.741383 0.337793 -0.613521 -0.502795 0.477117 -1.248144 0.240717 -0.444493 0.066412 0.494167 -0.366974 0.115362 -0.211811 -0.782181 -0.300064 0.222314 -0.999145 0.372468 0.099265
if -0.377723 0.227909 -0.753933 -0.139838 0.835695 -0.867054 -0.166569 -0.646265 -0.085055 -0.565255 -0.225757 0.255526 -0.159068 0.583356 0.627990 0.655572 0.883933 -0.038757 -0.319423 -0.079958 -1.060706 -0.250864 0.058681 0.441982 -0.817706 -0.162092 0.802013 0.721128 0.171517 -0.654658 -0.727012 0.264636 0.887459 -0.483098 0.767725 0.399369 -0.410292 0.185906 0.652189 -0.556490 0.002273 0.459430 0.316327 0.290478 0.265972 -0.366360 -0.472882 0.700886 -0.515344 0.043995
she 0.406209 -0.100391 -0.776943 -0.200277 0.975380 -0.066887 -0.266557 -0.598209 1.290731 -0.572422 -0.638182 0.759779 -0.343159 -0.988801 0.178519 -0.054560 -0.087610 -0.086249 0.601981 0.004896 -0.956808 -0.189541 -0.048805 0.980751 0.104059 -0.557920 0.736574 0.549575 0.253609 0.388795 -1.116618 0.156725 1.104023 -1.210815 0.047035 0.390245 -0.114763 0.564329 -0.297917 0.084330 0.339333 0.454841 0.126942 0.918612 0.188772 -0.728789 -0.677748 -0.056660 -0.868471 -0.604689
water -0.297639 0.060213 -0.533012 -0.844936 -0.946103 -0.565698 -0.746335 -0.128388 -1.217516 -0.500564 -0.243218 -0.333109 0.003008 0.903034 -1.001100 -0.381678 0.070401 1.444217 0.190237 0.094215 -1.109718 -0.058629 -0.321735 -0.977633 -1.496272 0.000876 -0.746096 0.485947 -1.128021 0.691000 0.180437 0.063807 -0.173390 -0.013779 0.231426 0.495810 -0.224029 0.501259 -0.358470 -0.535020 0.323388 0.289616 0.413449 -0.177025 0.121751 -0.748264 -0.061419 -0.863466 -0.170670 -0.381288
path -0.361270 0.460707 0.140858 -0.461429 0.350188 0.830924 0.394486 0.052269 0.853055 -0.308783 0.450466 0.728036 0.900726 -0.383146 0.667475 0.506035 0.804365 0.726683 0.071920 -0.856910 -1.216799 -0.611682 -0.276730 -0.505067 0.073011 1.167572 0.303811 0.692193 -0.828220 0.386984 0.329493 0.797973 0.491793 -0.079811 -0.521691 0.446721 -1.889708 0.389369 -0.074943 -1.097790 0.145072 -0.413920 -0.083743 -0.161625 1.387912 -0.649489 0.114673 -1.320024 -0.229830 -0.194826
entrance -0.236772 0.938006 0.622124 1.658961 -0.037009 -0.067594 0.777584 0.217109 0.354873 0.600417 -0.505538 -0.064384 -0.045510 0.779050 -1.338761 0.811914 0.653512 0.438144 -0.473639 -0.105368 -1.028476 1.023849 -0.285205 0.134458 -0.203893 0.707781 0.729058 0.499555 0.261156 -0.099074 0.179571 0.026931 -0.024079 0.091966 0.138366 0.363348 -1.133909 0.214524 -0.592504 -0.685793 0.835853 0.564275 0.155314 -0.445757 0.491352 -0.194237 0.572864 -0.754484 0.004378 -0.128009
behind -0.535434 -0.986999 -0.392507 0.272805 0.444923 0.357852 -0.434518 0.563416 1.171320 0.332442 0.992002 1.399611 -0.021153 0.251916 -1.418163 0.369568 -0.813231 0.010992 -0.240803 -0.727052 -0.315970 -0.217608 0.097171 1.547284 -0.857607 0.928844 0.559034 0.602356 -0.816162 0.198577 -0.089794 0.770633 0.682981 0.885862 0.447197 0.664430 -0.970467 -0.200513 0.226414 -0.385373 0.100234 0.191344 0.874625 -0.461630 0.389897 -0.583333 -0.281773 -0.487917 -0.645947 0.332070
black 0.498577 0.097593 -1.000893 0.133542 -1.161613 0.452279 -0.359384 1.870802 -0.233955 -0.143513 -0.718070 0.694261 0.037511 0.320960 0.303580 -0.252824 0.173598 0.862302 0.442375 0.348710 -0.043445 -0.409798 -0.767637 0.721493 -0.416700 0.913383 0.726462 0.721187 0.356593 0.992741 -0.571703 0.257490 0.031274 -1.151122 0.153628 0.151386 -0.353619 0.218121 -0.492799 0.492513 0.204528 0.216981 0.474367 0.532701 0.704525 -0.604396 -0.461625 0.108914 -0.498664 -0.327992
doors 0.066500 0.123731 0.982570 0.501352 0.057992 0.033461 -0.391083 0.461779 1.510338 0.470517 0.603891 0.182067 -1.411097 0.177945 -0.432260 0.341296 0.474667 0.797242 1.093060 -1.009759 -0.909153 0.111521 -0.853612 0.106100 -0.167292 -0.948923 0.739689 0.819443 -1.096341 0.885914 -0.183895 0.611432 0.772739 0.944431 -1.801904 1.061426 -0.375248 -0.949036 0.435224 -1.170553 0.466822 -0.294916 1.354353 -0.432443 0.187563 -0.086706 0.475118 -0.345823 -0.431972 0.261888
way -0.365925 0.239857 -0.937354 -0.123877 0.824810 -0.474206 0.404762 -0.185824 1.198541 -0.453446 -0.073856 -0.132274 0.222000 0.746825 -0.380987 0.708533 0.885709 -0.483929 0.752442 -1.017379 -0.489587 -0.725175 -0.541442 -0.118131 -0.536642 0.025737 0.053307 1.324628 -0.196563 0.109744 -0.506850 -0.143412 0.907181 -0.138494 -0.433841 0.448481 -0.966072 0.914939 0.193856 -1.211912 -0.365956 0.332002 0.294229 -0.640738 -0.277816 -0.428842 0.187278 -0.019797 -0.446434 0.202745
inside 0.462329 -0.028917 -0.317035 -0.175915 -0.364450 -0.048779 -0.503435 0.585375 0.621349 -0.092155 -0.196096 0.619837 -0.558443 1.107063 -0.665823 0.396446 -0.962040 0.604884 0.391486 -0.955594 0.440521 0.075114 -0.368440 0.885498 -0.046917 0.540172 0.763879 0.472593 -0.320872 -0.533529 -0.810634 0.913592 -0.638474 0.093808 0.733825 0.230482 -0.452581 -1.247715 0.592609 -0.994939 1.183167 0.947146 0.254063 -0.848503 0.639175 0.272946 0.112287 0.123737 0.114113 -0.586401
then 0.836132 -0.119390 -0.857546 -0.199403 0.948280 0.654085 -0.542320 -0.200823 0.867516 -0.158842 0.358752 -0.841275 -0.181906 0.450622 -0.491453 -0.286697 0.019911 -0.163521 -0.007360 -0.320120 -0.761940 -0.579677 -1.072622 0.513316 0.301725 0.436826 0.851721 0.222175 -0.458372 0.945585 -0.961642 0.687347 0.584071 -1.014098 0.121580 0.960744 0.722370 0.748087 0.341752 -0.445464 0.188217 0.112145 0.907537 0.794509 -0.016404 -0.701596 -0.805301 -0.037696 -0.099169 -0.521699
theres 0.481267 0.648196 -0.400140 -0.791464 0.732768 -0.764298 -0.727254 -0.162838 0.223488 -0.483059 -0.069147 0.245538 -0.122033 0.906143 -0.052029 0.025406 0.727074 1.718849 -0.209533 -0.981615 -0.826479 -0.087085 -0.195712 -0.096209 0.325643 -0.006535 -0.251855 -0.225563 0.129254 -0.189845 -0.593942 -0.132923 0.744919 0.042542 1.031477 -0.400179 -0.011371 -0.274937 0.115660 -0.431492 0.163468 0.509823 -0.563871 -1.218189 0.698113 -0.442309 0.389881 -1.197798 -0.809892 0.408571
saturday -0.609883 -0.283513 -1.391189 0.144586 0.260278 0.673079 0.288562 -0.125565 0.172763 0.062259 -1.505334 0.516428 -0.471291 1.199623 -1.493137 -0.500899 -0.435226 -1.419532 0.484662 0.509555 0.459423 0.116177 -0.027352 -0.058868 -0.022487 -1.224798 0.661378 0.638479 -0.564422 0.543790 -0.287795 1.010451 -0.994577 0.705984 0.078924 0.043362 1.251149 0.068599 -0.812399 -0.740163 0.675107 0.493575 0.864331 0.556696 0.010713 -0.572007 -0.182625 -0.207124 -0.921363 -0.536015
northwest 0.110517 0.916794 -0.089014 -0.124735 -0.095951 0.354459 0.462088 0.261788 1.263437 -0.332316 0.121425 0.253529 -0.059333 0.714734 -0.400982 0.094570 0.370158 0.572339 0.268426 -0.318426 -0.514535 0.720765 -0.616003 0.220739 0.365459 0.502742 0.579861 0.747068 -0.807327 0.164570 0.134040 0.129791 -0.203747 -0.335306 -0.724678 0.060173 -0.803470 0.332288 -0.933636 -0.733702 1.372516 -0.310229 0.531675 -0.338581 0.909800 -0.379191 0.287785 -1.328373 -0.821397 -0.484385
me -0.262664 0.171899 -0.745140 0.171040 1.114359 -0.105882 0.281436 -0.370483 1.753281 -0.831764 -0.095513 0.450545 -0.552266 0.748083 0.287185 0.828261 0.497611 -0.637034 -0.057894 -0.099488 -0.746183 -1.183834 0.285480 0.927243 -0.216180 -0.982096 0.549672 0.331326 0.761832 -0.455586 -0.748304 1.016701 0.671150 -0.792827 0.599990 0.637538 -0.136573 -0.184385 0.816907 -0.041359 0.653861 0.301944 0.219847 -0.035801 -0.081947 -0.283426 -0.302800 0.011753 -0.951469 -0.620113
exit -0.140381 0.469746 -0.327531 -0.138750 0.712398 -0.309019 0.049416 0.473723 0.388305 -0.197871 0.780229 -0.918142 -0.011248 1.635200 -0.233735 0.626612 0.608397 -0.049910 0.312733 -1.899528 -0.106589 0.645362 -1.154852 0.075527 -0.207907 0.663556 0.624585 0.077261 -0.687922 0.682704 -0.466892 -0.091803 0.308877 0.148506 -0.774292 0.339657 -0.160857 0.702022 -0.050180 -1.426077 0.749769 -0.602207 0.723959 -0.087464 0.667528 -0.201658 -0.763854 -0.908048 -0.594042 0.475233
hallway 0.901948 1.383224 0.456951 -0.406084 0.598776 0.239836 0.716762 -0.334472 -0.127327 0.741911 0.215866 -0.061055 1.416960 0.598991 -1.161169 0.694362 -0.063190 1.489750 0.425350 -0.604574 -1.477128 0.817099 0.420522 -0.776692 -0.364665 0.681993 0.479955 0.475203 -0.648912 -0.095968 -0.640253 0.891776 -0.241676 -0.735915 -0.362597 0.611170 -0.463550 -0.901056 -0.006123 -0.242357 0.650495 -0.308577 -0.421774 0.598115 0.916237 -0.789959 0.512552 -0.827644 0.764982 -1.292315
where -0.327173 -0.033823 -0.033200 0.535842 0.490922 0.079738 -0.241968 0.080043 0.952808 0.025812 -0.454508 0.559543 -0.469763 0.836886 0.245522 0.203878 0.174276 0.230997 0.663178 0.073058 -0.630624 0.352340 -0.280881 -0.009976 -0.586919 -0.106802 1.175981 0.535424 -0.718364 0.220360 -0.239459 0.090124 0.356869 -0.057177 0.753036 0.371493 -1.072589 0.525756 -0.497905 -0.433330 1.362901 -0.252974 0.929530 -0.026455 -0.294517 0.058919 -0.073753 0.028472 -0.081817 -0.017555
more 0.359490 0.566150 -0.232230 -0.265742 0.418853 -0.344832 -0.592487 -0.501921 -0.847691 0.026098 -0.276318 0.106285 -0.289295 1.408498 0.825541 0.305508 0.759728 1.604116 0.438968 -0.621276 -1.387417 0.089647 -0.584693 -0.567275 -1.150354 0.088218 0.829116 -0.418490 -0.292792 0.445905 -1.026464 0.553949 -0.195793 -0.228121 1.202246 0.631667 0.328781 0.799952 -0.199625 -0.653133 -0.247220 -0.183767 -0.502245 0.383178 0.336251 -0.372374 -0.390585 0.112964 0.337642 -0.586774
other 0.711565 0.033637 -0.443252 -0.295714 0.491721 0.320634 0.761906 0.545045 -0.612925 -0.104104 -0.166556 -0.268635 -0.013503 1.770815 0.170277 0.256673 0.616335 0.123108 0.040873 -0.679178 -1.392663 -0.097251 -1.041327 0.454214 -0.475524 0.121324 0.607275 -0.329623 -1.299085 -0.086069 -1.733035 -0.431873 -0.008418 -0.641162 0.366999 0.044766 0.236280 1.032968 0.284992 -0.625857 -0.148775 -0.222910 0.524332 0.174804 -0.204940 -0.193745 -0.361415 -0.598882 0.491435 0.830322
look 0.228673 0.115072 -1.129265 -0.000672 0.375320 -0.243313 0.178564 -0.241375 0.523955 0.154185 -0.151370 0.338148 -0.094842 0.568003 0.463718 0.320783 0.046731 -0.206333 -0.238420 0.247849 -0.587917 -0.280912 -1.146856 0.238069 -1.272793 0.909068 -0.030078 0.565942 0.101976 0.113639 -0.775002 0.371731 0.895383 -0.833776 1.282052 0.080017 -0.334807 0.202892 0.842903 -0.005673 0.350709 1.101720 -0.095894 0.545980 -0.697071 -0.121420 0.237110 -0.082823 -1.113956 -0.728365
so 0.191245 -0.411194 -0.672147 -0.114263 0.716540 -0.902623 0.079720 -0.357605 0.201020 -0.273963 -0.192595 0.518597 -0.724159 0.593162 -0.064132 0.544343 0.591296 0.293951 0.241700 0.039955 -1.228433 -0.493475 0.280648 0.319776 -0.813221 -0.784009 0.902483 0.297980 0.406344 -0.258755 -0.828237 0.204799 0.295604 -0.687183 0.326448 0.056377 -0.846041 0.470580 -0.507778 -0.297832 0.650623 0.794482 -0.143438 0.202831 0.376137 -0.070181 -0.329573 0.511596 -0.286681 -0.175038
table -0.268487 -0.362385 -0.568425 -0.043984 -0.134230 0.221816 -0.696912 0.653306 -0.148272 0.507621 0.005311 0.174400 1.185712 1.141710 -1.628772 0.043722 -0.198071 0.693506 -0.441260 -0.111502 0.279954 0.088644 0.186742 0.753877 -0.494762 1.024907 -0.369299 -0.473089 0.275305 1.289332 -0.359819 0.631123 0.099602 -0.023213 0.543794 -0.514502 -1.328507 0.582824 1.655297 0.359949 1.106258 -0.097957 0.561809 -0.200217 0.296548 -0.264067 -0.892217 -0.438003 0.164216 0.671751
they 0.430552 0.975691 0.114815 -0.799337 0.369326 -0.542650 -0.675321 -0.220129 -0.046212 -0.081040 0.041287 0.292251 -1.120969 0.831674 0.345698 0.518022 0.675919 -0.874205 0.081322 0.600526 -1.482315 -0.402066 -0.144679 0.016567 -1.187237 -0.408846 0.231484 0.657670 -0.625296 -0.353017 -0.884201 0.102189 0.756829 -0.575378 0.416349 0.586272 -0.279582 0.828238 0.479570 -0.613673 1.006361 -0.080263 0.960114 -0.087514 0.043334 0.257227 -0.701481 -0.030768 -0.116796 -0.283478
wait -0.119544 0.235205 -0.805170 -0.263415 -1.183922 1.102907 -0.188831 -0.408130 0.104191 0.821804 -0.636336 -0.851049 -0.738475 0.621006 -0.158252 0.933972 0.765492 0.480907 -0.083458 -0.279780 0.346826 1.036155 -0.896984 -0.178932 -0.918226 0.800886 0.448770 0.383775 -0.930904 0.824117 -0.592114 0.213076 -0.138609 0.095696 0.413338 1.323196 0.651852 -0.071424 -0.174932 -0.183751 1.084310 -0.883066 1.350980 0.931045 0.968057 -0.474982 -1.218798 0.887159 -0.132005 -0.756453
chamber 0.790240 0.785381 0.274667 0.057855 -0.658725 0.792663 0.469498 0.879928 -0.449062 -0.324190 0.163298 -0.237183 0.220398 1.818399 -0.665968 0.932069 -0.351107 1.435023 0.187747 -0.208849 0.368906 -0.529857 -0.033812 -0.183418 -0.424762 1.277409 0.082902 0.547583 1.092241 -0.798603 -1.067541 -0.148099 -1.250708 0.351617 0.174586 -0.249298 -0.559688 -0.064434 -0.662280 -0.442335 -0.378809 0.445916 0.693254 -1.385364 0.794885 -0.368652 -0.637757 -0.145884 0.045652 -0.200881
dragon -0.451791 0.424227 -0.571781 -0.123517 -0.851675 0.077139 -0.654293 1.251312 0.203524 -0.215296 -0.832960 0.625824 0.785901 -0.429226 0.210827 0.657710 0.180075 0.297467 0.521012 -0.158989 0.191347 -0.124056 -0.320595 0.954139 -0.527730 0.390965 0.290131 0.761643 0.602793 1.326519 -0.346822 0.488588 0.355467 -1.117713 -0.342863 -0.007373 0.162462 -0.103882 0.189619 0.448666 -0.049228 0.454702 0.594752 1.296067 0.076924 -1.291198 -0.587233 -0.397543 -0.516938 -0.261241
suddenly 0.463610 0.228890 -0.539178 -0.313939 -0.002825 1.195503 -0.412148 -0.298805 0.817085 -0.380151 -1.135446 0.346781 0.182877 -0.280798 -0.069826 -0.175437 0.189433 0.522334 0.338301 -0.387769 -0.713030 0.280261 -0.031284 -0.087421 0.422037 -0.324449 0.136349 0.484495 -1.010591 0.629007 -0.851769 0.642485 0.815907 -0.844166 -0.762661 1.088349 -0.222534 -1.065668 0.064719 -0.337991 0.339958 -0.697649 0.527178 1.444157 1.501322 -0.394418 0.200053 -0.416075 0.253762 -1.216019
top 0.327673 0.411683 -0.681670 0.807808 0.091792 -0.364450 0.334246 0.868291 -0.480301 0.356588 -0.788078 -0.171117 -0.586921 -0.401728 -0.510166 0.515639 0.368718 0.042037 -0.285697 0.530534 -0.326854 -0.032857 -0.334073 0.679870 -0.917764 0.972589 -0.144195 0.691107 -0.391836 0.209470 -0.816319 0.186646 -0.373626 0.297676 0.924701 -0.535357 -1.278254 0.381177 0.055024 -0.476848 1.134174 0.672893 0.497367 0.207382 0.318585 0.052341 -0.021869 -1.097210 -0.303338 -0.178637
closed 0.744929 -0.201296 0.079402 -0.154351 -0.235655 -0.641947 -1.160336 0.488058 1.270741 -0.069337 0.726896 0.433980 0.431195 1.304707 -0.730449 0.079671 0.409623 0.062359 0.054563 -0.395091 0.132797 1.085042 -0.909709 0.439156 -0.544306 0.579833 -0.069289 0.626736 0.541339 1.002571 -0.621783 0.516053 0.370341 0.060471 0.040402 0.064205 -0.403209 -0.281856 0.186751 -0.414452 0.104331 0.884880 0.624690 -1.059555 0.267801 -0.147272 0.932666 -0.231823 -1.091343 0.832505
something 0.673923 -0.187935 -1.005118 -0.366394 0.990774 -0.049326 -0.654692 -0.008451 0.223429 -0.239486 -0.790548 -0.207948 -0.493654 0.592864 0.000159 0.028611 0.718332 0.520126 0.335235 -0.309342 -0.245957 -0.588255 -0.281265 -0.065045 -1.108554 -0.466924 -0.011811 0.626299 -0.556170 -0.362081 -0.647578 0.534441 0.922930 -0.996811 0.793692 0.430531 -0.227014 -0.321309 0.199747 -0.409115 -0.081508 0.126362 0.177957 0.239881 -0.170563 -0.518227 -0.173293 0.016124 0.134501 -0.591255
do 0.797093 0.383283 -0.693902 0.103236 1.148109 -0.334216 -0.361707 -0.171099 0.224137 -0.401597 0.108344 0.566470 -0.944458 1.113112 0.356786 0.708663 0.539684 -0.494909 0.743162 0.609045 -1.069040 0.577659 0.261299 0.825355 -0.843698 -1.250486 0.708865 0.228808 0.648024 -0.451052 -0.854511 0.580209 0.386737 -1.352458 0.654442 0.062973 -0.256965 -0.074513 0.049830 -0.564723 0.603881 -0.105752 0.354931 -0.122224 -0.154665 -0.407992 -0.406267 0.738578 -0.424097 -0.024413
will -0.150627 -0.107904 -0.012335 0.404385 -0.358999 -0.237423 -0.358038 0.121976 0.741761 -0.279494 0.167011 0.164293 -1.275038 0.314243 0.986491 0.693668 0.997377 0.632579 1.031339 0.055420 -0.658159 0.128677 -0.751848 1.370002 -0.323038 -1.103227 0.400600 0.280355 -0.003771 0.436194 -0.828606 0.380504 0.376772 -0.295150 -0.737684 0.891917 0.078252 -0.375882 0.772343 -0.546743 0.470248 -0.116060 0.945510 0.120023 -0.004174 -0.011870 -0.021820 1.100592 -0.578817 -0.131449
white -0.478954 -0.492108 -0.469353 0.310058 -0.084017 0.447387 -0.232096 1.112087 -0.531699 0.217608 -1.225754 1.154065 0.463190 0.702375 -0.233838 -0.099673 0.820219 0.371645 -0.027785 -0.217656 -0.026141 -0.755844 0.452446 0.773803 -0.389650 1.398457 0.882096 0.668200 -0.729665 1.015498 0.102928 0.408125 -0.412138 -0.383729 0.181211 -0.081954 -0.732142 0.190350 -0.009925 0.245455 -1.004091 0.169305 -0.212122 0.851277 0.141035 -0.350446 -0.117274 -0.168532 0.424206 -0.753804
her 0.367686 -0.484492 -0.921435 -0.192361 0.928472 -0.199966 0.047731 -0.083305 0.592356 -0.349609 -0.030197 0.500312 -0.432874 0.077725 -0.275174 0.099954 -0.067188 -0.301006 -0.023171 -0.021839 -0.385448 -0.497465 -0.179795 1.130268 0.291636 -0.001106 0.304389 -0.170302 0.092922 -0.104096 -1.481756 -0.030363 0.628107 -1.351126 -0.097841 0.496780 -0.241444 0.284917 0.001889 -0.009584 -0.211215 0.553243 -0.364666 0.888298 -0.608484 -0.477388 -0.652282 -0.023013 -0.880812 0.150570
three -0.307997 0.213357 0.462366 -0.414048 0.653335 0.277897 0.275981 0.235552 0.584527 0.157585 -0.546417 0.609066 -1.135703 0.977684 -0.626183 0.362999 0.778259 0.520711 -0.331621 0.518782 0.414841 -0.383686 -0.438182 1.238178 -1.043809 0.332755 0.429306 -0.038232 -0.066843 0.234832 -0.742988 0.455770 -0.694691 -0.521145 -0.367317 -0.145257 -0.651136 1.351850 0.655761 0.851103 -0.344810 -0.334307 -0.418857 0.479007 -0.368855 -0.314124 -0.789851 -0.381337 -1.546503 0.482605
street -1.005199 0.498846 0.967335 0.225889 0.188584 0.397869 2.059590 -0.613765 0.972084 0.323589 0.283393 0.363995 0.495899 0.802759 -1.218709 0.530565 0.277947 -0.104541 0.255783 0.229429 -1.175750 0.745113 -0.171184 0.269451 -0.400118 -0.077747 0.575947 0.538364 -0.004692 -0.406731 -0.237362 0.758041 -0.180327 0.118297 -0.864725 -0.088100 -0.291964 1.384408 0.006281 -1.052711 0.835020 0.229069 0.480608 0.664015 0.266905 -0.224734 0.527729 -1.130137 0.220844 -0.022182
maze -0.331016 1.649701 0.476333 -0.022375 0.034989 0.872924 1.571242 0.344314 0.303163 -0.596403 -0.750023 0.831117 0.409696 0.342493 0.515515 1.187735 -0.264683 0.474319 0.686968 0.272385 -0.063995 0.504417 -0.366190 -0.326651 0.141070 0.370232 0.590211 1.039876 -0.244795 -0.536000 -1.246003 0.735582 -1.047871 1.576487 -0.615057 -1.620203 -0.462152 -0.351138 1.011799 -0.794930 0.746308 -0.134012 0.573183 -0.261745 -0.341115 0.241827 -0.142842 -1.016003 -0.886824 0.279282
sign -0.952528 1.426705 -0.104209 -0.124666 -0.382315 -0.697882 -1.566178 -0.102619 0.329280 -0.118445 -0.951872 0.129613 0.267243 1.189812 -0.688989 0.191315 0.124511 0.784706 0.342340 0.330453 -0.653653 0.023925 -0.414772 0.838291 -0.377663 0.746035 -1.091451 -0.296869 0.783659 1.199951 0.695451 0.152685 -0.709762 -0.532792 -0.746421 0.122308 -0.938698 0.563524 -0.350649 -0.778427 0.664592 1.114812 0.993504 -0.191046 -0.137647 0.300930 -0.393887 -0.129347 0.250196 0.708876
outside -0.573010 0.413876 0.135557 -0.154003 0.256520 -0.090148 0.979441 0.186289 0.707543 1.372571 0.341148 0.034015 -0.477544 0.519287 -1.123903 0.648514 0.013016 0.750258 -0.293705 -0.610557 -0.927167 0.621165 0.127433 0.689971 -1.291694 0.160424 0.354867 0.478153 -1.337479 -0.006431 -0.002042 0.460166 -0.047097 -0.247769 -0.212692 0.571124 -0.515737 -0.076770 -1.396223 -0.613130 0.897355 0.295318 0.563225 -0.005284 0.421842 -0.062488 0.579615 -0.250981 0.144281 0.235834
coin 0.830953 -0.042928 -0.645805 -0.130539 -1.942184 0.227644 -0.471236 -0.027221 0.712259 -1.946827 -0.432176 0.417591 -1.367900 0.650289 -1.648713 -0.239480 0.605993 0.400930 -0.727011 0.811212 0.166904 -0.616620 -0.067255 -0.197003 1.180232 0.608778 0.145920 0.145286 -0.054033 -0.446372 -0.443945 -0.194861 -0.788056 -0.366587 0.654947 -0.312535 -0.182241 -0.201055 0.538823 0.489068 1.114320 -0.023226 -0.191340 -0.782832 0.916885 -0.388685 -1.276011 -0.348683 -0.653035 -0.415549
place 0.677581 -0.614477 -0.754026 0.590748 0.259298 0.569695 -0.068256 0.004910 -0.592523 -0.852607 -0.606376 0.095588 0.008977 0.056970 0.029711 0.146122 0.731494 1.111030 0.540397 -0.237783 -0.700661 0.085244 -0.176949 0.084228 0.063556 0.174138 0.962350 0.604336 0.889507 -0.530167 -0.690720 -0.023878 0.200338 -0.494793 0.669559 0.086349 -0.083837 -0.246603 -0.309635 -0.701524 0.086570 0.315310 -0.234642 0.048097 0.330517 -0.506339 0.142955 0.268267 -1.039526 -1.317246
paper -0.526071 -0.249053 -0.136519 0.096204 0.037053 -0.527553 0.022534 0.918771 -0.456142 -0.471805 -0.823327 0.969857 -0.436997 0.966904 -0.910628 -0.434831 0.718534 -0.837798 -0.144759 0.091010 0.234501 -1.148016 0.209598 -0.022395 -0.969934 -1.285996 0.565196 1.298951 -1.055377 1.177126 -0.177464 1.313736 -0.649072 0.768986 -1.025077 -0.499284 -0.056559 0.101761 0.156432 0.143784 -0.581112 1.215028 0.195796 0.258253 0.269937 -0.704165 -0.039585 -0.439141 -0.465832 0.660415
station 0.020620 0.100204 0.061098 0.064497 -0.728224 0.192991 -0.009799 -0.321052 0.175222 0.284015 0.312027 -0.481781 0.178015 -0.543018 -0.868054 0.417418 -1.014426 0.017112 0.013668 0.162935 -0.455056 0.989847 -0.947133 0.217775 -0.025374 0.576559 -0.809314 0.133788 -0.448378 -0.161278 0.144293 0.292039 0.184832 -0.072660 -1.009935 0.828116 0.122432 -1.077961 0.300736 -1.365575 1.520570 -0.079970 1.601329 0.285107 0.964552 -0.147208 -1.050212 -0.530398 -0.000388 -0.038550
well 0.698142 -0.069673 -0.185064 -0.001006 0.867166 -0.317857 -0.574632 0.101074 0.205964 -0.207341 -0.730439 0.543018 -0.735630 0.524316 0.236319 0.005600 -0.052217 0.609804 -1.024372 0.166315 -1.001532 0.486412 -0.309138 0.713418 -0.781719 0.217516 1.485266 0.478418 0.047508 -0.397958 -0.969446 0.729735 0.276985 -0.810557 1.251423 0.177331 0.249883 -0.096453 -0.322626 -0.359507 0.458085 0.562176 0.576431 0.699245 0.682413 0.258920 -0.273530 0.304193 0.070973 -0.153087
lead 1.072134 1.591851 1.025202 0.072584 0.769994 -0.087146 0.104497 1.074160 0.869194 -0.139457 0.569412 0.048175 -1.642485 0.494432 -0.378054 0.121405 0.391167 0.494046 1.053584 -0.719207 -1.123499 -0.643496 -0.490273 -0.387307 0.204669 0.050169 0.866395 0.541427 -1.376648 0.406036 -0.496508 0.150729 0.140499 0.488273 -1.375492 0.075232 -0.500989 0.060605 -0.202512 -1.027203 1.035464 -0.511061 0.351540 -0.811226 -0.568705 -0.198286 -0.328813 -0.407540 0.338725 0.358790
feet 0.179852 -0.053555 -0.669415 -0.864913 -0.573032 0.570361 0.272507 -0.138620 -0.184303 0.852805 -0.501303 -0.286035 -0.824158 1.091487 0.133314 1.344042 -0.150892 0.463977 -0.214285 -0.318420 -0.627609 -0.977791 -0.385789 0.313370 0.209755 2.150039 -0.126362 0.458636 -0.586328 0.954955 -1.682566 -0.417484 -0.139756 -0.575884 0.074142 -0.461458 -0.308138 0.745707 -0.922260 -0.744366 -0.169056 0.854175 -0.237104 0.372011 -1.004823 -0.554580 -0.657623 0.275168 -0.096814 -0.095597
garden -0.711994 -0.050885 0.417421 -0.046758 -0.156153 0.025728 1.525170 0.612648 0.087396 -0.620173 -0.520639 0.675770 0.806745 0.203879 -0.028353 0.212285 0.321863 0.238185 0.127139 -0.168369 -0.284942 0.145213 -0.993489 -0.143742 -0.098156 0.746193 0.467950 1.064674 -0.195875 -0.522457 -0.166887 0.010895 0.202307 1.226627 -0.481490 -1.087061 -0.078714 0.532640 0.773725 -0.701449 0.139498 0.278560 0.652035 -0.285447 0.306543 -0.086410 0.017471 -1.891233 -1.206403 0.332444
few 0.292191 -0.096788 -0.691790 -0.358210 0.636244 0.066602 -0.499886 -0.853691 -0.422352 0.628834 0.276757 -0.285751 -0.579076 1.407277 0.319475 0.379836 -0.056134 0.181270 -0.097955 -0.561237 -0.332414 -1.047643 -0.203243 -1.094422 -0.026009 0.328729 0.462332 -0.147867 -1.156594 1.026711 -1.361229 0.427443 0.300948 0.947667 -0.415317 0.684631 -0.633863 0.644712 0.687930 -0.208669 -0.498091 -0.408825 0.173963 0.299231 0.593410 -0.313538 -1.765451 -0.369377 -0.370277 0.025212
center 0.257785 0.825780 0.032801 0.820667 -0.098137 0.069715 0.513996 1.162152 0.145838 0.622614 -1.300189 -0.242547 -0.011076 0.385635 -1.103293 0.241953 0.312789 1.001680 -0.184761 -0.791810 -0.308074 0.533537 -0.049022 0.569035 -0.482709 1.230514 0.212432 0.043522 -0.020546 -0.555604 -0.328869 -0.610790 0.497470 -0.131487 0.722721 -0.471539 -0.620169 0.372403 -0.921871 0.106599 0.304768 0.062642 0.967922 -0.028218 -0.527281 -0.528726 0.919596 -0.683792 0.453637 -0.143234
main -1.248849 1.352346 0.973294 0.195718 0.265814 0.383641 1.896252 -0.203038 1.008238 0.364711 -0.428750 0.029888 0.418931 1.108291 -1.520242 0.379462 0.846457 0.433274 0.573666 -0.379335 -0.740524 0.892204 -0.188784 0.578226 -1.080686 -0.530020 0.346837 0.655627 0.379348 -0.013041 0.577584 0.690547 -0.205436 0.143941 -1.393295 -0.445901 -0.721582 0.664450 0.249758 -0.865500 0.998536 0.606377 0.581266 0.188138 0.219794 -0.153011 0.672775 -0.806995 -0.050295 -0.043541
wooden 0.651301 -0.126751 0.346913 -0.487761 0.056068 -0.483521 -0.881639 0.921473 0.396001 1.250512 0.438469 -0.127915 -0.277837 1.318237 -1.028014 0.436747 0.203399 -0.675555 -0.107192 -0.071339 0.343058 0.674073 -0.353325 -0.128549 0.491106 0.476481 0.078957 0.697269 0.357235 1.334108 -0.347007 -0.088338 0.386407 -0.517332 -0.424241 -0.431532 -1.244525 0.042766 -0.275783 -0.465542 0.220703 0.654527 -0.590446 -1.028552 -0.082249 -0.057866 0.271505 -0.949044 -0.348306 1.329758
ground 0.258941 0.242298 -0.157174 -0.102528 0.013849 0.255042 -0.325382 0.477384 -0.396160 -0.187087 0.540417 -0.917571 -0.198092 0.195599 -0.804570 0.458656 -0.037297 1.048658 -0.354405 -0.315140 -1.230841 -0.404229 0.031921 0.596713 -0.912983 0.912088 0.043073 0.322435 -0.950873 0.864861 -0.484881 -0.007926 0.086158 -0.239308 0.477131 0.045121 -0.072650 0.023316 -0.381199 -0.903558 0.124149 0.238220 0.685727 0.041964 0.100159 -0.894423 0.168710 0.132838 0.537062 -0.211802
along -0.620298 -0.363021 -0.300000 0.195149 -0.180482 1.635342 0.460849 -0.153059 0.514063 -0.309463 1.105448 1.445203 0.890884 0.434221 -0.920982 0.045391 -0.069870 0.773547 0.199581 -0.004805 -1.472614 -0.985219 0.124750 0.055779 0.124280 0.378094 0.737428 0.144112 -1.088505 0.612321 -0.280051 0.658052 0.161505 0.554528 -0.332796 1.187404 -1.407696 0.528134 0.605362 -0.164410 0.282131 -1.070269 0.242625 -0.539492 1.068719 -1.332338 -0.517671 -0.057976 -0.186236 0.619356
away 0.293014 -0.027283 -0.270915 -0.598476 0.435819 0.295126 0.327422 0.097868 0.517142 -0.098739 -0.393367 -0.335332 -0.614205 0.040284 -0.207954 0.042121 0.385042 -0.521373 -0.363602 0.249205 -0.661321 -0.702844 -0.759332 -0.092457 -0.194069 -0.121921 0.188687 0.624369 -0.305197 0.129801 -1.041612 0.262385 0.417441 -0.730652 0.251376 0.470968 0.046792 0.821035 -0.741926 -0.695672 0.479967 0.174064 0.586985 0.539787 0.637203 -0.354658 -0.465306 -0.512275 0.175623 0.217078
great 0.229218 0.422473 0.629981 1.167438 -0.154383 -0.154918 0.785127 0.328128 0.514616 0.240296 0.084326 0.363456 -0.237121 0.731589 -0.391484 0.318823 -0.410809 0.241654 -0.630511 0.572188 -0.527624 0.504171 0.160510 0.363566 -0.592758 -0.523520 0.442421 0.905153 0.344903 -0.519360 -1.293619 -0.187955 0.241714 0.010709 0.606680 0.567082 -0.589577 -0.180032 -0.142629 -0.137777 0.129069 0.703604 0.456340 -0.907949 0.825446 0.167699 0.288552 -0.451859 -0.652319 1.028467
green -0.503308 0.131060 -0.058494 -0.468219 -0.386963 1.416767 0.748797 0.572329 0.279038 -0.496692 -1.140978 1.401916 0.281587 1.869630 -0.038685 -0.443050 0.585997 -0.712309 0.485710 0.490944 0.284252 -0.182720 -0.569038 0.258869 -0.044502 0.116538 -0.196247 0.434738 -0.303406 0.614606 -1.100971 0.674617 -0.568533 0.584401 -1.098920 -1.100042 -0.474762 0.557549 0.817548 0.075853 -0.635040 0.210119 0.039029 0.676243 -0.192873 -0.008996 0.376199 -1.122422 -0.635637 0.247365
before 0.161040 -0.313092 -0.108021 0.625150 0.321681 -0.130651 -0.067605 -0.062075 0.330176 0.133038 -0.008546 0.653253 -0.815271 -0.039928 -0.321055 0.393093 -0.138391 -0.061044 -0.458066 0.581098 -1.002318 0.156513 -0.127511 0.716905 -0.907327 0.123609 1.234940 0.735407 -0.513863 0.119571 -0.704086 0.202575 0.653449 0.527926 0.317772 0.144796 -0.936569 0.564428 0.463760 -0.122812 -0.238542 0.260300 0.531940 -0.121977 0.612805 -0.071880 -0.369345 0.386642 -1.029953 0.249698
point -0.423874 0.718045 -0.644042 0.126785 0.577775 0.356198 0.914990 -0.666825 0.405896 -0.158839 -0.241135 -0.066694 -0.037532 0.576328 -0.963622 0.387905 0.940602 -0.008701 -0.028753 -0.286616 0.191050 0.326134 -0.249019 0.869349 -0.974633 0.658707 -0.365249 0.769657 -0.468366 0.390022 -0.426916 0.724324 -0.840428 -0.674113 0.590587 0.653281 0.070391 1.331690 -0.737331 0.048196 0.541726 0.284235 -1.150902 0.259659 0.081357 -1.060307 0.936517 -0.181506 -1.757209 -0.983943
tunnel 0.196587 0.028332 0.401382 -1.091635 0.317604 0.729794 0.560025 0.399751 0.490643 -0.555768 -0.352412 1.152046 -0.123226 0.360757 0.054885 -0.018844 0.579621 0.084346 0.299221 -0.964051 -0.885174 -0.312644 -0.020335 0.082372 0.046940 1.032576 0.839605 1.030606 -0.946820 -0.519231 -0.654798 -0.434511 -0.123722 0.544966 -0.470657 0.022379 -1.374944 0.043469 -0.335132 -0.505743 0.608963 -0.837614 -0.052804 -0.406063 1.706810 0.865664 0.505194 -0.866638 0.095316 -0.565589
turn 0.730359 -0.281369 -1.156755 -0.811694 1.276721 0.952155 -0.900939 -0.040277 -0.291555 0.300401 -0.631439 0.043062 -0.451274 0.967808 -1.586996 -0.635146 -0.621579 -1.168001 -0.647148 -0.198500 -0.674401 0.608604 0.349329 0.645393 -0.490889 0.565019 0.284674 -0.630462 0.562290 -0.117141 -1.038263 0.917339 -0.111168 0.048091 -0.253901 -0.139394 0.780597 -0.147271 -1.092138 -0.902321 -0.197093 0.191269 0.353757 0.630178 0.287586 0.404995 0.526401 -0.706103 -0.597864 -0.009521
empty 0.201556 -0.578529 -0.257140 -0.043640 0.323580 -0.804876 -0.534776 0.430770 0.437066 -0.888544 0.320717 0.066682 0.679915 1.212624 -0.317014 -0.627743 1.039011 0.491926 0.139772 -0.765781 0.465063 0.081228 -1.177369 0.304653 -0.394910 -0.183494 0.429816 0.004524 0.451355 0.935460 -0.407940 0.804613 -0.104254 0.225063 -0.153203 -0.979063 -0.905514 0.392825 1.082821 -0.364398 0.966669 1.072608 -0.128756 -0.832320 -0.026306 0.104041 0.482701 -0.243796 -0.099477 0.560849
below 0.273714 0.384304 -0.899870 -0.934075 0.124021 0.047795 0.142370 0.485633 0.168302 0.298797 0.208552 -0.736302 -0.087098 0.603400 -0.442234 0.295047 0.315823 0.781943 0.354358 -0.446965 -0.490897 -1.466381 0.200529 0.422832 -0.049091 0.878455 -0.342744 0.503611 -0.345702 0.363130 -0.298190 0.263694 -0.165901 -0.296861 0.749017 -0.160376 -0.805101 -0.791513 0.493239 -0.840823 0.436198 0.753284 0.205264 -0.814981 0.826547 0.069121 0.138623 -0.363991 0.451046 -0.594060
rock 0.486181 0.570848 0.442413 0.205696 -0.422276 0.038815 0.152602 0.727686 0.272166 -0.185502 -0.072007 -0.440565 -0.208585 0.977081 0.015720 -0.087689 -0.051888 0.892880 -0.349960 -0.088206 -0.167890 -1.088404 -0.272642 -0.189810 -0.134118 0.685703 -0.500226 0.447981 0.005664 0.038071 -0.902804 -0.379361 -0.337085 -0.216640 0.456954 -0.397404 -0.869361 0.625328 -0.647941 0.081045 -0.429623 0.879039 0.539038 -0.282121 0.065066 -0.156284 -0.016001 -0.900396 0.479742 0.416225
book 0.952075 0.306742 0.006741 0.395521 -0.647102 0.255992 -0.346808 0.419360 -0.663607 0.612499 0.220462 -0.184348 -1.024251 0.772681 -0.138295 -0.041366 1.370798 -0.495081 -1.205099 1.521387 -0.521454 0.072943 -0.676148 0.234701 0.546079 -0.596985 -0.316473 -0.660750 -0.039969 0.337560 0.000247 0.542014 -0.174179 -1.567419 -0.115297 0.444925 -0.824282 -0.315173 0.212566 -0.741821 0.261645 0.609703 -0.726019 0.005205 0.248446 -0.852337 -0.068911 -0.724222 0.102428 1.015950
while 0.444052 1.049439 -0.332163 -0.192126 1.356683 -0.212791 -0.035222 0.331044 0.272235 0.182159 0.012754 -0.138558 -0.506924 0.410836 -0.240661 0.366868 0.132989 0.282944 -0.217364 -1.322494 -0.440523 0.486549 -0.175749 0.479047 -0.200397 0.281624 0.470776 -0.155321 -0.256249 0.341557 -0.513964 -0.085349 0.271010 -0.412335 -0.869513 0.417639 -0.715280 0.048598 -0.414606 -0.964935 1.050758 -0.121967 0.171877 0.078832 -0.011149 -0.190468 -0.195174 -0.743065 -0.395340 0.830505
city 0.291239 0.037684 0.747168 0.896325 -0.425558 -0.376555 0.415345 -0.398290 0.653465 0.433913 0.456441 -0.914811 -0.853222 -0.635737 -1.092701 0.996802 0.004037 0.679110 -0.594776 0.197693 -0.743842 0.334068 -0.564260 0.499112 0.488141 0.416586 -0.187950 0.068767 -0.341465 -0.503744 -0.123143 0.077306 0.323301 -0.166452 -0.540572 0.900174 -0.647978 -0.194768 0.052090 -1.340667 1.416379 0.396940 0.374038 -0.395487 0.241588 -0.137539 0.137601 -0.631422 0.036174 -0.111836
box -0.083608 -0.099808 -0.018118 0.022094 -0.409603 0.247526 -1.390793 -0.128029 0.420176 0.130242 0.359984 -0.870519 0.072507 0.977114 0.008872 0.323296 0.972939 0.171123 -0.964546 -0.402464 0.922643 0.791159 -0.171891 -0.577936 -0.323638 0.924011 -0.521386 1.232870 -0.595716 1.881332 0.608027 0.722695 -0.057077 0.204919 0.759856 0.287687 -0.468759 -0.641282 0.376700 -0.101838 -0.552908 -0.460028 0.035733 -0.597477 0.543174 -0.661918 0.584801 0.068620 -1.459043 0.209363
front 0.200647 0.643768 0.088566 0.689178 0.149200 0.382220 0.536302 0.981394 0.064624 1.092067 -0.005365 0.028007 -0.216415 0.681658 -1.083110 0.748617 -0.134348 0.201439 0.234946 0.124166 -0.212008 0.409394 -0.230350 0.831691 -0.385322 1.486016 0.825875 0.495403 -0.520912 0.109422 -0.502956 -0.589866 0.065097 0.254158 0.518249 0.641026 -0.079505 -0.319933 0.302985 0.122494 0.110118 0.132568 0.809394 -0.631675 -0.495014 0.301279 -0.219381 -1.021497 -0.784278 0.003488
against -0.489293 0.628756 -0.076271 -0.036037 -0.687437 1.126982 -0.140048 0.088877 0.038500 0.691104 0.878597 -1.027651 1.083567 0.701090 -0.374868 0.722649 0.266997 0.371637 0.303252 -0.125019 -0.634254 -0.223881 -1.016115 1.078073 0.421240 1.388401 -1.036686 0.792692 -0.409054 1.075316 -0.463039 -0.783829 -0.061989 -0.740036 0.575679 0.464552 0.343437 0.026373 1.106982 -0.896969 -0.498039 0.375385 0.030092 -1.187978 0.054865 -0.085231 0.127861 -0.334079 -0.332076 -0.414488
five -0.479638 0.702753 -0.419520 -0.551715 0.233643 0.491103 0.674090 -0.213577 0.182037 0.309790 -0.166135 -0.102304 -1.383991 1.217657 -1.105062 0.878637 0.542601 0.211731 -0.261050 -0.048128 0.926010 0.083433 -0.043513 1.013132 -0.657739 1.290352 0.627253 0.666646 -0.652838 0.413424 -0.134964 1.236114 -1.286991 -0.642679 -0.039545 0.073631 0.086582 0.986024 -0.912616 -0.159137 0.111851 0.146079 -0.971694 0.575332 -0.415216 -1.128543 -0.642883 0.129743 -1.273568 -0.662729
push -1.226104 0.692835 0.196393 -1.056438 -0.184850 0.667875 -0.478085 -0.422051 0.576622 0.270048 -0.574662 0.884601 0.734949 1.198733 -2.058565 -0.272260 0.247893 0.217159 -0.407356 0.432696 -0.435148 -0.029629 1.213013 0.523422 -0.125259 -0.277178 -0.545559 -0.035816 0.540393 0.718001 -0.025400 0.615572 0.511024 -0.140680 -0.328169 -0.057260 -0.182674 0.561102 0.929090 0.762657 -0.377876 -0.078684 0.188267 0.169836 0.850507 -0.615542 -0.023362 -1.050129 -0.969247 0.248514
across -0.213254 -0.426131 -0.584662 -0.631451 -0.480709 0.850389 0.496332 0.570152 -0.219061 1.014386 0.108974 -0.437438 0.300467 0.206680 -0.387650 0.844577 -0.578363 0.169183 -0.211690 -0.239621 -0.490863 -1.138858 -0.272593 0.216676 0.541317 2.199909 0.814128 0.367407 -0.176846 0.227099 -0.307808 -0.048942 -0.180868 -0.661240 -0.146556 -0.204887 -0.798246 0.951018 -0.945993 -0.552629 -0.076439 0.155644 0.190684 0.479847 0.188788 -0.025804 -1.115328 -0.368704 0.853420 0.273358
car -1.516310 -0.807402 0.197431 0.881086 -0.068461 0.084762 -0.177728 -0.355145 0.558260 -0.499056 0.799641 0.471998 0.641600 0.223692 -1.003234 0.064929 -0.186068 -0.408912 -0.051795 -0.522497 0.174847 -0.080325 -0.417985 0.658326 -0.314860 -0.701957 -0.422927 0.741763 -0.629887 0.315140 0.489032 0.966402 0.436770 1.199985 -0.169230 0.506737 -0.219578 -0.698014 1.076047 -1.456695 0.203179 0.251649 0.883661 -0.571922 1.135964 -0.796752 -0.622336 -0.467709 -0.297984 -0.415847
exits -0.016704 1.881562 0.626965 -1.132442 -0.179117 -0.098571 0.966898 0.815682 0.151258 -0.509990 0.316074 0.075873 -0.332251 1.165050 -0.787089 0.546667 -0.142252 0.870856 -0.062709 -0.495681 -0.613558 -0.566171 0.061316 0.312125 -1.062399 1.226084 0.588448 0.801104 0.341373 -0.698676 0.299840 -0.239151 -0.815748 0.481601 0.129879 -0.850088 -0.734692 -0.015708 0.465035 -0.483429 1.306503 0.669340 0.536862 -1.198623 0.721732 0.299817 -0.733227 -0.281823 0.142384 0.120951
must -0.110977 -0.064724 -0.266480 0.597567 0.011392 -0.352145 -0.315145 0.683753 -0.262313 -1.146212 -0.296465 0.576486 -0.384830 -0.055571 0.645328 1.176754 0.857269 -0.110909 0.863758 -0.797397 -0.247238 0.290555 -0.058993 0.893222 -0.705904 -0.271642 0.582536 0.778279 -0.075011 0.247389 -1.328498 -0.149358 0.667815 -0.080910 0.412223 0.138598 -0.050963 0.219375 0.531782 -0.505959 0.735793 -0.794357 0.340271 -0.052976 -0.161216 -0.639853 -0.069512 0.746866 -0.534631 -0.482918
office -0.241877 0.510109 1.461469 -0.089455 0.292119 -0.474528 0.706239 1.214590 1.140263 -0.089184 0.600296 0.667094 -0.354936 0.157397 -0.239584 0.746900 -0.127850 0.930185 0.042801 -1.203396 -0.200435 0.385814 -0.180054 1.389144 -0.331867 0.814603 1.076241 -0.178101 -1.117383 0.188142 -0.812440 0.492835 -0.100437 0.346972 -0.317425 -0.060361 0.020499 0.124345 0.159334 0.081442 0.679136 -0.630810 0.288445 0.163594 -0.096454 -0.062868 0.454515 -0.435612 0.308550 0.167601
say -0.619642 0.779201 -0.282443 0.831762 1.331351 -0.262781 0.156556 -0.581834 1.397259 0.024642 -0.701240 -0.249511 -0.813756 0.889009 0.480110 0.581350 1.156225 0.516754 0.166147 0.066936 -0.971468 0.558759 -0.181272 1.021548 -1.249619 -0.840358 -0.657767 -0.552701 0.227470 0.075560 0.235678 1.111459 0.051073 -0.744068 0.523714 0.406209 -0.026485 -0.839164 0.117614 -1.299749 0.414570 0.002582 0.024890 0.216125 -0.048584 0.295968 0.389982 0.552347 -0.069487 -0.414946
leading 0.805232 1.441172 0.280307 -0.482424 0.286322 -0.028481 0.011003 0.762484 -0.150813 -0.160491 0.924822 -0.376223 0.014808 0.565458 -0.119433 0.265319 0.456027 -0.008887 -0.030539 -0.698404 -0.671208 -0.760929 -0.557242 -0.865103 0.332371 1.081445 0.166192 0.958653 -0.371962 0.553843 -0.781242 -0.167740 -0.344953 -0.081099 -0.271794 0.318551 -1.538235 0.508369 -0.481022 -1.481279 0.910812 0.029277 -0.901305 -1.215794 1.186915 -0.141282 -0.078826 -0.864826 0.030618 0.453869
lies 0.242114 0.311147 -0.340924 0.123818 0.012994 0.128404 0.068249 0.627725 0.143945 0.533250 0.550404 -0.625511 0.224295 0.900535 -0.404731 0.493841 0.379190 0.404725 -0.607330 -0.968008 -0.452422 1.050692 -0.701904 0.506950 -0.103248 1.183966 0.256809 -0.220269 -0.215134 0.778674 0.314968 0.363978 0.388226 -0.206219 -0.773857 -0.292332 -0.013954 0.257869 -0.095814 -0.696234 0.039356 -0.444864 0.583544 0.336495 0.607916 -0.528964 -0.232810 -1.115695 -0.120395 0.712112
stand 0.026127 0.384752 -0.133623 -0.138204 -0.696308 0.402837 -1.139530 0.674550 0.138221 0.606167 -0.212963 0.574099 -1.088200 -0.297496 0.400389 0.992088 0.019471 0.768232 0.807179 0.232736 -0.362189 1.110804 -1.009829 1.178046 -0.402475 -0.054475 0.800342 1.449208 -0.946038 0.560816 0.206498 0.490401 -0.384900 0.106483 -0.034052 -0.346199 -0.282091 -0.327750 0.034030 -1.306801 0.518235 0.217301 1.487246 -0.162900 -0.046129 0.029733 0.738252 0.534474 -0.228552 -0.304442
stairs 0.473265 1.553635 0.109744 0.328334 0.757324 -0.310548 -0.559637 0.895991 0.443280 0.452741 0.441153 -0.560755 -0.907805 0.226937 -0.855094 0.040412 -0.473549 0.097608 0.427441 0.033083 -1.500645 -1.095018 -0.373350 -0.303640 -0.178174 0.968226 0.260359 -0.128326 0.165179 0.797987 0.621033 0.202696 -0.075074 -0.197532 -0.531102 0.537614 -1.023711 0.372807 -1.084463 -1.391314 1.315422 0.400602 0.253480 -0.761844 -0.453268 0.193410 -0.027366 -0.515389 0.857862 0.227495
give -0.390976 0.648951 -0.634460 0.340871 0.501582 -0.292665 0.037983 -0.942029 0.764333 -0.631065 -0.466953 -0.187890 -0.077614 0.717907 -0.349265 0.174083 0.830949 -0.316580 -0.136661 -0.129918 -0.065723 -0.186612 0.369017 0.249932 0.025334 -0.660168 -0.135999 0.082069 0.963581 0.655808 0.066565 0.950939 0.636222 -0.336587 -0.572877 0.187515 -0.063508 -0.507840 1.152063 -0.634869 0.194212 0.423302 -0.134515 0.549500 0.613485 -0.666152 -0.575296 0.051191 -1.296781 -0.536295
read -0.962934 0.179796 -0.533437 -0.266927 -0.452966 -0.287305 -0.249594 0.138132 -0.415952 0.225009 -0.852907 0.471857 -0.835910 0.793007 -0.658679 0.472986 1.195668 -0.016231 -0.083822 0.609334 -0.042184 0.410170 -0.288525 0.742830 -0.968843 -0.762251 -0.323773 -0.215100 0.405176 1.076729 0.604891 0.592419 -0.824560 -0.310078 -0.755870 -0.048009 -0.641626 0.715464 -0.568630 -0.339718 0.536790 0.690931 0.042133 0.577227 0.239488 -1.139786 -0.526557 0.064197 -0.895228 0.986020
runs -0.204672 0.047336 -0.000094 -0.467966 0.580795 1.017252 1.846744 0.128831 0.902377 0.136062 -0.372791 0.570944 0.546083 -0.311459 -0.589895 0.452182 0.459580 0.390781 0.596993 -0.397280 -0.718372 -0.768607 -0.190279 -0.357311 -0.307130 0.195862 -0.019768 0.559213 0.039590 -0.261836 -0.896824 0.744439 0.142486 0.536951 -1.166543 -0.553874 -1.367727 0.554907 0.155080 -0.698593 0.144234 -0.031301 -0.251809 0.144268 -0.073606 -0.446159 0.284221 -0.987731 -0.276103 0.802200
gold 0.098593 -0.129803 0.008020 -0.011885 -0.701645 -0.070640 -1.460486 0.358843 -0.547510 -0.321236 -0.747514 -0.172043 -1.519185 1.155726 -0.681282 -0.813584 0.948969 0.883189 -0.882399 0.071047 0.348462 0.136855 -0.816690 0.054086 0.707054 -0.329441 0.475202 0.310451 -0.367316 0.596853 0.020323 -0.272697 0.353601 -0.149530 -0.146866 -0.469337 0.076858 -1.181347 1.228054 -0.563273 0.237537 0.776172 -0.037341 -0.236484 -0.240627 -0.258490 -0.444419 -0.313253 -1.360183 0.104725
trail 0.364540 0.873003 0.344875 -0.476439 0.393011 -0.025382 0.201587 0.161142 1.276801 -0.515900 -0.019267 -0.048087 0.211192 -0.901594 -0.523977 -0.315003 0.984487 0.272880 0.461348 -0.305653 -0.298457 0.157114 -0.522803 0.001447 0.143180 0.344853 -0.610430 0.705816 -0.741929 0.439870 0.690981 0.445434 0.166622 -0.376997 -1.410190 -0.073596 -1.562114 0.307212 0.562551 -0.504212 1.606718 -0.826020 0.503915 0.194550 0.763543 -0.239502 -0.057829 -1.618058 0.060776 -0.233756
when 0.294189 -0.247389 -0.661048 -0.000118 0.237094 0.071316 -0.397060 -0.335737 -0.070623 0.608754 -0.267501 -0.091499 -0.761729 0.124321 -0.266824 0.900663 0.321064 0.024303 -0.411298 0.175330 -0.791652 -0.415555 0.020107 0.432149 -0.893664 -0.141365 0.676335 0.291942 -0.009607 0.020584 -1.159884 0.055164 0.765496 -0.531510 0.679607 0.143772 -0.193824 -0.039411 0.332890 -0.259862 -0.291299 0.562312 0.036797 0.249753 0.054870 0.010445 -0.662834 0.834442 -0.382815 0.283819
narrow 0.939278 -0.250394 -0.195474 -0.264490 0.413965 0.186294 0.241194 0.111055 -0.050009 -0.253537 0.320490 0.404455 0.653741 -0.257441 -0.182839 0.596645 0.045595 0.658426 0.299242 -0.757539 -0.465683 -0.053306 0.058528 -0.650460 0.341120 1.000674 0.258427 0.648253 -0.097345 -0.563621 -1.282541 0.293321 -0.335936 -0.048216 -0.821954 0.209070 -2.313794 0.007303 -0.395327 -1.170004 0.718065 -0.613570 -0.923177 -0.241979 0.727822 -0.136742 0.119995 -0.613503 0.065699 0.391203
enter -1.315815 -0.562332 -0.208627 0.334968 0.257174 0.366319 0.173960 -0.234738 0.109365 -0.328950 0.090127 0.142063 0.538411 0.671138 -1.008923 -0.108423 -0.150720 -0.280986 -0.067829 0.145144 -0.305335 0.092663 -0.291391 0.191544 -0.126845 -0.339971 0.763680 1.191647 -0.322962 0.013283 0.764512 1.015750 0.289509 0.532513 0.188673 -0.171243 -0.023132 0.467241 0.433062 -1.196732 0.833920 0.396562 0.758659 -0.389349 0.562474 -0.603088 0.046881 -0.596926 -0.387446 -0.829141
